malas pantakaeri 0.5000000
malas kaariperori 0.2500000
laja oshirantaaki 1.0000000
desobediente piyatsari 1.0000000
asó otashitake 0.5000000
asó otashitakeri 0.5000000
asó akishitakeniri 0.5000000
extraviado timpinare 0.3333333
extraviado iheeki 0.0454545
extraviado iravaeta 0.5000000
cebo isheeto 0.2000000
charca ookanakeri 0.3333333
charca inkaareki 0.0294118
es osheki 0.0188679
es rantavaeshiti 0.3333333
es piponyari 0.2000000
es omoti 0.2000000
es aashitakari 0.2000000
es eshiraatake 0.5000000
es itseyantari 0.5000000
es shitovi 0.2000000
es inintaitiri 0.3333333
es oharentsite 0.2000000
es kametsari 0.5000000
es apitsatakiriri 0.2500000
es pishimentotsi 0.2000000
es pochari 0.2000000
es opochatati 0.5000000
es kepishiri 0.3333333
es iritake 0.1428571
es rovanavo 0.0769231
es maaperotaka 0.2500000
es imaperotatya 0.3333333
es chokiro 0.3333333
es tsompare 0.3333333
es pamakira 1.0000000
es ikovaaetiri 0.3333333
es ipante 0.3333333
es kametsarini 0.5000000
es iyotiro 0.5000000
es irootake 0.5000000
es pashi 0.3333333
es tontori 0.3333333
es opotsota 0.3333333
es ari 0.0666667
es rantyavaeshiti 0.3333333
es NULL 0.0090090
es otampiate 0.1666667
es kiteriatake 0.3333333
es potsomentotsi 0.3333333
es shipetatantsi 0.3333333
es inati 0.5000000
es shiramparihaniki 0.3333333
es ipakenari 0.3333333
kamaiteri kamaiteri 0.5000000
turushuqui tooso 0.5000000
turushuqui ipashikaatakeri 0.3333333
cava maavo 0.3333333
cava okiyakoti 0.3333333
cava avantyari 0.2500000
cava imoo 0.3333333
parece kemetaka 0.5000000
parece opochaanikiti 0.2500000
parece omantsiyare 0.3333333
parece opariatye 0.5000000
confeccionando rovetsikati 0.5000000
solamente iyotaka 0.3333333
gallinazo tiho 0.5000000
gallinazo iheki 0.1000000
derecha oporiperoki 0.2500000
derecha rakopero 0.3333333
escrito hankenarentsi 0.3333333
escrito rantakeri 0.2000000
rompió otihaavakeri 0.5000000
rompió ihaatakero 0.5000000
espina tonkitsi 0.3333333
espina okentakero 0.3333333
espina kitoche 0.4000000
garra ishetaki 0.1666667
queriendo ashirariake 0.3333333
queriendo ikoveme 0.3333333
queriendo impeeta 0.5000000
descansar makotake 0.3333333
mató pivitirieri 0.3333333
mató itonkake 0.2500000
mató rovamayeri 0.5000000
había notonkake 0.2500000
había kamavetaka 0.5000000
había nonkotsivetaka 0.5000000
había kaniri 0.0588235
había nonyavetakari 0.3333333
llover inkani 0.2222222
qué ovakemiri 0.4000000
qué oitaka 0.5000000
qué iita 1.0000000
qué noyometaemi 0.2500000
amarrar otsaato 1.0000000
amarrar roohotantyaavori 1.0000000
toma riraeyeni 0.5000000
toma cheetatsiri 0.5000000
afasi . 0.0013793
afasi kayetsi 1.0000000
construir rantakaantake 1.0000000
construir ivetsikantyari 0.3333333
construir ishintipare 0.2500000
construir rantantyaari 0.1111111
construir kepaye 0.3333333
roca impetaki 1.0000000
roca ovae 1.0000000
roca impeeta 0.5000000
roca NULL 0.0030030
roca omoki 1.0000000
roca iheki 0.1000000
marino nonyakeri 0.5000000
mayo oteyakitanake 0.1666667
palometa apaani 0.2500000
palometa irika 0.0714286
palometa chomenta 0.6000000
tráeme pamakena 1.0000000
tráeme pamakenavo 0.5454545
mentiroso itseyantari 0.5000000
borrachos shinkirentipaye 0.5000000
lleva rayiro 1.0000000
lleva raantavori 0.3333333
colpa tsimiki 0.3333333
maderables oshekitiri 0.5000000
maderables ari 0.0666667
maderables hantari 0.2000000
lit. iheetiro 0.5000000
lit. nokovati 0.2000000
quebradas oharentsiki 0.2000000
quebradas nihapaye 0.2500000
crecieron shookake 0.3333333
crecieron ishivanki 0.3333333
mordió shitamenkotsi 0.3333333
mordió ratsikakeri 0.5000000
mordió okirikakeri 0.3333333
mordió ratsikakerira 0.2500000
mordió ratsikavetakari 0.3333333
mordió kamaatonki 0.3333333
regaló hankenamentotsi 0.3333333
traerme payena 1.0000000
hambre inkame 0.3333333
hambre itashe 1.0000000
hambre aakeri 0.3333333
hambre tasheyakena 0.5000000
anciano antyashipari 0.5000000
tienes piyote 0.5000000
tienes piviari 0.3333333
tienes timatsi 0.1428571
tienes pihaeke 0.2000000
tienes NULL 0.0030030
pintarse potsoti 0.3333333
pintarse opotsotyari 0.5000000
techo ipanko 0.2000000
techo ipashikantyaabori 0.5000000
gallinero ityaapapankote 0.5000000
gallinero tyaapapanko 0.5000000
gallinero tyaapapankoki 0.2857143
gallinero rova 0.2500000
agua koviti 0.2500000
agua nihaaki 0.1428571
agua moyaake 0.3333333
agua niha 0.3181818
agua ohavati 0.5000000
escalera pavitsi 0.3333333
escalera nantake 0.5000000
quebrada pampiamentotsi 0.2500000
quebrada nihateniki 0.3333333
quebrada nihaateniki 0.2222222
quebrada nihaatenipaye 0.5000000
quebrada nihaateni 0.2000000
quebrada NULL 0.0030030
uvillas shevantoki 0.5000000
uvillas pochari 0.2000000
pie noitsiki 0.2500000
pie chareto 0.5000000
pie iitiki 0.2777778
pie noitsi 0.2000000
sacaron ichenkoreetakeri 0.3333333
demasiado aventyari 0.1666667
demasiado rovaka 0.3333333
demasiado avitatakena 1.0000000
demasiado kametsa 0.1111111
demasiado omorekantari 0.2500000
demasiado oshinkitantari 0.2500000
cazó ocheraaki 0.1250000
cazó raakeri 0.3333333
orejas antavo 0.0909091
orejas iyempita 0.5000000
balista noviamene 0.5000000
ratones rovari 0.1250000
ratones onkiro 0.3333333
ratones misho 0.3333333
enroscando maanki 0.1250000
enroscando rankoviitiri 0.3333333
chorito chorito 1.0000000
hagas kaariperori 0.2500000
dijo okantakeri 0.5000000
dijo piyatsare 1.0000000
dijo ikantakina 0.5000000
dijo ikantanake 1.0000000
dijo ikantapaakeri 0.3333333
dijo ikantakero 0.3333333
dijo okantiro 0.2500000
dijo ikantakena 0.5000000
dijo ikanti 0.2500000
dijo okantakena 0.5000000
dijo okantakina 0.5000000
dijo okantanake 1.0000000
dijo ikantakeri 0.5000000
lleno haaka 0.5000000
lleno itsonkatakeri 0.2500000
hierve moyaake 0.3333333
hierve onihaate 0.5000000
manacaraco itarika 0.3333333
manacaraco maati 0.5000000
ladró itsaatakeri 0.6666667
ladró notsitsite 0.1250000
pasada chapinki 0.3333333
pasada oshokakaakero 0.2500000
parte henoki 0.1666667
pasa avihatsiri 0.5000000
pasa inyayetiri 0.5000000
pasa petakovaetantari 0.5000000
perro katsimari 0.3333333
perro nihateniki 0.1666667
perro rotsitsite 0.2500000
perro otsitsi 0.5000000
perro NULL 0.0060060
perro notsitsite 0.2500000
perro otsiti 0.6428571
perro otsitzi 0.5000000
tu pinkiteri 0.3333333
tu pitomi 0.4000000
tu pipanko 0.3333333
tu pantavaere 0.2000000
tu pakeri 0.3333333
tu pinampiki 0.5000000
tu piyahankarite 1.0000000
tu pipankoki 0.3333333
tu pipoke 0.5000000
tu piyaariri 0.2000000
tu pireenti 0.3333333
tu piri 0.2500000
tu shintsiri 0.3333333
tu pakishire 0.5000000
tu pitsiro 0.2857143
tu piponyari 0.2000000
tu pivaero 0.5000000
tu okaematimi 0.5000000
tu itonkakeri 0.2500000
tu pirenti 0.5000000
elefante korinto 0.2500000
mintió itseeyaka 0.5000000
mintió kamaiteri 0.5000000
izquierda rovavaetya 0.5000000
izquierda rampateki 0.3333333
izquierda oshero 1.0000000
gritando ikaimati 0.5000000
mosquitero imaantare 0.3333333
mosquitero kamanyaari 0.3333333
mosquitero itsatakero 0.5000000
creciendo ipankitakeri 0.3333333
avioneta NULL 0.0030030
tenemos inkaamane 0.3333333
tenemos ontime 0.5000000
tenemos antavaete 0.5000000
tenemos oya 0.3333333
tenemos ayometaeri 0.3333333
tenemos ovametaeri 0.3333333
tenemos atoonkatyeero 0.3333333
besó ratsovootiro 0.5000000
bañarme nonkaavoshitapaentya 0.3333333
bañarme noyaatapainte 0.3333333
ishanga iponkatyari 0.2500000
cuídense paamaventya 0.3333333
agüero oshitovake 0.2500000
satanás kamari 1.0000000
pensamiento kametsare 0.5000000
pensamiento akenkishiriamento 0.5000000
bravo katsimari 0.3333333
bravo rotsitsite 0.2500000
radio nyaavaementotsiki 0.5000000
radio poematanake 0.3333333
chuparon itsonkatakeri 0.2500000
chuparon ivoriki 0.5000000
salía ikinavaeti 0.3333333
ven pimpichenkero 0.3333333
llamar nyaamentotsiki 0.3333333
llamar okaemakantiro 0.2500000
llamar ikaemantariri 0.2500000
llamar pinkatsari 0.0833333
llamar ikaemakantakae 0.2000000
kishokiyo oheeke 0.5000000
kishokiyo heekamentotsiki 0.5000000
kishokiyo kishityo 0.3333333
alumnos irianipaye 0.2500000
alumnos rovameri 0.5000000
chorina chorina 0.3333333
chorina tonkaariki 0.5000000
escucha pinkeme 1.0000000
tambien naaka 0.3333333
moco pisheteri 0.5000000
moco iyamantsite 0.3333333
dientes otsoyempitati 0.5000000
pero kantimaetacha 0.7500000
pero kantaencha 0.5000000
pero iro 0.1764706
pero chenkotsi 0.5000000
porque amaenkari 0.5000000
porque NULL 0.0030030
porque inkaaricheraaki 0.3333333
porque pirevoshitya 0.2000000
porque tema 0.8333333
porque rashinonkaaka 0.3333333
porque itsarovi 0.3333333
porque atsikakeri 0.5000000
porque itoviro 0.2500000
porque iraiki 0.5000000
porque imaye 0.2500000
porque otampiate 0.1666667
porque iporeriaati 0.5000000
porque ikemaenkatiri 0.3333333
porque timanake 0.2500000
porque ominkiake 0.3333333
porque raatikaitakeri 0.2500000
porque karentsatake 0.1666667
porque ikiteehitakotake 0.2500000
porque noitsi 0.2000000
porque okantakaantiro 0.2222222
hombros ishempaki 0.2000000
ves pinyaakeri 0.2500000
ves pinyeri 0.3333333
ves pinyaakerira 0.5000000
tejido nontyaare 0.5000000
afuera inkokiroeni 0.5000000
cuñado ani 0.5200000
cuñado eemeeni 0.5000000
cuñado nani 0.4411765
verdadero imaperotatya 0.3333333
nuestros atomipaye 0.3333333
nuestros ovametaeri 0.3333333
castigar iponkantyari 0.2500000
mete pitetahero 0.3333333
mete pomonkeri 0.3333333
gripe NULL 0.0030030
gripe neentsite 0.2500000
gripe omatakeri 0.1428571
gripe kamaantsi 0.5000000
iremos ahatahe 0.5000000
iremos ari 0.0666667
tendrás raretatyea 0.3333333
baja oyiitakero 1.0000000
larga ikentsi 1.0000000
larga tsompare 0.3333333
colérico kihinkari 0.5000000
costosas ipimantayetiri 0.2500000
costosas ovaravontsi 1.0000000
red itsariantyariri 0.5000000
roza ipehatiro 1.0000000
comezón kainitake 0.5000000
yo eehati 0.1428571
yo naaka 0.6666667
buscando ineetsikiroeni 0.5000000
buscando ramenayeti 0.6666667
embarazada kooya 0.5000000
embarazada motinto 1.0000000
madre ina 0.1052632
madre naana 0.1250000
madre okaematimi 0.5000000
madre onkotsitantyari 0.5000000
madre NULL 0.0030030
extraña rareetaka 0.3333333
extraña anampiki 0.2500000
tarrafeó ipashikaatake 1.0000000
tarrafeó ipashikaatakeri 0.3333333
bijao akipatantyaari 0.1666667
bijao pitiro 0.3333333
tortuga konoya 0.1428571
lee inyaanatero 0.3333333
oso maeni 0.6666667
medio niyanki 0.3333333
saqué kirikotake 0.2000000
saqué naashitakeri 1.0000000
palmera tsireentsi 0.2000000
enfermó mantsiyatake 0.5000000
enfermó imantsiyatantanakari 0.3333333
cosho inchatonakiki 0.3333333
cosho inchatonaki 0.3333333
quebrar ankaraero 0.3333333
quebrar amatiro 1.0000000
grave maperotaka 0.5000000
grueso antavo 0.0909091
nos ikaemakantakae 0.2000000
nos NULL 0.0030030
nos eroti 0.5000000
nos opakae 0.3333333
nos nyaatsavaerontsi 0.2500000
nos ari 0.0666667
lluvia inkani 0.3333333
lluvia pirinto 0.2000000
levanta pimpiriintaheri 0.5000000
levanta itinaeri 0.5000000
levanta kachaarentsi 0.3333333
canto otsapiki 0.5000000
canto ovantsi 0.2500000
tuerto sheteri 1.0000000
rocas shiranta 0.3333333
bueno timatsiri 1.0000000
bueno rahankane 0.3333333
borrachera ishinkiro 0.2000000
corrió ishiyanaka 0.3333333
junta raati 0.2000000
hermano pireenti 0.3333333
hermano iye 0.5000000
hermano maanko 0.3333333
hermano otsipa 0.3333333
hermano pirenti 0.5000000
hermano aari 0.5000000
hermano ipokake 0.5000000
hermano piyaariri 0.2000000
hermano yeye 0.4935065
hermano rirenti 0.3333333
caulla eshiraatake 0.5000000
kemariari pampiamentotsi 0.2500000
kemariari heekatsiri 0.1666667
juegan otevaki 0.0714286
juegan inyatsaeyani 0.2000000
juegan inchato 0.0476190
trabaja antavaeti 0.3333333
trabaja ovaneki 0.0833333
manos aririka 0.0400000
manos ovanavontsi 0.2000000
manos poya 0.2500000
manos pako 0.2500000
acercarse pokashitiriri 0.5000000
acercarse inyeri 0.5000000
acercarse inyee 0.2000000
vas piyaatika 0.5000000
vas povatikerori 0.3333333
vas karentsatake 0.1666667
leña tsitsi 0.7142857
leña atsima 0.3333333
lisa kovana 0.5000000
soldados soraro 0.5000000
soldados kiteeheriki 0.3333333
naza oteyantyaariri 0.2500000
enseñar ayometaeri 0.3333333
enseñar otimatye 0.2222222
enseñar ovametaeri 0.3333333
algún ikemeta 0.5000000
nombre ivaero 0.3333333
nombre pivaero 0.5000000
instruir panteri 0.3333333
instruir noyometaemi 0.2500000
foto shiyakaantsi 1.0000000
enfermo mantsiyare 0.3333333
piso raatikashitakavo 0.5000000
tyobiri NULL 0.0030030
tyobiri tyoviri 0.3333333
les imoreki 0.1666667
les inyaamatari 0.3333333
les hamorenkake 0.2000000
oreja iyempitaki 1.0000000
mojarra rovatyaari 0.1666667
atragantar ikentsiki 0.2000000
pegar piyate 0.5000000
pegar pimpichero 0.3333333
pecho chompi 0.5000000
pecho ineeki 0.5000000
estaba oshinkitantakari 0.3333333
estaba chompita 0.3333333
estaba inyaatsatavo 0.2000000
estaba inkie 0.2000000
sobre imampaveata 0.5000000
sobre katsivore 0.2000000
sobre shitashintsi 0.3333333
prevenir eero 0.0769231
prevenir shitamentotsi 0.3333333
mosca ikiriki 0.3333333
ampollas hamorenkake 0.2000000
rebalsó inchatonakiki 0.3333333
rebalsó heekatsiri 0.1666667
shansho inampitavo 0.2500000
shansho shesheti 0.5000000
hilo okirikakeri 0.3333333
feliz rahankane 0.3333333
feliz kametsari 0.2500000
feliz oveshiriachari 0.3333333
feliz iritake 0.1428571
pollito tyopiki 0.5000000
pollito otyaapanikite 0.5000000
pollito tyaapaniki 0.2500000
hijo notyomi 0.4166667
hijo pitomi 0.4000000
hijo itomi 0.5333333
hijo neentsite 0.2500000
merma oshirinkaare 0.5000000
cabello iishi 0.5000000
cabello oishi 1.0000000
cabello okishitantyariri 0.3333333
cabello aishi 0.3333333
maestros hamorenkake 0.2000000
trabajaba rantavaeveta 0.3333333
trabajaba rantavaetantari 0.3333333
barro hampovatsa 0.5000000
barro ohampovatsate 0.3333333
barro oitsare 0.2500000
barro rovanavo 0.0769231
cortó ichekake 0.5000000
cortó itaki 0.3333333
cortó ichekakotake 0.1666667
cortó itotakero 0.5000000
cortó chekaka 0.5000000
gusanos chapitsi 0.3333333
gusanos onkona 0.5000000
gusanos oneeki 0.3333333
gusanos mata 0.2000000
gusanos koriato 0.3333333
grandes nampitsiki 0.1250000
grandes ikemantari 0.1666667
caracoles rootake 0.2000000
caracoles totiroki 0.1111111
huasaí tsireentsi 0.2000000
huasaí oyeenka 0.5000000
planta NULL 0.0030030
planta otaki 0.5000000
planta pankirentsi 0.5000000
planta ashi 0.2500000
planta kametsari 0.2500000
regálame pimpena 0.5000000
dile pinkantero 0.5000000
barriga oonkaka 0.2500000
barriga omoti 0.2000000
barriga imoti 0.3333333
sopló itahonkakero 0.5000000
ocioso iperata 1.0000000
ocioso te 0.0625000
ocioso ivane 0.5000000
ocioso otime 0.5000000
ocioso ikantake 1.0000000
ocioso peranti 0.5000000
mordedura maankivenki 0.3333333
mordedura inchashi 0.5000000
pescó rakachaatake 0.3333333
pescó pava 0.1111111
pescó inoshikakeri 0.5000000
pescó pavachori 0.0322581
pescó ipashikaatantari 0.3333333
pescó NULL 0.0030030
pescó ipahakaatakeri 0.2500000
abanico hevaantsi 0.5000000
centro pinyaakeri 0.2500000
respiraba ranyeenkaveta 1.0000000
amarró kamanyaari 0.3333333
amarró ovityo 0.5000000
amarró ishirikakeri 0.3333333
lombriz shitsa 0.5000000
siembro nopankiti 0.5000000
tuvo pashiventaka 0.5000000
emiten amampaantsi 0.3333333
emiten oshaaviityaanake 0.2500000
grado iraari 0.3333333
brazaletes amarentsipaye 1.0000000
hjo notyomi 0.0833333
haré nomatakero 0.5000000
haré ari 0.0666667
guardaba nopankiterime 0.2500000
guardaba oharentsiki 0.2000000
sábalo mamori 0.5000000
sábalo koviri 0.2500000
sábalo akacharentsi 0.5000000
siembran parianti 0.2500000
pieza inchaki 0.1666667
firmamento inkiteki 0.1428571
arrastra pitsiro 0.1428571
arrastra pinoshikanakero 0.3333333
juego inyaatsavaeveta 0.2500000
herida avintantyaavori 0.3333333
herida enchaniki 0.3333333
herida raavintantyariri 0.2500000
herida opatsavo 0.5000000
contruir rantantyaari 0.1111111
las chapiti 0.5000000
las pinkevero 0.5000000
las iheekantavo 0.2500000
las otakipayeki 0.2000000
las aavintantatsiri 1.0000000
las anyaakero 0.5000000
las iyempita 0.5000000
las ipentaki 0.2500000
las nihapaye 0.2500000
las chekito 0.5000000
las ishivanki 0.3333333
las itonkakeri 0.2500000
las inchateyaki 0.3333333
las ikaimi 0.3333333
las roteyantyaariri 0.2000000
las antavoki 0.3333333
las okentimikari 0.2500000
las royeri 0.2500000
las ompokiro 0.5000000
las shiyakaantsipaye 0.5000000
las oshokakaakero 0.2500000
las tsinanipaye 0.3333333
las NULL 0.0150150
las okantashiyetashita 0.3333333
las ookiro 0.3333333
las oshetaki 0.5000000
las shiranta 0.3333333
las tsirenirikipaye 0.3333333
las otapinaki 0.1666667
las tsinanepaye 0.4444444
las inyatsaeyani 0.2000000
las oshaaviityaanake 0.2500000
las toniro 0.3333333
las otsapairikita 0.1666667
las timpinare 0.3333333
las inchatoshiki 0.2000000
las itsinanitepaye 0.5000000
las ohaaviki 0.2000000
las ipori 1.0000000
las aayetirori 0.2000000
las tsipana 0.4000000
bufeo koshoshiko 0.5000000
traeme perato 0.5000000
hueso itsaakeri 1.0000000
duro inchaki 0.1666667
duro NULL 0.0030030
represó oonkantanakari 0.5000000
añuje shavo 0.8000000
chocó tyominkiyo 0.2500000
luz imoreki 0.1666667
luz entsite 0.5000000
luz otamentotsiki 0.3333333
aniversario oharentsiteki 0.3333333
aniversario yotaantsinpanko 0.2500000
cargar okiantyariri 0.3333333
raya ikaavoshiveta 0.2500000
kishokiri kishokiri 0.5000000
camotes koriti 0.5000000
palabra inyaanatero 0.3333333
palabra inyaane 0.3333333
palabra kompitaka 1.0000000
) shintsiri 0.1666667
) otsipaki 0.5000000
maíz shinki 0.6666667
maíz ishinkine 0.4285714
callampa shitovi 0.4000000
huasa tsiyeri 0.5000000
huasa rapatota 0.3333333
tierra katsikori 0.3333333
tierra kipatsi 0.5000000
tierra mavoeni 0.1666667
nuestra anyane 0.5000000
nuestra kaari 0.1666667
nuestra anyaapintane 0.5000000
nuestra ivetsikantyari 0.3333333
dónde piyaatika 0.5000000
dónde ikenanake 0.5000000
dónde hempe 0.4285714
llorón iraenkari 0.5000000
llorón pamakenari 0.3333333
llorón aventyari 0.3333333
obityo ovityo 0.5000000
sharishi sharishi 0.5000000
compra pamananteri 0.3333333
compra ihankenatantantyari 0.2000000
compra ikitamaaripetate 0.5000000
compra pitomi 0.1000000
mostró ronyaakakeri 0.3333333
fija pamenarotya 0.5000000
fija hempe 0.1428571
chupó ashiyakero 0.5000000
chupó ratsimiyakeri 0.2500000
surcan tiyaatanaha 0.3333333
remolino opiyaataki 0.2500000
remolino shinkiririti 0.2500000
grupos ranashitantyaari 0.5000000
venado maniro 0.8461538
venado NULL 0.0030030
duerma ikevoki 0.5000000
duerma imaantyaari 0.1666667
trampa ovirentsi 0.5000000
frutos iraka 0.1428571
frutos okitsoki 0.5000000
frutos kapararo 0.3333333
frutos onkochapaaki 0.2500000
shantyoma oshitovake 0.2500000
shantyoma inyaakeri 0.1666667
zancudos manyo 0.3333333
aparina tsoompirontsi 0.5000000
atizó oontsotakero 0.5000000
madura iraka 0.1428571
madura ari 0.0666667
madura irakakerika 0.3333333
que pivitirieri 0.3333333
que homintsaavakeri 0.2500000
que ikamankaati 0.3333333
que inchatopaye 0.2500000
que tsonkiri 0.2000000
que ero 0.2000000
que anirio 0.2000000
que pinyaakeri 0.2500000
que ramakeri 0.3333333
que oya 0.3333333
que ipokatye 0.5000000
que omorekantyaari 0.3333333
que atoonkatyeero 0.3333333
que rovaveta 0.5000000
que mata 0.2000000
que hamaani 0.2500000
que ishinkine 0.2857143
que nopankiterime 0.2500000
que pinkamanteri 0.2000000
que pivavitero 0.5000000
que ritaki 0.3333333
que mereto 0.5000000
que namanantakera 1.0000000
que pantavaere 0.2000000
que inyee 0.2000000
que ichekakotake 0.1666667
que ikemashitanaka 0.5000000
que akachavaerenti 0.2500000
que maranke 0.3333333
que nantero 0.5000000
que koveenkari 0.3333333
que anonkaka 0.5000000
que poyaatanakero 0.5000000
que notonkake 0.2500000
que otimatye 0.4444444
que rovaeyakani 0.5000000
que imaantyaari 0.1666667
que pinyaakerira 0.5000000
que ihankenavaerentitantyaari 0.2500000
que otyaakitakeri 0.2500000
que NULL 0.0390390
que ihaekantavo 1.0000000
que omantsiyare 0.3333333
que rovavetakari 0.1666667
que ontimatye 0.2000000
que eentsikeroeni 0.3333333
que irakaentsiri 0.3333333
que tekatsi 0.1111111
que aashitakari 0.2000000
que onkotsitakeri 0.2500000
que ishiyanaka 0.3333333
que ikomintsatantyaari 0.2000000
que oovaenchari 0.3333333
que inkani 0.1111111
que ataerikari 0.3333333
que oshirontane 0.2500000
que ookanakeri 0.3333333
que kihinkari 0.5000000
que otsapairikita 0.1666667
que oveshiriachari 0.3333333
que pihaeke 0.2000000
que pariakitatsiri 0.3333333
que aretapaenchari 0.3333333
que niotya 0.2500000
que aayetirori 0.2000000
que hankenarentsi 0.3333333
que oyaari 0.2000000
que onihaate 0.5000000
que raakeri 0.6666667
que maaroni 0.2500000
que antavotantyaari 0.2500000
que imaantare 0.3333333
que ipahakaatakeri 0.2500000
que antirori 0.5000000
que ihankenatantantyari 0.2000000
que ranyi 0.2500000
mandó otyaankakeri 0.5000000
mandó ikaemakantakae 0.2000000
mira raminiro 1.0000000
mira pamenero 1.0000000
mira ramene 0.3333333
porongo ivachakateki 0.3333333
oyó sharishi 0.5000000
oyó ikemake 1.0000000
llama piniro 0.3333333
llama pirinto 0.2000000
brincan imiamiataeyeni 1.0000000
kamañari kamanyari 0.2500000
kamañari inampiki 0.1428571
kamañari kamanyaari 0.3333333
kamañari matsantsi 0.2500000
kamañari oshekini 0.0909091
ser nareetyari 0.5000000
ser onkantapaentya 0.5000000
ser imatsini 0.3333333
ser ikemeta 0.5000000
ser ikomintsatantyari 0.3333333
termirar pamitakotena 0.3333333
termirar notsonkantyaavori 0.5000000
termirar intsipaite 0.1666667
termirar nopankoki 0.1111111
carne vatsatsi 0.5000000
carne ivatsa 0.5000000
carne shitsivari 0.5000000
niña shitovake 0.2500000
niña itaakero 0.2000000
niña oriani 0.3333333
quemado tainchari 1.0000000
pene ishiviki 0.3333333
volver ramaero 0.5000000
vivo anyaatsini 0.2500000
vivo noheki 0.5000000
kepityoki kepityoki 0.3333333
kepityoki ompohakeri 1.0000000
polilla periki 0.5000000
polilla rapeyakero 0.2500000
hacer nopehashitantyaavori 0.2500000
hacer antantyaari 0.2857143
hacer rantantyaari 0.1111111
hacer komarontsi 0.2500000
hacer noyometaemi 0.2500000
hacer atsima 0.3333333
hacer rantantyavori 0.3333333
hacer akipatantyaari 0.1666667
hacer nantantyaari 0.6666667
hacer shovirentsi 0.5000000
hacer rantantyaavori 0.3333333
hacer ishitamenkotantyaabori 0.5000000
hacer nante 0.3333333
atoró iniyamentoki 0.2000000
perdiz kentsori 0.5000000
perdiz shonkiri 0.4000000
perdiz kontsavo 0.2500000
shawashi shavashi 0.5000000
pasé navihakero 0.5000000
diciendo ikantiro 1.0000000
diciendo pirinto 0.2000000
diciendo ashitaaniyetatsiri 0.5000000
diciendo iinatsori 0.3333333
mojarras mereto 0.5000000
sentarse onkoveme 1.0000000
moscas rovantyari 0.3333333
moscas shikiri 0.4000000
moscas royeri 0.2500000
poco kapichoki 0.5000000
poco piviari 0.3333333
poco pipavakena 0.3333333
poco pitivine 0.2500000
gusano maavo 0.3333333
gusano chapiti 0.5000000
gusano oyanire 0.5000000
gusano chovitake 1.0000000
gusano rotsitsite 0.2500000
ayúdame pamitakotena 0.3333333
ese ironta 1.0000000
ese irinta 0.5000000
renacuajo mahoki 0.2500000
renacuajo iheki 0.1000000
vivos mavoeni 0.1666667
vivos anyiinkari 0.3333333
cuerpo ivatsaki 0.3750000
achuni kapeshi 0.6666667
pies tema 0.1666667
shewankori shevankori 0.5000000
asiento heekamentotsiki 0.5000000
camarón rovantavo 0.1666667
amaneció kiteeheri 0.5000000
amaneció menkoriityaake 0.3333333
amaneció iroka 0.0588235
dieron echonkiini 0.5000000
diferentes atiri 0.0434783
mal kametsa 0.1111111
mal te 0.0625000
mal rovetsikaperotero 0.3333333
mal oshitovake 0.2500000
shapopo nonyaakeri 0.2000000
shapopo shapopo 0.5000000
recolectar shiyava 0.2500000
recolectar raaki 0.5000000
despacio ineetsikiroeni 0.5000000
despacio ramini 0.2500000
despacio paniite 0.5000000
quiere eerorika 0.2500000
quiere okovi 1.0000000
pide ikovakotiro 0.3333333
nieta noshavo 0.5000000
pato pantyo 0.5000000
pato amaatake 0.5000000
solo NULL 0.0030030
solo ebankari 0.5000000
solo apaniroeni 0.6666667
estar ityerovi 0.5000000
estar pihaeke 0.2000000
estar ikahankantyaari 0.3333333
estar pankotsiki 0.0833333
revisar amenero 0.5000000
anzueleado poya 0.2500000
vive iheeki 0.2727273
vive inampitavo 0.5000000
vive NULL 0.0090090
vive oveshiriachari 0.3333333
vive ihaeki 0.6666667
vive mahoki 0.2500000
vive ranyi 0.2500000
kowashito kovashito 0.5000000
kowashito raatsi 0.2000000
invierno kiavontsiki 0.2500000
caparazón itotanakeri 0.3333333
caparazón inaki 0.3333333
sajino kitairiki 0.5000000
sajino kitaeriki 0.5000000
agarré naake 0.3333333
pelean ikihakotavo 0.5000000
pelean rantavakaatya 0.5000000
también imonkaatakero 0.3333333
ríos niha 0.0454545
ríos amaaniti 0.5000000
frío katsinkaiteri 0.5000000
canta mapiti 1.0000000
canta ovashireenkataka 0.5000000
canta imampaavaeta 0.5000000
crece tyonkiro 0.1666667
crece oshoki 1.0000000
crece amanite 0.5000000
lopuna kompiyoki 0.3333333
lopuna raati 0.2000000
trabajar antavaete 0.5000000
trabajar rantavaete 0.2500000
trabajar rantavaeti 0.3333333
trabajar otimatye 0.1111111
trabajar antavaeti 0.3333333
machiki payantipeshi 1.0000000
cocina onkotsitakiro 1.0000000
caña okemeneenta 0.2000000
caña ashiyakero 0.5000000
caña oyaatantari 1.0000000
caña hanko 1.0000000
azúcar okemeneenta 0.2000000
suegro akonkire 0.2500000
suegro pinkiteri 0.3333333
suegro ikentsiki 0.2000000
suegro konki 0.4827586
suegro NULL 0.0030030
preñó aashitakari 0.2000000
sintió ikemashitanaka 0.5000000
sintió kimoshiretanaki 0.5000000
altura chochoki 0.3333333
hermana entyo 0.5000000
hermana toto 0.5000000
hermana NULL 0.0030030
hermana eentyo 0.5000000
hermana choeni 0.5121951
hermana pitsiro 0.1428571
hermana pinoshikanakero 0.3333333
sacar raahero 1.0000000
sacar piyaatake 0.3333333
sacar tsimenkito 0.5000000
sacar akonkire 0.2500000
sacar antsokakite 1.0000000
sacar kaniri 0.0588235
sacar otsoki 0.3333333
sacar rovaneki 0.1111111
soportó ramavetapahero 1.0000000
semillas oitsoki 0.5000000
semillas NULL 0.0030030
semillas kentavo 0.1666667
olla ootsironakite 0.3333333
olla kotsironaki 0.5000000
olla koviti 0.5000000
tapa rashitiro 1.0000000
cucarachas chompita 0.3333333
fui niyaatantakari 0.2500000
fui naye 0.5000000
fui niyaate 0.5000000
cuello itsano 0.5000000
cuello nokentsiki 0.3333333
cuello NULL 0.0030030
curandero sheripiari 0.4000000
piñas ipankitake 0.5000000
nietos oharipaye 0.5000000
jesús tahorentsi 0.5000000
caimitillos etiki 0.5000000
frijoles omachaakite 1.0000000
monte NULL 0.0030030
monte antamiki 0.3750000
nadar ramate 0.5000000
nadar ontimatye 0.2000000
nadar maniro 0.0769231
nadar oveniki 0.3333333
nadar ramaate 0.3333333
nadar imontyantyaavori 0.3333333
: : 0.5000000
costado pankotsi 0.1428571
costado oheeki 0.2000000
costado shivitsa 0.3333333
dentro intsomoeki 0.6666667
entres paamaventya 0.3333333
siento tasheyakena 0.5000000
moler atoonkatyeero 0.3333333
moler honkoki 1.0000000
hualo pirinto 0.2000000
hualo ikaemiro 0.3333333
asustó imintsaavakero 0.2500000
asustó romintsaakeri 0.2500000
asustó maranke 0.3333333
asustó homintsaavakeri 0.2500000
asustó mintsarovakenari 0.5000000
quirquincho ikiyakoti 0.2500000
quirquincho etini 0.2500000
espalda ikahankantyaari 0.3333333
espalda itapikiki 0.2500000
digital ohankenamento 0.3333333
voy nonkaavoshitapaentya 0.3333333
voy panteri 0.3333333
voy navihavaketa 0.3333333
volando ayaataki 0.5000000
volando etso 0.3333333
otra ochera 0.5000000
otra otsipaki 0.5000000
otra otsipa 0.3333333
toca tivotake 0.2000000
cortar icheki 0.5000000
compró ramanantakero 0.5000000
compró amanantake 0.5000000
compró ramanantake 1.0000000
tiene otime 0.5000000
tiene hantsaro 0.5000000
tiene NULL 0.0030030
tiene enchaniki 0.3333333
tiene oneeki 0.3333333
tiene itsarovi 0.3333333
tiene oparetsa 0.3333333
tiene katsovatake 0.5000000
tiene motinti 0.5000000
tiene oshekini 0.1818182
tiene pochokitake 0.3333333
tiene itsano 0.5000000
tiene miretake 0.5000000
tiene otimi 0.7500000
tiene iriripaye 0.5000000
tiene otsapairikita 0.1666667
tiene ikaemakantaetakeri 0.5000000
tiene timanake 0.2500000
tiene hompotaki 0.3333333
tiene iviti 0.3333333
tiene oshitsapaereki 0.3333333
tiene ichera 0.5000000
tiene imaatsa 0.5000000
tiene tekatsi 0.1111111
tiene tsovo 0.2500000
tiene ramaate 0.3333333
tiene timatsi 0.1428571
tiene rotsitsite 0.2500000
maquisapa rantyavaeshiti 0.3333333
maquisapa tsovero 0.5000000
joven evankari 0.6250000
joven NULL 0.0060060
joven evankavo 0.3333333
hojas ratsi 0.5000000
hojas oshi 0.2000000
hojas itipiati 0.3333333
hojas payantishi 0.3333333
hojas onkonashi 0.3333333
hojas tsipana 0.4000000
hojas itsipanashite 0.5000000
hojas pitiro 0.3333333
muy ikovaaetiri 0.3333333
muy ipimantayetiri 0.2500000
muy ipentaki 0.2500000
muy piriaperotake 0.5000000
muy intaena 0.5000000
muy inintaitiri 0.3333333
muy ohaavati 0.5000000
muy kohaniri 0.3333333
muy NULL 0.0030030
muy rantavaeshiti 0.3333333
muy menkori 0.5000000
muy tontori 0.3333333
muy osheki 0.0754717
llegó rareetaka 0.3333333
llegó aretapaenchari 0.3333333
llegó pavaeni 0.3333333
sembrarlo novaneki 0.1250000
sembrarlo nopankiteri 0.3333333
llena antaiki 0.3333333
tyonkishori tyonkishori 0.5000000
mentira pitsaeyaka 0.5000000
maaniri maaniri 0.2500000
lávate pirevoshitya 0.2000000
lávate pinkevero 0.5000000
recibió ipaetantakariri 0.5000000
yompiri yompiri 1.0000000
una anampiki 0.2500000
una maanki 0.1250000
una apaani 0.2500000
una NULL 0.0060060
una pavitsi 0.3333333
una oriani 0.3333333
una noonki 0.5000000
una ampatotya 0.3333333
una rantantyari 0.1666667
una tsaampi 0.5000000
una ontyiro 0.5000000
una apani 0.4545455
una ichekake 0.2500000
una imintsaavakero 0.2500000
una ichekakotake 0.1666667
una ikaemakantaetakeri 0.5000000
una omoonaki 0.1111111
una okiki 0.3333333
una materinki 0.2500000
una nyaatsavaerontsi 0.2500000
una kameetsaanto 0.5000000
una oshiyakaantsi 0.3333333
una raretatyea 0.3333333
una inchapataki 0.2500000
una ikentake 0.1666667
una irootake 0.5000000
una kentsori 0.5000000
una opakero 0.5000000
una mampaantsi 0.4000000
tarrafear ipashikantyaari 0.5000000
llegar otampatikatapake 0.3333333
llegar raretantapaakari 0.5000000
llegar nareetantakari 0.5000000
llegar rareetahea 0.3333333
llegar nokovashiriaka 0.5000000
llegar avireri 0.3333333
haremos ari 0.0666667
haremos amatakero 1.0000000
haremos kametsa 0.1111111
verano opiriati 1.0000000
verano oharentsite 0.4000000
verano oharentsiki 0.2000000
fiesta ishinkitantari 0.2500000
anunciando riyotiro 1.0000000
kentabo tonkariki 0.1111111
kentabo kentavo 0.1666667
kentabo kiri 0.1111111
inkaare inkaare 1.0000000
legañoso chetakitakemi 0.3333333
legañoso otyaakitakeri 0.2500000
legañoso entsi 0.1250000
legañoso chetakitaki 0.5000000
sed miretake 0.5000000
sed NULL 0.0030030
sed nomire 0.5000000
joo hoo 0.6000000
joo ... 0.5000000
buen NULL 0.0030030
buen kametsare 0.5000000
atraída chokiro 0.3333333
tomando iraeyeni 1.0000000
rama otevaki 0.2142857
pescar rakachatantyari 0.2500000
pescar akachaarontsi 0.5000000
pescar iyaati 0.1428571
pescar ishimata 1.0000000
podrido raatikashitakavo 0.5000000
podrido kihori 0.5000000
podrido hamaka 0.2500000
ve anyiiri 0.5000000
ve itarika 0.3333333
ve pimpichero 0.3333333
ve inyaayetiri 0.5000000
ve pikamanteri 0.3333333
ve inyee 0.4000000
blanco ampe 0.3333333
blanco kitamaari 1.0000000
blanco rovakavo 0.1000000
haz pitomi 0.1000000
haz pishiyakaeri 0.3333333
no te 0.5625000
no eerorika 0.5000000
no ero 0.6000000
no eero 0.9230769
no tee 0.6666667
no kaari 0.3333333
no shipetatantsi 0.3333333
no tekatsi 0.4444444
no nontsonkero 0.3333333
esta ipimantayetiri 0.2500000
esta chomenta 0.2000000
esta iroka 0.5882353
garganta iniyamentoki 0.2000000
pregunta ohampiti 1.0000000
pregunta ihampitiro 0.5000000
pregunta ohampitiri 0.3333333
chabari paho 1.0000000
estera rakitsitavo 0.3333333
cara pirevoshitya 0.2000000
cara opooki 0.2500000
cara NULL 0.0030030
cara oria 0.5000000
cara eentsi 0.0526316
a rareetajea 1.0000000
a aatonkoriakero 0.5000000
a inyaakota 0.5000000
a pamitakotantyaariri 0.3333333
a itimatye 0.6666667
a inyeri 0.5000000
a hempe 0.2857143
a amenero 0.5000000
a , 0.0322581
a iito 0.2000000
a shikiri 0.2000000
a shapopo 0.5000000
a opochaanikiti 0.2500000
a pamananteri 0.3333333
a antamimashiki 0.3333333
a ishirontane 0.3333333
a otsoki 0.3333333
a antamiki 0.0312500
a ovantire 0.3333333
a opare 0.5000000
a imintsaavakero 0.2500000
a nokantiri 0.3333333
a nonyaakero 0.5000000
a areetavo 0.3333333
a ovanavontsi 0.2000000
a pimpichenkero 0.3333333
a piyaatake 0.3333333
a raye 0.5000000
a roteyantyaariri 0.2000000
a ikinavaeti 0.3333333
a imatsini 0.3333333
a ikentsiki 0.2000000
a royeri 0.2500000
a nonyakiri 0.5000000
a rotyaantiri 0.5000000
a rokakiro 0.5000000
a pishitovashitovati 0.3333333
a okentakero 0.3333333
a pinkantero 0.5000000
a icharine 0.3000000
a matsari 0.3333333
a areetinkari 0.4000000
a inkie 0.2000000
a ramene 0.3333333
a roshiyakantantyariri 0.3333333
a iheekahe 0.2500000
a pipariikari 0.5000000
a itsikotsi 0.3333333
a tsame 0.4285714
a niyankiiteki 0.3333333
a opooki 0.2500000
a hatipoki 0.3333333
a areetaka 0.5000000
a rakatsatantyaariri 0.3333333
a ikantakero 0.3333333
a okantiro 0.3750000
a pikonkire 0.5000000
a pimpichero 0.3333333
a ovakeri 0.4000000
a niyaate 0.5000000
a pitsiro 0.1428571
a ayometaeri 0.3333333
a ikaemakantaetiri 0.3333333
a onkaavoshiteri 0.3333333
a itahonkakero 0.5000000
a omatakeri 0.2857143
a riyompari 0.5000000
a ratsikakeri 0.3000000
a haka 0.3333333
a ranyi 0.2500000
a okaemakantiro 0.2500000
a rovakoventiro 0.5000000
a ratsikakiri 1.0000000
a ipaetakiri 0.5000000
a pishiyakaeri 0.3333333
a opoki 0.5000000
a ishitsa 0.5000000
a ishirikakeri 0.3333333
a shoshokiri 0.3333333
a yotaantsipankoki 0.2500000
a ikantiri 0.3333333
a riyaatatye 0.5000000
a aavintavontsi 0.5000000
a ivotsore 1.0000000
a nareetakitakavo 0.4000000
a imanatakeri 0.5000000
a icheki 0.5000000
a nyaamatari 0.5000000
a ohampitiri 0.3333333
a raanatyeero 0.3333333
a atohetake 0.5000000
a onkantapaentya 0.5000000
a nokantakeri 0.3333333
a irianikipaye 0.2500000
a ikiakeri 0.5000000
a iina 0.0555556
a katsitori 0.2500000
a ovaepatakiri 0.5000000
a itapikiki 0.2500000
a iyomoneerote 0.3333333
a amene 0.5000000
a oteyantyaariri 0.2500000
a iponkantyari 0.2500000
a pishiye 0.5000000
a itsinampaakero 0.5000000
a oshitovake 0.2500000
a rotatsinkakeri 0.5000000
a riyaati 0.1428571
a notsitsite 0.2500000
a ihankenate 0.5000000
a pokatsiri 0.2500000
a rankoviitakeri 0.3333333
a NULL 0.0300300
a shiyava 0.2500000
a ikovakotiro 0.3333333
a apani 0.2727273
a inoshikakero 0.2500000
a ramini 0.2500000
a otsitite 0.3333333
a rovavetakari 0.1666667
a tsiveta 0.5000000
a nonyavetakari 0.3333333
a aretavo 0.5000000
a okantakeri 0.5000000
a ikaemiro 0.3333333
a riyaatati 0.1250000
a royeeri 0.5000000
a kamankaantsi 0.3333333
a otyaankakeri 0.5000000
a okiantyariri 0.3333333
a areetyavo 0.5000000
a rapatotya 0.3333333
a ikantanakeri 0.5000000
a hankori 0.2500000
a rayi 0.3750000
a hatatsiri 0.3333333
a noyaate 0.3333333
a povatikerori 0.3333333
a kishokiri 0.5000000
a ivaero 0.3333333
a itapoviri 0.5000000
a mapotopaye 0.5000000
a ikenavaete 0.5000000
a raanaheniro 0.5000000
a pakeri 0.3333333
a piyaate 0.5000000
a iponkatyari 0.5000000
a pikamanteri 0.3333333
a ikentavakotakeri 0.2500000
a nopankoki 0.1111111
a tsinanepaye 0.1111111
a raatsi 0.4000000
a ariaheniti 0.2500000
a ihampitiro 0.5000000
a itsipanashite 0.5000000
a iiti 0.3333333
a ovametaakeri 0.5000000
a ikantakeri 0.3333333
a rantavaete 0.2500000
a ikentakiri 0.2500000
a petyaari 0.5000000
a entyo 0.2500000
a ratsikavakeri 0.2500000
a ikantapaakeri 0.3333333
a ashitaaneyetachari 0.3333333
a ohompo 0.3333333
a iyamaantsite 0.5000000
a ichekakoti 0.5000000
a nonkaavoshitapaentya 0.3333333
a ramatavitakero 0.5000000
a irira 0.2000000
a ishiyakomento 0.2000000
a pinkiteri 0.3333333
a shiketsi 0.3333333
a nopiyaavo 0.5000000
a kepityoki 0.3333333
a oyaati 0.1666667
a okaminaeri 0.5000000
a pamitakotena 0.3333333
a ayi 0.5000000
a tsanoerentsi 0.3333333
a iyaati 0.2857143
a ramake 0.3333333
a yeeye 0.2500000
a maanki 0.2500000
a atomipaye 0.3333333
a pimpiriintaheri 0.5000000
a mani 0.3333333
a shirampari 0.2857143
a icheraakotakeri 0.5000000
a atsinakakeri 0.3333333
a navihavaketa 0.3333333
a noyometaemi 0.2500000
a shariva 0.2000000
a iyereto 1.0000000
a inkani 0.1111111
doler okatsitakaakeri 1.0000000
puerta ashitavo 0.5000000
gallina tyaapa 0.3888889
gallina otyaapate 0.2500000
gallina NULL 0.0060060
aroshi kaari 0.1666667
aroshi rootake 0.2000000
aroshi aroshi 0.1666667
pared kantapookitaka 0.3333333
pared itanto 0.3333333
tunel kiaheetanake 0.3333333
chapo ochaapote 0.5000000
chapo antantyaari 0.1428571
náuseas rovavetakari 0.1666667
náuseas aavintavontsi 0.5000000
eres pantarite 0.3333333
eres pevonkiritsi 0.2000000
van iyataeyeni 0.5000000
ahora meeka 0.5000000
ahora ironyaaka 1.0000000
tambo iyaatantyari 0.2500000
tambo tampoki 0.5000000
tardes aririka 0.0400000
tardes oshaaviityaanake 0.2500000
casa pipankoki 0.3333333
casa NULL 0.0060060
casa apanko 0.5000000
casa kepaye 0.3333333
casa shivitsa 0.3333333
casa pankotsiki 0.4166667
casa nopankoki 0.2222222
casa shavashi 0.2500000
casa opankoki 0.2500000
casa pipanko 0.3333333
casa ipankori 0.2500000
casa intsipaete 1.0000000
casa ipankoki 0.5555556
casa ipanko 0.4000000
casa matsantsi 0.2500000
casa pankotsi 0.2857143
casa notsonkantyaavori 0.5000000
empieza petavakiari 0.5000000
está inchatonaki 0.3333333
está rashinonkaaka 0.3333333
está maperotaka 0.5000000
está itoviro 0.2500000
está chetakitaki 0.5000000
está ipankitakeri 0.3333333
está iraantari 0.5000000
está meshinto 0.5000000
está rovatyaari 0.1666667
está oovaenchari 0.3333333
está inyaatsatavo 0.2000000
está ikimoshiretati 0.3333333
está rareetahea 0.3333333
está mataka 0.5000000
está irakaentsiri 0.3333333
está irotaintsi 0.1666667
está ikamankaati 0.3333333
está onkotsitakeri 0.2500000
está etso 0.3333333
está otakiriati 0.5000000
está antyashipavotaki 0.3333333
está etakota 0.3333333
está ikaematimi 0.3333333
está niivotya 0.5000000
está rovetsikati 0.5000000
está itipiati 0.3333333
está heekatsiri 0.3333333
está NULL 0.0060060
está rovavaitavo 0.3333333
está iheeki 0.0454545
está rovetsikaperotero 0.3333333
está shitashintsi 0.3333333
está ikaimati 0.5000000
está irakakerika 0.3333333
está oyoyaatati 0.5000000
está kantaencha 0.5000000
está charava 0.1111111
está tiho 0.2500000
está kahankari 0.5000000
está itsonkatakeri 0.2500000
está anyeenkatatsi 0.3333333
está karentsatake 0.1666667
shushupi riyaaveta 0.2000000
carbón tsimenkito 0.5000000
tortugas iheekaeyeni 0.2500000
tortugas ohaaviki 0.2000000
monos inyatsaeyani 0.2000000
monos koshiripaye 0.2500000
monos shenontipaye 0.3333333
monos ari 0.0666667
escribieron mampaantsi 0.2000000
escribieron ihankenaeyakeni 0.3333333
niotya NULL 0.0030030
( shintsiri 0.1666667
( niravake 0.2000000
( nokovati 0.2000000
( imonkaatakero 0.3333333
vi nonyaakeri 0.4000000
vi nonyakiri 0.5000000
vi NULL 0.0030030
vi nonyaakero 0.5000000
vi nonyaake 0.7500000
vi parari 0.5000000
entrar ikiakaakena 0.3333333
entrar pinyeri 0.3333333
comer pako 0.2500000
comer maretyakintsi 0.3333333
comer poshiniri 0.2000000
comer rovakaeyavo 0.3333333
comer ontimatye 0.2000000
comer rovavakia 0.3333333
comer noya 0.3333333
comer rovantyari 0.3333333
comer rovaka 0.3333333
comer avantyari 0.2500000
comer oyaari 0.4000000
comer novavo 0.5000000
comer royaari 1.0000000
ceniza ityaakitakero 0.5000000
podrida shitsivari 0.5000000
paujil iyaaki 0.3333333
paujil tsamiri 0.5000000
charapa shempiri 0.2500000
pijuayo kirikotake 0.2000000
pijuayo kiri 0.6666667
atacó ataanakeri 0.5000000
atacó omatakeri 0.1428571
sembró ipankitakeri 0.3333333
sembró koshanti 0.5000000
sembró opankitake 1.0000000
de iyaaki 0.3333333
de amperi 0.2000000
de aakomentotsiki 0.3333333
de amporetsate 0.5000000
de antsotavake 0.2000000
de onintane 0.5000000
de omoti 0.2000000
de rakitsitavo 0.3333333
de inchakiire 0.3333333
de kipatsi 0.1666667
de pako 0.2500000
de pitivine 0.2500000
de payantishi 0.3333333
de koriti 0.5000000
de akipatantyaari 0.3333333
de haaka 0.5000000
de etakantavori 0.5000000
de okentanakeri 0.2000000
de otapinaki 0.1666667
de okaemakantiro 0.2500000
de aakeri 0.3333333
de pitiro 0.3333333
de ipankori 0.2500000
de impaneki 0.1250000
de nonkentantyaari 0.2000000
de rovankiniri 0.2500000
de iraantsi 0.3333333
de aritapaake 0.5000000
de omakoneti 0.3333333
de onkochapaaki 0.2500000
de iitsaare 0.3333333
de itinkaavo 0.5000000
de ovaneki 0.0833333
de oitsoki 0.5000000
de ishinto 0.1250000
de shavashi 0.2500000
de inchakitso 0.2500000
de ichenko 0.3333333
de kantapookitaka 0.3333333
de ranivaeti 0.2000000
de iitsare 0.5000000
de imanonkakeri 0.5000000
de ikiteehitakotake 0.2500000
de omooki 0.3333333
de piponyari 0.2000000
de mantsiyarentsi 0.2500000
de tyominkiyo 0.2500000
de tsomanto 0.6666667
de korioviri 0.2000000
de tivotake 0.2000000
de iyaniri 0.2500000
de meshiyanto 0.2500000
de roretane 0.3333333
de rovakaeyavo 0.3333333
de piherenkiro 0.2500000
de imooshi 0.5000000
de opotsota 0.3333333
de okemeneenta 0.2000000
de pankotsi 0.1428571
de pashiitoki 0.3333333
de oporiki 0.2500000
de nante 0.3333333
de kentavo 0.1666667
de otyaapate 0.5000000
de iishi 0.5000000
de oharentsite 0.2000000
de piyaariri 0.2000000
de tonkaariki 0.5000000
de makaatake 0.3333333
de kiteheriki 0.2500000
de yotaantsinpanko 0.2500000
de tsireentsi 0.2000000
de iitsoki 0.3333333
de okityonkati 0.1666667
de oteyakitanake 0.1666667
de irashi 0.5000000
de koriato 0.3333333
de tyoviri 0.1666667
de shiranta 0.3333333
de rantavaeti 0.3333333
de onyaaro 0.5000000
de tivi 0.5000000
de rovavakari 1.0000000
de ikovantari 0.5000000
de riraashiterori 0.3333333
de oheeki 0.2000000
de okantakaantiro 0.2222222
de riyatantyaari 0.3333333
de mahoki 0.2500000
de chapitsi 0.3333333
de shitovahe 0.5000000
de iyomaro 0.3333333
de henoki 0.5000000
de iveshiriaeyani 0.5000000
de oshi 0.4000000
de inyaane 0.3333333
de ovantsi 0.2500000
de ishinkiro 0.4000000
de kompiroshi 0.2000000
de iraenkari 0.5000000
de intakeronta 0.5000000
de koviti 0.2500000
de pinkamanteri 0.2000000
de antantyaavori 0.3333333
de otakipayeki 0.2000000
de omenta 0.6666667
de iheekantavo 0.2500000
de irohati 0.2500000
de ipashikantyaabori 0.5000000
de omoo 0.3333333
de okiki 0.3333333
de oetsareki 0.3333333
de kirikotake 0.2000000
de orianeeriki 0.3333333
de oime 0.2500000
de maankivenki 0.3333333
de ipankitaetiro 0.5000000
de totiroki 0.2222222
de opatsavo 0.5000000
de ponatake 1.0000000
de okirikakeri 0.3333333
de kempityaariki 0.2500000
de NULL 0.0600601
de pisheteri 0.5000000
de irokiki 0.5000000
de isheeto 0.4000000
de areetanta 1.0000000
de ivatsa 0.5000000
de niyanki 0.1666667
de itapikiki 0.2500000
de iyanirimashite 0.5000000
de kocheri 0.3333333
de itsonkatakeri 0.2500000
de okaakini 0.2500000
de cheviro 0.2000000
de iina 0.1111111
de inchatoshiki 0.2000000
de otyaapanikite 0.5000000
de otsonkakero 0.5000000
de ohampovatsate 0.3333333
de matsantsi 0.2500000
de ovashiyavakena 0.5000000
limpiaremos atsamaetero 0.5000000
limpiaremos meeka 0.5000000
profundo haanaareki 0.3333333
pongo omoetonka 0.3333333
estés eeniro 0.5000000
música oshekini 0.0909091
música amampaantsi 0.3333333
comí natantakaari 0.5000000
comí nirake 0.5000000
comí niyaatantakari 0.2500000
voz ashi 0.2500000
voz anyane 0.5000000
shimashiri shimashiri 0.3333333
shimashiri opotsotiro 0.5000000
llevando raanatyeero 0.3333333
ladra itsati 0.5000000
fiel itsipamintsare 0.1428571
alumbrar katsivore 0.2000000
rema komatake 0.5000000
rema avireri 0.3333333
aconseja okaminaeri 0.5000000
picarlas ikentantyaariri 0.3333333
picarlas shonkoro 0.3333333
pises paatikiro 1.0000000
botó roviintakero 0.5000000
pituca otashitake 0.5000000
pituca ameeni 0.1666667
pituca operiri 0.3333333
pituca tsanavo 1.0000000
tumbar itovakaakenavo 0.2500000
nubes menkori 0.5000000
cueva otishi 0.2500000
cueva omoonaki 0.1111111
juntar mata 0.2000000
juntar ayi 0.1250000
guacamayo itenki 0.3333333
avispa hani 0.5000000
avispa antari 0.0714286
escribir ihankenate 0.5000000
escribir ihankenatantantyari 0.2000000
escribir pihankenate 0.5000000
escribir piyote 0.5000000
atravesó otitakotapaka 0.5000000
gallos tyaapapaye 0.5000000
visto nonyavetakari 0.3333333
madera hantari 0.6000000
madera hantariki 0.5000000
pajaritos inchatomashiki 0.2500000
pajaritos tsimeripaye 0.6666667
le ipaetakiri 0.5000000
le materinki 0.2500000
le ratsimiyakeri 0.2500000
le ichenkoreetakeri 0.3333333
le ishivaitatya 0.3333333
le nyaamatari 0.5000000
le ohampitiri 0.3333333
le apitsatakiriri 0.2500000
le ikentavakotakeri 0.2500000
le ipiyakeri 0.5000000
le shariva 0.2000000
le okihotimotiri 0.3333333
le shitovake 0.2500000
le ratsotiro 0.6666667
le tsirikana 0.3333333
le shitamenkotsi 0.3333333
le opiyiro 0.2500000
le ikantakeri 0.1666667
le ipakeri 0.4000000
le nokantakeri 0.3333333
le koshitakeriri 0.3333333
le ikantakero 0.3333333
le ovaepatakiri 0.5000000
le kaaroshi 0.5000000
le ikiahempiakari 1.0000000
le okantiro 0.2500000
le riyaaveta 0.2000000
le neentsite 0.2500000
le rateetantavori 0.2500000
le katsitake 0.5000000
le okentanakeri 0.2000000
le nokantiri 0.3333333
le tahorentsi 0.5000000
le rookanakeri 0.2500000
le ikentakiri 0.2500000
le ikantapaakeri 0.3333333
le NULL 0.0090090
le otyaakitakeri 0.2500000
bonita apani 0.0909091
bonita amampaantsi 0.3333333
sean iperatantari 0.5000000
sean ihankenavaerentitantyaari 0.2500000
reunión rapatotya 0.3333333
reunión ampatotya 0.3333333
reunión apatorentsi 0.5000000
dulce nopakotakeri 1.0000000
dulce kooko 1.0000000
dulce opochatati 0.5000000
dulce pochari 0.4000000
dulce pochaari 0.5000000
escritores ihankenavaerentitantyaari 0.2500000
pona kampona 0.4000000
pona ishitamenkotantyaabori 0.5000000
lava okivatsiro 0.5000000
profesores tiyaatanaha 0.3333333
profesores ovametantatsiri 0.0416667
conmigo noinantemi 0.2500000
tenía ichekakotake 0.1666667
subir rateetantavori 0.2500000
subir rataetero 1.0000000
subir nataetakotantyaavori 0.5000000
leemos anyaanatero 0.5000000
pelear pantavaka 0.3333333
plátano parianti 0.2500000
plátano opashikakotantyaavori 1.0000000
plátano nopankiteri 0.3333333
plátano payanti 1.0000000
teñirse otiritantyaavori 0.3333333
shebankori shevankori 0.2500000
quedaron iyotaka 0.3333333
negra osheki 0.0188679
negra ikemaenkatiro 0.3333333
negra maaniri 0.2500000
negra noetsare 0.5000000
padre iriri 1.0000000
frente ipankaki 0.3333333
di NULL 0.0030030
yarina rantantyari 0.1666667
yarina kompiroshi 0.2000000
hunagana shintori 0.1666667
huito ana 1.0000000
conocer otimatye 0.1111111
shakiñi shakinyi 0.2500000
shakiñi antavo 0.0909091
shakiñi omoti 0.2000000
grita osheki 0.0377358
grita aventyari 0.1666667
grita itsaatiri 1.0000000
curativas inchashi 0.5000000
salieron hamorenkake 0.2000000
salieron tyaapa 0.0555556
salieron shitovanake 0.5000000
consejos okaminaena 0.3333333
sonó mampaamentotsi 0.5000000
sonó poematanake 0.3333333
arriba henoki 0.3333333
sacan oshi 0.2000000
sacan raitiro 0.5000000
selva antamimashiki 0.3333333
mechero ootamentotsi 1.0000000
entrando chompita 0.3333333
nariz ikiriki 0.3333333
nariz ikiri 0.5000000
dios pava 0.3333333
escopeta tonkamentotsiki 0.3333333
cásate osheki 0.0188679
cásate noinantemi 0.2500000
asaba akishiveta 0.5000000
enfermendades anyantavo 1.0000000
enfermendades mantsiyarentsi 0.2500000
unini oveni 0.5000000
unini oveniki 0.3333333
unini NULL 0.0030030
origen eeroka 0.5000000
puente pampiamentotsi 0.2500000
puente makaatake 0.3333333
frito cherenkantsi 0.5000000
tumor hompotaki 0.3333333
compré namanantake 1.0000000
compré nairotsa 0.5000000
esperar royeeri 0.5000000
letrinas ameniriri 1.0000000
letrinas shitamentotsi 0.3333333
letrinas mantsiyare 0.3333333
pájaro tsirarato 0.3333333
pájaro chamanto 0.2500000
pájaro hiriti 0.5000000
pájaro imampa 1.0000000
dan opiyiro 0.2500000
bromeó itsinampaakero 0.5000000
bañarlo aventyari 0.1666667
bañarlo akaatavakeriita 0.3333333
vio shevankori 0.2500000
vio inyake 1.0000000
vio inyakeri 0.5000000
vio ipashitakariri 0.3333333
vio inyaakeri 0.3333333
chupar NULL 0.0030030
chupar antsotavake 0.2000000
quien NULL 0.0060060
quien ivakeniri 0.5000000
guerreros ovayeri 0.3333333
ociosidad perantaantsi 0.5000000
regresaré nopiyaavo 0.5000000
vieja notinavo 1.0000000
masato oviyare 0.3333333
masato NULL 0.0030030
masato opiare 0.2500000
masato piarentsi 0.9166667
masato piviari 0.3333333
llorando iraantari 0.5000000
llorando iravaeta 0.5000000
tábanos shimpoki 0.3333333
echaro ikonatantakavori 0.5000000
escuché pavaeni 0.3333333
escuché nokemakemi 0.5000000
puede raaviro 0.5000000
puede ankaraero 0.3333333
puede ovamaake 0.2500000
comuneros ikaemantariri 0.2500000
comuneros iyomoneerote 0.3333333
comuneros rovetsikaeyeni 1.0000000
nieto ohari 1.0000000
nieto icharine 0.3000000
hueco imoo 0.3333333
hueco omoo 0.3333333
hueco imoontiro 0.2500000
hueco omonaki 0.3333333
hueco omoonaki 0.3333333
hueco kiteheriki 0.2500000
hueco NULL 0.0030030
. NULL 0.0090090
. oharentsite 0.2000000
. itivanate 0.5000000
. shima 0.0526316
. piarentsi 0.0833333
. ocheempeki 0.1111111
. ishintipare 0.2500000
. tonkariki 0.1111111
. maniti 0.1111111
. . 0.9931034
. kashekari 0.3333333
. ovaantsiki 0.0370370
. iviare 1.0000000
perfumado kahankari 0.5000000
perfumado ikahankantyaari 0.3333333
perfumado , 0.0322581
amigo niyompari 1.0000000
amigo itsipamintsare 0.4285714
amigo riyompari 0.2500000
ratero koshinti 0.2000000
ratero nonampiki 1.0000000
caerse iparianta 1.0000000
caerse kemariariki 0.5000000
todavía novito 0.3333333
todavía nante 0.3333333
todavía nontsonkero 0.3333333
abuela isheni 0.4642857
abuela oetsareki 0.3333333
abuela isheeni 0.4482759
abuela ameeni 0.3333333
ir ishitsa 0.5000000
ir aatatyeri 0.2500000
ir noyaate 0.3333333
ir kishanyavo 0.3333333
ir riyatantyaari 0.3333333
pescado kitaeterikipaye 0.3333333
pescado shima 0.3684211
fuí ameeni 0.1666667
fuí nareetakitakavo 0.2000000
saca ihaantakoti 0.3333333
saca NULL 0.0030030
saca kompiyoki 0.3333333
saca ikiyakoti 0.2500000
saca okarentsatantyari 0.3333333
ociosos iperatantari 0.5000000
celoso , 0.0322581
celoso amaenkari 0.5000000
celoso inati 0.2500000
filudos kohaniri 0.3333333
cerco itanto 0.3333333
intestino amporetsate 0.5000000
ya irotaentsi 0.5000000
ya evatairo 0.5000000
ya pitsaeyaka 0.5000000
ya chokiyo 0.3333333
ya aroshi 0.1666667
ya shakinyi 0.2500000
ya iraiki 0.5000000
ya mataka 0.5000000
ya timanake 0.2500000
ya inkame 0.3333333
ya tyempoya 0.3333333
ya NULL 0.0030030
ya nomatakero 0.5000000
cargó ikiakeri 0.5000000
en iitiki 0.2777778
en nokentsiki 0.3333333
en oporiperoki 0.2500000
en imaavaeti 0.5000000
en tonkareki 0.2500000
en iheekahe 0.2500000
en inyaatsatavo 0.2000000
en nihaateniki 0.3333333
en imaashita 0.2000000
en paamariki 0.3333333
en paamaventya 0.3333333
en haekanaentsiri 1.0000000
en iyaatantyari 0.2500000
en irora 0.5000000
en ramatsaereki 0.5000000
en nakoki 0.3333333
en tsopiro 0.5000000
en katsinkaiteri 0.5000000
en itsati 0.5000000
en irihaniki 0.2500000
en tsonkakeri 0.2500000
en yotaantsinpankoki 0.3333333
en heekatsiri 0.1666667
en ramaatakoti 0.3333333
en inkaareki 0.2941176
en ipankiteri 0.5000000
en ivitiki 0.2500000
en antamiki 0.2500000
en ovantsiki 0.2857143
en omotyaki 0.3333333
en novaneki 0.2500000
en tsimiki 0.3333333
en ishempaki 0.2000000
en ovaantsipooshiki 0.1666667
en mampaamentotsi 0.5000000
en impanekiki 0.1666667
en hamaka 0.2500000
en kamantaantsi 0.3333333
en shonyaki 0.3333333
en inchapookiki 0.2000000
en ocheraaki 0.2500000
en kiavontsiki 0.2500000
en ishiviki 0.3333333
en oharentsiki 0.2000000
en ishimane 0.3333333
en ishintsaerikakeri 0.5000000
en ovametantayetatsiri 1.0000000
en komatire 0.3333333
en tonkaareki 0.2500000
en itapinomaki 0.3333333
en tonkariki 0.3333333
en ocheempeki 0.2222222
en irakoki 0.3333333
en kipatsi 0.1666667
en ipankoki 0.1111111
en itsatakiro 0.2500000
en ramana 0.3333333
en ivachakateki 0.3333333
en patintoki 0.3333333
en inyatsavaiveta 0.5000000
en iyokane 0.3333333
en ovaneki 0.2500000
en nampitsiki 0.5000000
en iyanire 0.3333333
en maavetachari 0.3333333
en rovaneki 0.2222222
en noitsiki 0.2500000
en ishavaetashita 0.2500000
en kipatsiki 0.2000000
en machaki 0.5000000
en iitoki 0.2500000
en ivitoki 0.2500000
en inkiteki 0.2857143
en ipankaki 0.3333333
en imampaavaeta 0.2500000
en chakami 0.5000000
en iheki 0.3000000
en tooso 0.5000000
en pinyaakeri 0.2500000
en avotsiki 0.2857143
en sheri 0.3333333
en ovaantsiki 0.0740741
en oharentsiteki 0.3333333
en ivashiyari 0.5000000
en ikiriki 0.3333333
en iyanirimashiteki 0.3333333
en koshinti 0.4000000
en yoosara 0.2500000
en NULL 0.0540541
en nyaantsi 0.3333333
en charava 0.1111111
en matsantsi 0.2500000
en ampe 0.3333333
en ovantsipooshiki 0.2727273
en ebankari 0.5000000
en iniyamentoki 0.2000000
en tyonkiro 0.1666667
en rakachatantyari 0.2500000
en imoontiro 0.2500000
en ivatsaki 0.3750000
en niyanki 0.3333333
en ovakotanakeri 0.5000000
en kiteheriki 0.2500000
en otevaki 0.2857143
en ishinkitantari 0.2500000
en arakomentotsiki 0.5000000
en tyaapapankoki 0.1428571
en shariva 0.2000000
en haanaareki 0.3333333
en rantiro 0.2000000
en antaiki 0.3333333
en rakoki 0.1666667
en rapatota 0.3333333
en kanirimashiki 0.3333333
en kishityo 0.3333333
en omotyaaki 0.2500000
en kirinka 0.3333333
en iheeki 0.4090909
en antari 0.2142857
en shitamenkotsiki 0.2000000
en tsireniriki 0.0909091
en inyaatsavaeveta 0.2500000
en akemehanteri 0.3333333
en ityaakitakero 0.5000000
en ikamarankake 0.5000000
en ohankenamento 0.3333333
en pihaeke 0.2000000
en nihaaki 0.2142857
en ocheva 0.2500000
en rantavaeveta 0.3333333
en ipankitake 0.5000000
en oheeki 0.2000000
avión arakomentotsiki 0.5000000
caer pipariikari 0.5000000
encanta osheki 0.0188679
limón hiriimaki 0.5000000
alacrán kitoniro 0.5000000
embargo kantaenchari 0.5000000
huelen ikemaenkatiri 0.3333333
erizo oshekini 0.0909091
erizo iche 0.5000000
dice okantana 0.5000000
dice ikantana 0.5000000
dice ikantiri 0.3333333
dice okanti 1.0000000
dice okantiro 0.1250000
dice ikanti 0.5000000
encerró rashitakotakeri 0.4000000
limpia kiteriatake 0.3333333
limpia iyamantsite 0.3333333
soleado oovaenchari 0.3333333
mi ina 0.4736842
mi nirentitsori 0.5000000
mi choeni 0.4878049
mi cheenkari 0.4000000
mi eemeeni 0.5000000
mi maanko 0.3333333
mi omatakeri 0.1428571
mi okiyakoti 0.3333333
mi isheeni 0.1379310
mi inyeeni 0.5000000
mi ipahakaatakeri 0.2500000
mi ipashitakanavo 0.3333333
mi areetaka 0.5000000
mi nanaeni 0.4000000
mi operiri 0.3333333
mi nohina 0.5000000
mi noena 0.2857143
mi apa 0.4655172
mi yeeye 0.2500000
mi naantavori 0.5000000
mi komatire 0.3333333
mi itsintiro 0.5000000
mi konki 0.4827586
mi pamekenavo 0.5000000
mi nishintyo 0.5000000
mi aapi 0.5000000
mi nana 0.4883721
mi antakerori 0.5000000
mi noviamene 0.5000000
mi nantavaire 0.3333333
mi novito 0.3333333
mi rovametakeri 0.5000000
mi nopehashitantyaavori 0.2500000
mi NULL 0.0180180
mi koshinti 0.2000000
mi notsitsite 0.2500000
mi notsipamintsare 0.5000000
mi nani 0.5000000
mi evatairo 0.5000000
mi eentyo 0.5000000
mi kapironkari 0.3333333
mi toto 0.5000000
mi ani 0.4800000
mi pavachori 0.4516129
mi notyomi 0.5000000
mi novaneki 0.2500000
mi isheni 0.2500000
mi naana 0.5000000
mi iinyeeni 0.5000000
mi inyeni 0.3333333
mi ameeni 0.3333333
mi pavatyori 0.3333333
mi sheni 0.5000000
mi ishinto 0.1250000
mi charine 0.3191489
mi yeye 0.4935065
mi noshintipaare 0.3333333
mi paa 0.5000000
mi nopankoki 0.3333333
mi anirio 0.4000000
mi noshavo 0.5000000
mi potsotsi 0.5000000
mi pava 0.2222222
mi antyashipavotaki 0.3333333
mi ikentsiki 0.2000000
amarla onintane 0.5000000
amarla inintahero 0.2500000
plumas shonkiri 0.1000000
plumas oshekini 0.0909091
plumas iviti 0.1666667
plumas itenki 0.3333333
plumas irotaintsi 0.1666667
valiente nyaperori 0.5000000
ver ramenakoventantyaavori 0.3333333
ahumó imenkotake 0.5000000
invitar rovavakia 0.3333333
madrugador hiriti 0.5000000
cosecha okoyaati 0.6666667
cargo nampitsi 0.2000000
huicungo tiroti 1.0000000
hijos atomipaye 0.3333333
hijos otomipaye 1.0000000
hijos rantavaete 0.2500000
tuya iroka 0.0588235
tuya kitsarentsi 0.3333333
tela imoshi 0.5000000
tela imooshi 0.5000000
candela paamari 0.4000000
candela paamareki 0.5000000
próximo NULL 0.0030030
frijol pitetahero 0.3333333
frijol kantiriki 0.3333333
frijol machaki 0.2500000
cada pishitovashitovati 0.3333333
gran keshiiki 0.5000000
gran inteena 0.5000000
circulos tyoentaka 0.3333333
llueve inkani 0.1111111
llueve omparee 1.0000000
NULL tyaapa 0.0555556
NULL shima 0.0526316
NULL , 0.1290323
NULL osheki 0.0377358
NULL riyati 0.2500000
NULL iheekaeyeni 0.2500000
NULL ikanti 0.2500000
NULL iheeki 0.0454545
NULL nana 0.0232558
NULL kentavo 0.1666667
NULL shookake 0.3333333
NULL ranti 0.5000000
NULL antavo 0.0909091
NULL kaniri 0.0588235
NULL rayi 0.1250000
ponte pichenkotya 1.0000000
ponte pitsiro 0.1428571
ponte intsipaite 0.1666667
ponte aatatyeri 0.2500000
ponte areetyavo 0.1666667
cedro hantari 0.2000000
cedro rantantyaari 0.1111111
pacos komairipaye 1.0000000
colar nontsikaatavake 0.5000000
bebé enchaniki 0.3333333
bebé patsake 0.3333333
bebé NULL 0.0030030
creciente aanakero 0.3333333
creciente amaani 0.5000000
gato misho 0.3333333
gato riraashiterori 0.3333333
tabaco kepishiri 0.3333333
tabaco ipankitiro 0.5000000
goteras katsovatake 0.5000000
grande antavo 0.2727273
grande antari 0.5714286
grande nihaa 0.5000000
lejos inteena 0.5000000
lejos intaena 0.5000000
lejos raniitake 0.5000000
lagartijas shonkoro 0.3333333
lagartijas eentsi 0.0526316
orina ichenko 0.1111111
orina roohati 0.2500000
orina itsintiro 0.5000000
orina yeye 0.0129870
orina irihaniki 0.2500000
embrear rovatsikantyavori 0.5000000
ácido konki 0.0344828
ácido okachoneentakeri 0.5000000
lugar piponyari 0.2000000
ciudades antavoki 0.3333333
pila atoonkiro 0.5000000
alimenta tsiya 0.3333333
alimenta chapitsi 0.3333333
alimenta iraantsi 0.3333333
ladrón koshinti 0.2000000
ladrón pomonkeri 0.3333333
ardilla ihaeki 0.3333333
ardilla meyiri 0.5000000
nacanaca ratsikakeri 0.1000000
nacanaca materinki 0.2500000
maduro iraka 0.4285714
maduro irakaentsiri 0.3333333
enseña rovametanti 1.0000000
enseña kameetsa 0.5000000
árboles oshekitiri 0.5000000
árboles inchatoki 0.2500000
miel nirake 0.5000000
miel pitsi 1.0000000
miel opochaanikiti 0.2500000
florea shimashiri 0.3333333
florea oteyakitanake 0.1666667
encontraba inyaapakiri 0.2500000
encontraba apaniroeni 0.3333333
garras tsovo 0.2500000
seres anyiinkari 0.3333333
seres kipatsiki 0.2000000
derribándolo ohaviki 0.3333333
derribándolo rookaitakeri 0.5000000
compañero notsipamintsare 0.5000000
quijada itapinomaki 0.3333333
pueblo inampiki 0.1428571
pueblo pinampiki 0.5000000
pueblo nampitsiki 0.3750000
pueblo anampiki 0.2500000
cosechó oviitakero 0.5000000
pedazo kashetaeni 0.5000000
cantar ikemaetiri 1.0000000
cantar ari 0.0666667
cantar ramampae 0.3333333
cantar namampaatyeri 1.0000000
algo okentanakeri 0.2000000
volar irare 0.5000000
del iiti 0.3333333
del oshirinkaare 0.5000000
del imoito 0.5000000
del hiriimaki 0.5000000
del imoreki 0.1666667
del chochoki 0.3333333
del ineeki 0.5000000
del antavo 0.2727273
del inyatsaeyani 0.2000000
del rovanavo 0.1538462
del aretantyavori 0.2000000
del akonkire 0.2500000
del inyampoeretakeri 0.3333333
del iniyamentoki 0.2000000
del omoonaki 0.2222222
del kiaheetanake 0.3333333
del nihaacheraki 0.3333333
del aatariki 0.5000000
del ivitiki 0.2500000
del ashitakantavori 0.3333333
del otapinaki 0.1666667
del ocheraki 0.3333333
del raetiro 0.3333333
del ishire 0.3333333
del inaki 0.3333333
del tsonkakeri 0.2500000
del opokake 0.3333333
del NULL 0.0120120
del hevatirori 0.5000000
del parianti 0.2500000
del rakoki 0.1666667
del itsipamintsare 0.1428571
del hevari 0.3333333
del otsimankitye 0.3333333
del iraeki 0.5000000
del irotaintsi 0.1666667
del onkonashi 0.3333333
del itonkakeri 0.2500000
del antavoki 0.3333333
del otsapiaki 0.5000000
del otitakotapaka 0.5000000
del ipankoki 0.1111111
del antantyavori 0.5000000
del oshivitsate 0.5000000
del antavaeshiri 0.5000000
del chorina 0.3333333
del oonkaka 0.2500000
del niha 0.1363636
del itenki 0.3333333
del omonaki 0.3333333
del otsiti 0.0714286
del otevaki 0.2142857
del onoshikimikari 0.5000000
del tyaapapanko 0.5000000
¿ oitaka 0.5000000
¿ ¿ 1.0000000
palmeras tsiyaroki 0.3333333
palmeras otakipayeki 0.2000000
termino nontsonkero 0.3333333
termino tekirata 1.0000000
repente okentanakeri 0.2000000
loro kentavo 0.1666667
loro rakavaantetae 0.2500000
terminaron otsonkakero 0.5000000
armar naantavori 0.5000000
armar kepaye 0.3333333
tyoviri tyoviri 0.1666667
tyoviri itaati 0.5000000
pareto pareto 0.5000000
amanecieron ikiteehitakotake 0.2500000
quién ramenakoventantyaavori 0.3333333
quién koshitakeriri 0.3333333
palo inchakiire 0.3333333
palo inchato 0.2380952
palo inchaki 0.3333333
palo paato 1.0000000
palo hamaka 0.2500000
palo NULL 0.0030030
corona ramatsaere 0.5000000
corona ramatsaereki 0.5000000
flor oteyakitanake 0.1666667
flor inchateyaki 0.3333333
flor avotsiki 0.1428571
flor kiteriri 1.0000000
esa irora 0.5000000
ombligo imoito 0.5000000
ombligo patsake 0.3333333
todo maaroni 0.5000000
todo mampiritsi 0.5000000
huevo iitsoki 0.0666667
huevo kapashiro 0.3333333
huevo oitsokake 0.3333333
encontré nonyaake 0.2500000
cayó ipariantakavo 0.3333333
cayó pariakotanake 0.5000000
cayó ishinkiro 0.2000000
cayó NULL 0.0030030
cayó opariaki 0.2000000
tigre chaanari 0.3333333
tigre maniti 0.7777778
tigre NULL 0.0030030
tigre karinari 0.3333333
kompiyoshi kompiyoki 0.3333333
dura okihotimotiri 0.3333333
dura kihotake 1.0000000
nades ero 0.2000000
nades niyanki 0.1666667
nades pamaati 1.0000000
espuma oshimore 0.5000000
escarba ikiyiro 0.5000000
enfermos mantsiyare 0.3333333
enfermos mantsiyarepaye 0.5000000
culpa okantakaantiro 0.1111111
borracho shinkirenti 1.0000000
borracho ishinkiro 0.2000000
garrapata pashiti 0.3333333
garrapata rovanavo 0.0769231
cosechando oyoyaatati 0.5000000
motor pava 0.1111111
motor ishiyakomento 0.2000000
ella rootaki 1.0000000
guaba okitsoki 0.2500000
guaba intsipaki 1.0000000
macana inkaaricheraaki 0.3333333
macana imintsaavakero 0.2500000
macana cheviro 0.2000000
yuca koriato 0.3333333
yuca iyaniri 0.5000000
yuca akishitakeniri 0.5000000
yuca NULL 0.0030030
yuca iyanire 0.3333333
yuca oyanire 0.5000000
yuca kaniri 0.7647059
yuca oyaniri 0.3333333
shitaracos haye 0.3333333
lobo nonyakeri 0.5000000
pelando otakiriati 0.5000000
pelando inyeni 0.3333333
caracol irotake 0.2500000
caracol totiroki 0.2222222
caracol tseeri 0.3333333
caracol NULL 0.0030030
caracol pomporo 1.0000000
canela maaniri 0.2500000
mamá naana 0.3750000
mamá ina 0.3684211
mamá nana 0.4883721
mamá inyiiro 0.3333333
empujó rotatsinkakeri 0.5000000
coto shenontipaye 0.3333333
coto shenonti 0.4000000
el tiho 0.2500000
el itsonkakero 0.5000000
el ohankenamento 0.3333333
el aretantyavori 0.2000000
el rapeyakero 0.2500000
el inyaatsavaeveta 0.2500000
el ityaakero 0.5000000
el konoya 0.1428571
el pitetahero 0.3333333
el komintsare 0.5000000
el nihaaki 0.2857143
el etini 0.2500000
el ocheva 0.2500000
el tyopiki 0.5000000
el rantyavaeshiti 0.3333333
el koviri 0.5000000
el ityaapapankote 0.5000000
el itovi 0.3333333
el inaki 0.3333333
el antami 0.3333333
el rantakeri 0.4000000
el poematanake 0.3333333
el ratsikakerira 0.2500000
el pinkatsari 0.4166667
el itovakaakenavo 0.2500000
el hatantaneri 0.5000000
el pareto 0.5000000
el pahotiki 0.5000000
el iyatsinka 0.5000000
el inchaki 0.1666667
el natantakaari 0.5000000
el matsontsori 0.3333333
el evankari 0.3750000
el shinkiririti 0.2500000
el amaatake 0.5000000
el ichenkoreetakeri 0.3333333
el eentsi 0.1578947
el otsivakakero 1.0000000
el oteyakitanake 0.1666667
el ashetakero 0.5000000
el okivatsiro 0.5000000
el koshiri 0.5000000
el kishityo 0.3333333
el maati 0.5000000
el kitairiki 0.5000000
el kanirimashiki 0.3333333
el aashitakari 0.2000000
el kitoniro 0.5000000
el itiya 0.5000000
el hanta 0.5000000
el opiyaataki 0.2500000
el mashero 0.5000000
el haanaareki 0.3333333
el kashekari 0.3333333
el poya 0.2500000
el atsinakakeri 0.3333333
el tyaapapankoki 0.2857143
el antyashipari 0.5000000
el ataanakeri 0.5000000
el shenonti 0.4000000
el otishiki 0.3333333
el omoonaki 0.2222222
el amontyantyavori 0.5000000
el aishi 0.3333333
el iponyanaka 0.3333333
el ivatsaki 0.2500000
el ovametantatsiri 0.4166667
el omoetonka 0.3333333
el pampiamentotsi 0.2500000
el anonkaka 0.5000000
el hantsare 0.5000000
el NULL 0.0840841
el kainitake 0.5000000
el kachaarentsi 0.3333333
el amanite 0.5000000
el ishiyakaakavo 0.3333333
el ronyaakakeri 0.3333333
el oharentsiteki 0.3333333
el ratsikavetakari 0.3333333
el patsake 0.3333333
el roviintakero 0.5000000
el charava 0.2222222
el totiroki 0.2222222
el kiteriatake 0.3333333
el inoshikakero 0.2500000
el hankiro 1.0000000
el netsi 0.5000000
el inchato 0.0476190
el sheri 0.3333333
el tsonkiri 0.2000000
el itantoriaakero 0.5000000
el avotsiki 0.2857143
el shinki 0.3333333
el itsaati 0.5000000
el osheki 0.0377358
el oime 0.2500000
el rovantavo 0.3333333
el hamampo 0.3333333
el rirati 0.5000000
el chamanto 0.5000000
el otsikaatena 0.2500000
el cherepito 0.5000000
el inkiteki 0.2857143
el ishinkine 0.2857143
el opempe 0.5000000
el ivaero 0.3333333
el imontyantyaavori 0.3333333
el piyanirimashite 0.5000000
el maeni 0.3333333
el iheki 0.2000000
el tampootake 0.5000000
el ihaatakero 0.5000000
el itotakero 0.5000000
el rovetsikiro 0.3333333
el imampaavaeta 0.2500000
el kepiyashi 0.2500000
el charine 0.1276596
el riyaaveta 0.2000000
el ikaemi 0.5000000
el otiritantyaavori 0.3333333
el shima 0.2631579
el rovanavo 0.1538462
el ipichakatiro 0.5000000
el noitsiki 0.2500000
el menkoriityaake 0.3333333
el karinari 0.3333333
el okishitantyariri 0.3333333
el ramaate 0.3333333
el rovatsitapakeri 1.0000000
el iyamantsite 0.3333333
el rakavaantetae 0.2500000
el intsipaite 0.1666667
el rovankiniri 0.2500000
el pimonkaatero 0.5000000
el cheenkari 0.2000000
el aririka 0.0400000
el choori 1.0000000
el opane 0.3333333
el koshoshiko 0.5000000
el korinto 0.5000000
el itonki 1.0000000
el pamakenavo 0.3636364
el kipatsi 0.1666667
el iche 0.5000000
el tsonkitiroki 0.5000000
el rovari 0.1250000
el imontyaakero 0.6666667
el ratsimiyakeri 0.2500000
el ocheempeki 0.3333333
el iraka 0.1428571
el tsirarato 0.6666667
el . 0.0013793
el kapeshi 0.3333333
el hampovatsa 0.2500000
el itsikotiro 0.5000000
el patintoki 0.3333333
el kaakitake 0.2500000
el peyari 0.2500000
el rovakavo 0.3000000
el oharentsiki 0.2000000
el amperi 0.2000000
el kiavontsiki 0.2500000
el ikaraakero 0.5000000
el itinaeri 0.5000000
el itotanakeri 0.3333333
el piyate 0.5000000
el kitaeriki 0.5000000
el rovakari 0.4000000
el sheripiari 0.5333333
el pinkatsare 0.5000000
el otimi 0.2500000
el tonkaareki 0.1875000
el toniro 0.3333333
el pakitsa 0.5000000
el pitsitake 1.0000000
el shimperi 0.5000000
el hamaka 0.2500000
el itovakero 0.5000000
el impanekiki 0.1666667
el enini 0.5000000
el kiriviro 0.5000000
el enitatsi 0.5000000
el heekatsiri 0.1666667
el shompoti 0.5000000
el inampitavo 0.2500000
el moyaake 0.3333333
el hataantaneri 0.5000000
el piherenkiro 0.2500000
el avotsi 0.5000000
el entsi 0.3750000
el pirinto 0.2000000
el amenayetiriri 0.5000000
el antamiki 0.2812500
el imaashita 0.2000000
el okachoneentakeri 0.5000000
el peranti 0.5000000
el nihaateniki 0.1111111
el rovavo 0.2857143
el itomi 0.0666667
el shesheti 0.5000000
el iyaatantyari 0.2500000
el opiare 0.2500000
el kitaeheri 0.5000000
el paamariki 0.3333333
el hamaani 0.2500000
el otsitsi 0.2500000
el mantana 0.6666667
el imaavaeti 0.5000000
el otsiti 0.2142857
el omonaki 0.3333333
el inchatonaki 0.3333333
el iitiki 0.2777778
el sheripiare 0.5000000
el nokentsiki 0.3333333
el otiyaarentsi 0.2500000
el iritake 0.4285714
el ipashitakariri 0.3333333
el ovaeyirori 0.5000000
el iriani 0.5000000
el chaanari 0.3333333
el oshirikiro 0.5000000
el imitaanaka 0.3333333
el ritaki 0.3333333
queme itantari 0.5000000
queme oria 0.5000000
aventyari aventyari 0.1666667
golpeó pohapaka 0.5000000
golpeó kepityoki 0.3333333
golpeó nironto 0.5000000
brilla iporeriaati 0.5000000
flores ovocharite 1.0000000
flores inchateyaki 0.3333333
dame pimpavakena 0.6666667
dame pimpena 0.5000000
dame pipavakena 0.3333333
dormía hamaani 0.2500000
dormía maavetachari 0.3333333
dormía shitovake 0.2500000
engordan koshiripaye 0.2500000
engordan iyeenkati 1.0000000
patio ipankori 0.2500000
patio piherenkiro 0.2500000
meterlo ivitoki 0.2500000
meterlo rotetantyaariri 0.5000000
comerlas katsikori 0.3333333
demasiada okatyokakero 0.5000000
callampas shitovi 0.2000000
callampas ramini 0.2500000
callampas shitovipaye 0.5000000
callampas konoya 0.1428571
avisa osheki 0.0188679
avisa ashitaaneyetachari 0.3333333
avisa avo 1.0000000
pensó ikenkishiriaka 0.3333333
pensó iro 0.0588235
come tonkariki 0.1111111
come poya 0.2500000
come rovatya 1.0000000
come ovari 0.5000000
come rampate 0.4000000
come rovavo 0.5714286
come kitaeterikipaye 0.3333333
come misho 0.3333333
cuidado eentsikeroeni 0.3333333
cuidado ataerikari 0.3333333
cuidado NULL 0.0030030
cuidado pikiikari 0.5000000
anzuelear nakachatantyari 0.5000000
saber otimatye 0.1111111
saber pihankenate 0.5000000
topas rantantyari 0.1666667
topas pashiitoki 0.3333333
maduros tonkareki 0.1250000
maduros iraka 0.1428571
haciendo tyoentaka 0.3333333
levantan irianeerikipaye 0.5000000
levantan itinairo 0.5000000
suelo opankoki 0.2500000
suelo ohaviki 0.3333333
suelo ikaboshitantyari 0.3333333
suelo ohaaviki 0.2000000
tiempo yoosara 0.2500000
tiempo aririka 0.0400000
adolescente te 0.0625000
adolescente pevonkiritsi 0.2000000
amigos ayompari 0.5000000
amigos ishintipaareki 0.1428571
amigos aatariki 0.5000000
amigos riyatantyari 0.2500000
libro kiriviro 0.5000000
paca kapiro 0.5000000
paca pincheke 0.5000000
huangana shintori 0.3333333
vemos ari 0.0666667
vemos anyaakero 0.5000000
vemos niyankiiteki 0.3333333
ajusta kantimaitacha 0.5000000
fallecido kamavetaka 0.5000000
frejol okoyaati 0.3333333
llegue inchaki 0.1666667
llegue aretantyavori 0.2000000
arrastre omoetonka 0.3333333
aguja ikentakina 0.5000000
aguja kitsapi 0.3333333
aguja nakoki 0.3333333
golondrinas timpinare 0.3333333
quebró ikaraakero 0.5000000
quebró inchakiire 0.3333333
cámara oshiyakaantsi 0.3333333
cansé nanitiro 0.5000000
rodillas okantakaantiro 0.1111111
rodillas ityerovi 0.5000000
perico chokiyo 0.3333333
perico inyavaeti 0.3333333
rió oshirontaka 0.5000000
abajo ishintipaareki 0.1428571
abajo ohaaviki 0.2000000
abajo riyaataero 0.5000000
bota ookiro 0.3333333
bota ookakiro 0.5000000
bota pookero 1.0000000
bota rokiro 0.5000000
sueño nopochokiti 0.5000000
sueño pochokitake 0.3333333
sí hee 0.5000000
cocinada oyaniri 0.3333333
cocinada pohare 1.0000000
persiguen shonkoro 0.3333333
persiguen ipatimatiri 0.3333333
gallo NULL 0.0030030
gallo ramampae 0.3333333
gallo tyaapa 0.1111111
metió roeminkiakeri 0.1666667
metió ominkiake 0.3333333
metió otetaka 1.0000000
camina ranashita 0.3333333
camina ranivaeti 0.2000000
camina ishavaetashita 0.2500000
camina paniite 0.5000000
camina raniti 0.5000000
kaaroshi kaaroshi 0.5000000
kaaroshi ikantiri 0.3333333
golondrina etso 0.3333333
regreso nompiyahe 0.5000000
enamorado oshirontane 0.2500000
enamorado te 0.0625000
enamorado inintahero 0.2500000
peló oshaake 0.5000000
cuál eeroka 0.5000000
cuál piponyari 0.2000000
fastidíar rantamintsatiro 0.3333333
alto opariaki 0.2000000
hablar inyavaeti 0.3333333
hablar iro 0.0588235
hablar ikenkitsatakaeri 0.5000000
hablar ipokantanakari 1.0000000
cantaron imampaakavo 0.5000000
cantaron irianipaye 0.2500000
cose oshirikiro 0.5000000
miedo ramate 0.5000000
vamos tsame 0.4285714
cascabel noitsiki 0.2500000
cascabel kamaatonki 0.3333333
mujeres tsinanipaye 0.3333333
mujeres tsinanepaye 0.4444444
carachupa etini 0.2500000
carachupa eti 0.5000000
bañándose ikaaveata 1.0000000
korintoni shiketsi 0.3333333
korintoni hataentsiri 0.5000000
cocinado nonkotsivetaka 0.5000000
teje ontyaati 1.0000000
teje NULL 0.0030030
teje ontyiro 0.5000000
vestido noetsaare 1.0000000
chicua tsiya 0.3333333
chicua rovari 0.1250000
chicua osheki 0.0188679
techar ishirikashitantyaavori 0.5000000
permite rateetantavori 0.2500000
adivinanza kompitarentsi 1.0000000
moquichi chomiyo 0.5000000
moquichi tsonkitiroki 0.5000000
muerte ovamaake 0.2500000
listo irotaintsi 0.1666667
caminaron raniitake 0.5000000
cantó amampake 0.5000000
cantó motake 1.0000000
fractura itinkaavo 0.5000000
piernas NULL 0.0060060
hinchó oonkaka 0.2500000
sucia inyaatsatavo 0.2000000
sucia okantakaantiro 0.1111111
llevan ayiro 0.5000000
saltó tsitsiri 0.5000000
saltó imitaanaka 0.3333333
saltó romintsaakeri 0.2500000
racimo rovankiniri 0.2500000
hasta nareetantakari 0.5000000
hasta riyatantyari 0.2500000
hasta aretantyavori 0.2000000
hasta oshetakiriaakeri 0.3333333
tumbando itoviro 0.2500000
trabajadora antavaerianti 0.5000000
sólo konyoriki 0.5000000
ashoshi ashoshi 0.5000000
puso oitsokake 0.3333333
puso rovanakero 0.5000000
puso ishintsaerikakeri 0.5000000
puso eentsite 1.0000000
puso ovakeri 0.2000000
puso ivakeniri 0.5000000
tomar iraheempiaka 0.5000000
tomar rirantyari 1.0000000
tomar roshiyakantantyariri 0.3333333
tomar nireri 0.5000000
tomar niravake 0.4000000
fueron shiketsi 0.3333333
achiote oyaati 0.1666667
achiote aaye 1.0000000
achiote isheni 0.0357143
achiote potsoti 0.3333333
están ohaaviki 0.2000000
están oheeki 0.2000000
están teparo 0.3333333
están tyoentaka 0.3333333
están raatikaitakeri 0.2500000
están ovaantsi 0.3333333
salen NULL 0.0030030
bañar onkaavoshiteri 0.3333333
bañar pinkaavoshitya 0.5000000
bañar otsitite 0.3333333
bañar nihateniki 0.1666667
cosas inyaayetiri 0.5000000
cosas pinavontsini 1.0000000
cosas maaroni 0.2500000
cosas aayetirori 0.2000000
cosas pantakaeri 0.5000000
uno ratsikavakeri 0.2500000
ponilla chenteroki 1.0000000
ponilla oparetsaki 1.0000000
batió ipoonkake 1.0000000
acompañado ranashita 0.3333333
aprender riyotantyaari 0.5000000
nawireri shintsini 0.3333333
nawireri ikovi 0.5000000
canoa ivito 1.0000000
canoa ivitoki 0.2500000
canoa pitotsi 0.5714286
canoa novito 0.3333333
búho mamavo 1.0000000
” kaariperori 0.2500000
” pankotsiki 0.0833333
” tyaapapankoki 0.1428571
” nareetakitakavo 0.2000000
” apanko 0.2500000
” piyaariri 0.2000000
” nokentatakaemi 0.5000000
” kaakitake 0.2500000
” nompiyahe 0.5000000
” ashavokiite 0.5000000
” noyaate 0.3333333
” shitovi 0.2000000
” kitsarentsi 0.3333333
” pantarite 0.3333333
” noyotsiraanikite 0.3333333
” kiri 0.2222222
” kempiro 0.2500000
” pantavaka 0.3333333
” . 0.0027586
” nantavaire 0.3333333
” pava 0.1111111
” otsikaatena 0.2500000
” rookanakemiri 0.3333333
” sheri 0.3333333
” ovanavontsi 0.2000000
” pitivine 0.2500000
” ihankenatantantyari 0.2000000
” ? 0.4000000
” NULL 0.0030030
” intsipaite 0.1666667
” chetakitakemi 0.3333333
” atsamaetero 0.5000000
” noya 0.3333333
” tsitsi 0.2857143
” piri 0.2500000
” akacharentsi 0.5000000
” noinantemi 0.2500000
” inkokiroeni 0.5000000
” hevaantsi 0.5000000
” pitsiro 0.1428571
” nontyaare 0.5000000
” tyonkiro 0.1666667
” kantiriki 0.3333333
” ovaneki 0.0833333
” akonkire 0.2500000
nada pantyo 0.5000000
nada tekatsi 0.2222222
topa pashiitoki 0.3333333
víbora maanki 0.2500000
tía oontsotakero 0.5000000
tía inyeeni 0.5000000
tía nanaeni 0.6000000
gordo shirampari 0.1428571
gordo vatsanti 1.0000000
pihuicho irotaintsi 0.1666667
pihuicho chokiyo 0.3333333
pihuicho ishivanki 0.3333333
ponerlas rovantyaavori 0.1428571
piques kenitsi 0.3333333
piques iitiki 0.0555556
papaya mapocha 0.6666667
tubérculos ovatsa 0.5000000
toropetzi toropeeti 0.3333333
broma kaminirio 0.2500000
broma nyaatsavaerontsi 0.2500000
broma ivashiyari 0.5000000
permiso pinyaavakena 0.3333333
mide imokaatiro 0.5000000
chowirio okiki 0.3333333
chowirio hamampo 0.3333333
chowirio chovirio 0.5000000
bebida nokovati 0.2000000
bebida pimpavakena 0.3333333
jaló inoshikake 0.6000000
tienen okantashiyetashita 0.3333333
ahí rompohakotakari 0.5000000
ahí ari 0.0666667
ahí tyominkiyo 0.2500000
alguien pokatsiri 0.2500000
alguien inyee 0.2000000
alguien inyayetiri 0.5000000
alguien pokashitiriri 0.5000000
orilla ochera 0.5000000
orilla nihaacheraki 0.3333333
orilla otsapiaki 0.5000000
orilla NULL 0.0030030
orilla ocheraki 0.3333333
orilla cheviro 0.2000000
orilla ocheraaki 0.1250000
semana pariantziri 0.5000000
líquido imire 0.5000000
líquido ikenavaetantakari 0.5000000
vió inyaakeri 0.1666667
coman rovantyaavori 0.1428571
coman nihaaki 0.0714286
sembradora pankivaerento 1.0000000
sembradora evankavo 0.3333333
uña tsikontoche 0.5000000
uña oshetakiriaakeri 0.3333333
serrano pokake 0.3333333
aún anyeenkatatsi 0.3333333
aún oparetsa 0.3333333
aún anyaatsini 0.2500000
aún roohati 0.2500000
aún oshekitatsi 0.3333333
aún pevonkiritsi 0.2000000
aún irohati 0.5000000
disciplinar poonkito 0.5000000
animales ikenavaeti 0.5000000
animales poshiniri 0.2000000
pulgas oveenikentsi 0.3333333
vivía heekabetachari 1.0000000
vivía inampiki 0.1428571
vivía haka 0.1666667
vivía hatahe 0.3333333
maleza mishari 1.0000000
maleza shookake 0.3333333
maleza inchashipaye 1.0000000
maleza rovane 0.2000000
dormir imaantyari 0.5000000
piojo netsi 0.5000000
piojo ipatsaakaanti 0.3333333
comedero roretiri 0.5000000
comedero nani 0.0294118
comedero roretane 0.3333333
hermosa kameetsaanto 0.5000000
satipo raanatyeero 0.3333333
satipo hatipoki 0.3333333
satipo mavoeni 0.1666667
brinca ihapokaventiro 0.3333333
anzuelo kitaeterikipaye 0.3333333
anzuelo akachatantyaari 0.5000000
anzuelo rakachaatake 0.3333333
anzuelo rakachaare 0.5000000
anzuelo rakachatantyari 0.2500000
shariwa ikaemake 0.5000000
shariwa shariva 0.2000000
visitantes areetinkari 0.2000000
visitantes imaantyaari 0.1666667
construyen NULL 0.0030030
motelo konoya 0.2857143
llora otsitsi 0.2500000
llora iraaka 1.0000000
llora iraatya 1.0000000
llora iraakotavo 0.1666667
sachavaca kemari 0.3333333
machete nopehashitantyaavori 0.2500000
machete haviri 0.5000000
machete habiri 1.0000000
enfermero NULL 0.0030030
creemos akemehanteri 0.3333333
viajamos arakote 0.5000000
cállense kaakitake 0.2500000
cállense hantikoeni 0.5000000
malo katsimari 0.3333333
koriari itsatakiro 0.2500000
koriari koriari 0.6666667
boa antari 0.0714286
boa noonki 0.5000000
iguana maretyakintsi 0.3333333
iguana tyaapapankoki 0.1428571
iguana kapashiro 0.3333333
cenizo ranivaeti 0.2000000
cenizo inyaapakiri 0.2500000
cenizo ocheraaki 0.1250000
cenizo nihaki 0.3333333
cenizo chanchati 1.0000000
hombre atiri 0.2608696
hombre shirampari 0.5714286
casi otsimapookiri 0.2500000
casi kamaatonki 0.3333333
paludismo omatakeri 0.1428571
paludismo katsirentsi 0.5000000
puqueó roonkake 1.0000000
carachamas shiketi 0.6666667
carachamas korintooniki 0.5000000
carros shiyakomentotsi 0.3333333
enseñó rovametakeri 0.5000000
enseñó ovametaakeri 0.5000000
enseñó charini 0.3333333
loma otsoki 0.3333333
loma tonkaareki 0.2500000
loma tonkareki 0.2500000
loma makotakena 0.3333333
palos tonkaare 0.2500000
era , 0.0322581
era maeta 0.5000000
era inyaashitakavo 1.0000000
haber raaki 0.5000000
poder ovantyaari 0.3333333
poder poshiniri 0.2000000
causar ovamaake 0.2500000
quema itaati 0.5000000
? ? 0.6000000
cruda anyeenkatatsi 0.3333333
árbol antsotavake 0.2000000
árbol oteyakitanake 0.1666667
árbol otsimankitye 0.3333333
árbol koshiripaye 0.2500000
árbol oshitsapaereki 0.3333333
árbol meshiyanto 0.2500000
árbol inchato 0.6190476
árbol inchatoki 0.2500000
rayas otsapairikita 0.1666667
garza tsompare 0.3333333
garza hantsare 0.2500000
garza tsompari 0.3333333
garza ranivaeti 0.2000000
la itaakero 0.4000000
la shivaerontsi 0.5000000
la ishavaetashita 0.2500000
la rovane 0.4000000
la ivitoki 0.2500000
la ratsovootiro 0.5000000
la iheekantavo 0.2500000
la iitoki 0.2500000
la machaki 0.2500000
la kapashiro 0.3333333
la kipatsiki 0.2000000
la otakipayeki 0.2000000
la niha 0.0909091
la pankotsiki 0.4166667
la imokaatiro 0.5000000
la ovantsi 0.2500000
la ikaavoshita 1.0000000
la ovakerate 0.5000000
la yomaarentsi 0.5000000
la omakaatake 0.5000000
la kari 0.5000000
la kapararo 0.3333333
la paamareki 0.5000000
la shitsa 0.5000000
la osheki 0.0188679
la kovana 0.5000000
la ikaemiro 0.3333333
la shintori 0.3333333
la rovantavo 0.1666667
la amiro 0.5000000
la kashiri 0.3333333
la ovaantsiki 0.4444444
la rapatotya 0.3333333
la NULL 0.2102102
la kempityaariki 0.2500000
la otaki 0.5000000
la hetari 0.4000000
la riyaati 0.1428571
la nampitsi 0.4000000
la tivana 0.3333333
la itanto 0.3333333
la ayaataki 0.5000000
la nyaantsi 0.3333333
la oshaake 0.5000000
la tyonkiro 0.1666667
la katsitori 0.2500000
la maakookava 0.5000000
la ovantsipooshiki 0.3636364
la chamiri 0.5000000
la ovashiyavakena 0.5000000
la ikoveme 0.3333333
la itapikiki 0.2500000
la kampona 0.4000000
la nihateniki 0.3333333
la cheviro 0.4000000
la ikemaenkatiro 0.3333333
la evankavo 0.3333333
la hantsare 0.2500000
la mapi 0.3750000
la inkaariveri 0.3333333
la maanki 0.2500000
la makaatake 0.3333333
la riyomatantyavori 0.3333333
la otevaki 0.1428571
la ishinkitantari 0.2500000
la pirevoshitya 0.2000000
la riyatantyari 0.2500000
la kempiro 0.2500000
la otyaapate 0.2500000
la heto 0.5000000
la ikentakina 0.5000000
la oshinchaakiki 0.5000000
la ookakiro 0.5000000
la atiripaeni 0.5000000
la teparo 0.3333333
la rantiro 0.2000000
la pashiti 0.3333333
la omotyaaki 0.3750000
la yotaantsinpanko 0.2500000
la rakoki 0.3333333
la ovirentsi 0.5000000
la shitamenkotsiki 0.2000000
la ohompo 0.3333333
la avintantyaavori 0.3333333
la iheeki 0.0454545
la chomenta 0.2000000
la iporiki 0.5000000
la tsireniriki 0.3636364
la kotsironaki 0.5000000
la pariantziri 0.5000000
la inyampoeretakeri 0.3333333
la otakiriro 0.5000000
la tsinane 0.2727273
la periki 0.5000000
la konoya 0.2857143
la ikaemakantakae 0.2000000
la oyeenka 0.5000000
la otaakero 0.5000000
la ipante 0.3333333
la imoreki 0.3333333
la okantakaantiro 0.1111111
la tonkareki 0.3750000
la oporiperoki 0.2500000
la kantapookitaka 0.3333333
la mavona 0.5000000
la opooki 0.5000000
la shempiri 0.2500000
la raavintantyari 0.2500000
la ishinto 0.1250000
la mantsiyarentsi 0.2500000
la aanakero 0.6666667
la tivotake 0.4000000
la nihaateniki 0.2222222
la tyaapa 0.3888889
la ishetaki 0.5000000
la ovanavontsi 0.2000000
la ikiyiro 0.5000000
la ramatsaere 0.5000000
la omooki 0.3333333
la ashitavo 0.5000000
la otihaavakeri 0.5000000
la yotaantsinpankoki 0.3333333
la rovapiintiro 0.3333333
la antamimashiki 0.3333333
la opitsitsayetiro 0.3333333
la ayiro 0.5000000
la pitotsi 0.2857143
la tsonkakeri 0.2500000
la tsopiro 0.5000000
la opochaanikiti 0.2500000
la shikiri 0.2000000
la iito 0.4000000
la atiripaye 0.3333333
la omotyaki 0.3333333
la metsotake 1.0000000
la kontsavo 0.5000000
la ovantsiki 0.3571429
la ivitiki 0.2500000
la inkaareki 0.3529412
la ovamaake 0.2500000
la shonkiri 0.3000000
la inyaanatero 0.3333333
la ovaantsipooshiki 0.3333333
la rovaakiro 0.5000000
la maaperotaka 0.2500000
la tsompari 0.3333333
la rakopero 0.3333333
la tsimiki 0.3333333
la paamari 0.5000000
la nihaateni 0.2000000
la omishitakeri 0.5000000
la pashi 0.3333333
la otashitakeri 0.5000000
la okemeneenta 0.2000000
la pankotsi 0.2857143
la kamantaantsi 0.3333333
la oporiki 0.2500000
la kiake 0.5000000
la isheni 0.2142857
la rovakavo 0.1000000
la kitochempe 0.5000000
la inchapookiki 0.4000000
la ocheraaki 0.3750000
la kempiti 0.5000000
la okihotimotiri 0.3333333
la atiri 0.2608696
la oshekini 0.0909091
la tonkamentotsiki 0.3333333
la tsiyeri 0.5000000
la ikentakeri 1.0000000
la itapinomaki 0.3333333
la ishimane 0.3333333
la nihaatenipaye 0.5000000
la ipankoki 0.2222222
la makotakena 0.3333333
la rovari 0.1250000
la ratsikavetakana 0.5000000
la irakoki 0.3333333
la pishiti 0.5000000
la rovetsikake 0.5000000
la raanakero 0.2500000
la omoti 0.2000000
la imoti 0.3333333
la yotaantsipankoki 0.2500000
la rokiro 0.5000000
la impaneki 0.1250000
la itsaavakaakari 0.5000000
la onkotsivetakari 0.5000000
la hamomo 0.5000000
la nonkentantyaari 0.2000000
la raavintantyariri 0.2500000
la vatsatsi 0.1666667
la atsikakeri 0.5000000
la impohakeri 1.0000000
la isheeni 0.3793103
la otsimapookiri 0.2500000
la kitoche 0.4000000
la meyiri 0.5000000
la eti 0.5000000
la mapocha 0.3333333
la iitsaare 0.3333333
la rovanavo 0.0769231
la ishintipaareki 0.2857143
la pinyanatiro 0.3333333
la ovakeri 0.2000000
la kamaantsi 0.5000000
poner iitsokantyari 0.2500000
poner rovantyaariri 0.5000000
poner pipoke 0.5000000
majás ihamanite 0.5000000
majás hamaani 0.2500000
majás mantana 0.3333333
majás hamani 0.8333333
mijano otiyaarentsi 0.5000000
desarmó itantoriaakero 0.5000000
todos kamankaantsi 0.3333333
todos akachavaerenti 0.2500000
todos ishiyaeyeni 0.5000000
todos mavoeni 0.1666667
sabrosa vatsatsi 0.1666667
entró impaneki 0.2500000
entró NULL 0.0030030
entró okiantakari 0.3333333
entró kiake 0.5000000
entró raakena 1.0000000
koriobiri korioviri 0.2000000
piripiri rivenkite 0.5000000
piripiri ikomintsatantyari 0.3333333
adventistas kemihantsinkari 0.5000000
adventistas tee 0.3333333
debilidad kari 0.5000000
debilidad shipetatantsi 0.3333333
alumbra rootaperotantaari 0.5000000
kempiro ratsikakeri 0.1000000
kempiro pavatyori 0.3333333
kempiro kempiro 0.2500000
cogollos ovatsa 0.5000000
veremos anyaavakahea 1.0000000
shamoco shamoko 1.0000000
shamoco poshiniri 0.2000000
shamoco rovaka 0.3333333
heridas ipatsavo 1.0000000
heridas ipatsaakaanti 0.3333333
heridas iitoki 0.2500000
araña ikentavakotakeri 0.2500000
araña heto 0.5000000
araña NULL 0.0030030
emborrachó osheki 0.0188679
emborrachó oshinkitantari 0.2500000
cochas inkaareki 0.0294118
tarima shitamenkotsi 0.3333333
tarima makotake 0.3333333
tarima pankotsi 0.1428571
tarima shitamenkotsiki 0.4000000
suda mahavitake 0.5000000
recoger ichekakoti 0.2500000
recoger etiki 0.5000000
barranco impeetaki 0.3333333
despluma piri 0.2500000
despluma ramakeri 0.1666667
despluma shonkiri 0.1000000
despluma pivitirieri 0.3333333
espíritu ishire 0.3333333
tumba itovi 0.6666667
parcha omoo 0.3333333
parcha ipichakatiro 0.5000000
anzuelea rakachatiri 0.5000000
sembrar nopankiterime 0.2500000
sembrar ipankiteri 0.5000000
sembrar rovaneki 0.1111111
sembrar intsipa 1.0000000
flechas ichakopitepaye 0.5000000
abuelito kapironkari 0.3333333
abuelito charine 0.0425532
abuelito ronyaakakeri 0.3333333
pastor ovaeyirori 0.5000000
echarme notiritavakia 0.3333333
ratón onkiro 0.6666667
ratón rapeyakero 0.2500000
fideos tsirentsitonki 0.5000000
sucio , 0.0322581
sucio kipatsitakemi 0.3333333
enfermedad mantsiyarentsi 0.2500000
napo rontivatakavo 1.0000000
bajan ramaatakoti 0.3333333
travieso osheto 1.0000000
travieso antavaeshiri 0.5000000
travieso rantavaeshiti 0.3333333
palabras inyaanatiro 0.5000000
flecha ichakopite 0.5000000
llenó imonkaatakero 0.3333333
llenó ihaakero 1.0000000
llenó tyonkishori 0.5000000
puchkay ikovakotiro 0.3333333
vadeó nihaateni 0.2000000
vadeó imontyaakero 0.3333333
labios ichera 0.5000000
monitor amenayetiriri 0.5000000
ranas patsiri 0.5000000
ranas chekito 0.5000000
ranas oyaari 0.2000000
tiñe opitsitsayetiro 0.3333333
paucar tsoori 1.0000000
arroz opane 0.3333333
arroz oshekini 0.0909091
retoños ipankitaetiro 0.5000000
retoños opeshi 0.5000000
martín rovatyaari 0.1666667
martín cherepito 0.5000000
verdad maaperotaka 0.2500000
tripa isheeto 0.2000000
comiendo rovari 0.2500000
comiendo rovavo 0.1428571
comiendo shitovipaye 0.5000000
comiendo rovatyaari 0.1666667
comiendo onkochapaaki 0.2500000
comiendo rovavaitavo 0.3333333
comiendo ovaantsipooshiki 0.1666667
un amempori 0.5000000
un roetantyaariri 0.2000000
un rankoviitakeri 0.3333333
un NULL 0.0030030
un iitachari 1.0000000
un inoshikakeri 0.5000000
un shiramparihaniki 0.3333333
un hankenamentotsi 0.3333333
un akachaarontsi 0.5000000
un itonkavetaka 0.5000000
un rantyavori 0.2500000
un kapichoki 0.5000000
un komarontsi 0.2500000
un imaperotatya 0.3333333
un notonkake 0.2500000
un inchatoki 0.2500000
un kotsiraaniki 0.5000000
un piratsi 0.5000000
un itoviro 0.2500000
un imoo 0.3333333
un pamiro 0.5000000
un apaani 0.5000000
un matsari 0.3333333
un oitsokake 0.3333333
un itonkake 0.5000000
un inoshikake 0.4000000
un inyaane 0.3333333
un haviri 0.5000000
un hompotaki 0.3333333
un kirikotake 0.2000000
un kashetaeni 0.5000000
un shavo 0.2000000
un noyaatapainte 0.3333333
un omooki 0.1666667
un tsanoerentsi 0.3333333
un timatsi 0.2857143
un hamani 0.1666667
un aashitakari 0.2000000
un ipashikaatakeri 0.3333333
un rovatiyakero 0.3333333
un amanantake 0.5000000
escapar ishiyakakavo 0.5000000
escapar ishiyakaakavo 0.3333333
panguana poovonto 0.5000000
panguana maakookava 0.5000000
hormigas ihaantakoti 0.3333333
chupasangre ratsimiyakeri 0.2500000
chupasangre penta 1.0000000
hables pinyanatiro 0.3333333
corren ishiyaeyeni 0.5000000
hablamos anyavaete 1.0000000
bailar ashavokiite 0.5000000
pueda ihankenatantantyari 0.2000000
momento noyaatapainte 0.3333333
taricaya iheki 0.1000000
taricaya shempiri 0.5000000
taricaya ocheraki 0.3333333
taricaya teparo 0.3333333
enamorada ishirontane 0.3333333
emponado shitamenkotsiki 0.2000000
pinsha pishiti 0.5000000
engañó ramatavitakero 0.5000000
kaminirio kaminirio 0.2500000
debajo otapinaki 0.5000000
comida ovanavontsi 0.2000000
comida ramenayeti 0.3333333
comida rovanavo 0.1538462
comida katsitori 0.2500000
makota ihekaki 1.0000000
plato pamakenavo 0.0909091
sentí nokemakero 0.5000000
abanica ohevankiro 1.0000000
cierto kaari 0.1666667
cierto maeta 0.5000000
regalo ipashitakariri 0.3333333
regalo hevari 0.3333333
pierna iporiki 0.5000000
pierna eentsi 0.0526316
pierna oporiperoki 0.2500000
pierna oporiki 0.2500000
diarrea rovahempiakavo 0.3333333
diarrea shivaerontsi 0.5000000
cerro chorina 0.3333333
cerro otishi 0.5000000
cerro tonkariki 0.2222222
cerro tonkaareki 0.3125000
cerro ochempeki 0.2500000
cerro ichekakotake 0.1666667
cerro otishiki 0.3333333
cerro NULL 0.0030030
cerro ocheempeki 0.3333333
te ovakemiri 0.2000000
te karentsatake 0.1666667
te piniro 0.3333333
te ikaematimi 0.3333333
te pantavaere 0.2000000
te panteri 0.3333333
te nonintakemi 0.5000000
te okentimikari 0.2500000
te rakantakamiri 0.2500000
te onoshikimikari 0.5000000
te okatsitake 0.5000000
te nokemakemi 0.5000000
te opiyaataki 0.2500000
te niotya 0.2500000
chupa ratsotiro 0.3333333
ubicar pipanko 0.1666667
ubicar povatikerori 0.3333333
soga onampinaki 1.0000000
cañabravas iheekantavo 0.2500000
cañabravas havooki 0.5000000
cuñada atyo 0.5000000
cuñada iinatsori 0.3333333
cuñada iinyeeni 0.5000000
cuñada inyeni 0.3333333
ungurahui sheyaki 1.0000000
zancudo rantyavori 0.2500000
zancudo manyo 0.3333333
vivir iheekahe 0.2500000
colcha pashikavontsi 1.0000000
remató otsitzi 0.5000000
acarrea rovapiintiro 0.3333333
acarrea tsipana 0.2000000
koshantzi ivaneki 0.1666667
koshantzi koshanti 0.5000000
koshantzi tivana 0.1666667
piel ivitiki 0.2500000
duermen shinkirentipaye 0.5000000
suave onkotsitakeri 0.2500000
río oveniki 0.3333333
río niha 0.3181818
río oveni 0.5000000
río antavaaki 0.5000000
río onkaavoshiteri 0.3333333
río riyaataero 0.5000000
río itsarovi 0.3333333
río tampoki 0.5000000
río NULL 0.0060060
río eniki 1.0000000
río nihaaki 0.1428571
río nihaki 0.6666667
río nihaateni 0.2000000
río amaanitake 0.5000000
río nihaateniki 0.1111111
río nihaa 0.5000000
lamparilla katsivore 0.2000000
huella inyampoeretakeri 0.3333333
huella pimpichenkero 0.3333333
puedes omitsitsiyimikari 0.5000000
piedras mapi 0.1250000
excemento piyaariri 0.2000000
excemento itiya 0.5000000
shoshokiri shoshokiri 0.6666667
dulces novaneki 0.1250000
dulces pochaari 0.5000000
dulces pocharipaye 0.5000000
dulces shevantoki 0.5000000
salió NULL 0.0030030
salió shitovake 0.2500000
salió maavetachari 0.3333333
salió hevatirori 0.5000000
niibotya niivotya 0.5000000
renegridas raatikaitakeri 0.2500000
trae ratsi 0.5000000
trae maaniri 0.2500000
trae NULL 0.0030030
trae payantishi 0.3333333
trae amiro 0.5000000
trae pamakenari 0.3333333
trae pamakeri 1.0000000
trae amake 0.2500000
trae ayi 0.1250000
gracias paahonki 0.5000000
pinza kitochempe 0.5000000
pinza rampate 0.2000000
pinza rovavaetya 0.5000000
pinza rovantavo 0.1666667
pinza aririka 0.0400000
teléfono yempipavaerontsiki 0.3333333
los anyiinkari 0.3333333
los pinkamanteri 0.2000000
los antsotavake 0.2000000
los rovantyaavori 0.1428571
los rantavakaatya 0.5000000
los ayompari 0.5000000
los areetinkari 0.2000000
los itinairo 0.5000000
los eentsipaye 0.4285714
los iitsoki 0.1333333
los iheekaeyeni 0.2500000
los kiteeheriki 0.3333333
los ovenihati 1.0000000
los opeshi 0.5000000
los nyaatsarepaeni 0.5000000
los ipatimatiri 0.3333333
los tyaapaniki 0.2500000
los tiyaatanaha 0.3333333
los ikantanakeri 0.5000000
los inchatomashiki 0.5000000
los ikentantariri 0.3333333
los ovari 0.5000000
los NULL 0.0180180
los apinka 1.0000000
los ovayeri 0.3333333
los ari 0.0666667
los iponkantyari 0.2500000
los tyoviri 0.1666667
los ishinkana 0.5000000
los irianeriki 0.5000000
los shimpoki 0.3333333
los soraro 0.5000000
los ihankenaeyakeni 0.3333333
los irianikipaye 0.2500000
los pamitakotantyaariri 0.3333333
los mantsiyarepaye 0.5000000
los inchatoshiki 0.2000000
los inyaamatari 0.3333333
los otsoyempitati 0.5000000
los kemihantsinkari 0.5000000
los hamorenkake 0.2000000
los shimapaye 0.3333333
los rova 0.5000000
los ishempaki 0.2000000
los amaaniti 0.5000000
los iyomoneerote 0.3333333
los opiyiro 0.2500000
los maeyakeni 1.0000000
los pocharipaye 0.5000000
los irianipaye 0.5000000
aquí nopankoki 0.1111111
aquí haka 0.5000000
aquí nani 0.0294118
arda omorekantyaari 0.3333333
néctar inyaamatavo 1.0000000
vender shina 1.0000000
vender ipimanteri 1.0000000
gallinas itsinanitepaye 0.5000000
nuevo ovakerari 0.4000000
sea tsirikana 0.3333333
sea ikomintsatantyaari 0.2000000
para antavotantyaari 0.2500000
para raavintantyariri 0.2500000
para kishanyavo 0.3333333
para rantavaete 0.2500000
para nonkentantyaari 0.2000000
para kishiri 0.5000000
para nontsikaatavake 0.5000000
para ityootantyari 0.3333333
para haanari 0.3333333
para ovantyaari 0.6666667
para hayapa 0.5000000
para ishiyakomento 0.2000000
para akaatavakeriita 0.3333333
para rivenkite 0.5000000
para imaantare 0.3333333
para rantantyari 0.5000000
para akipatantyaari 0.1666667
para rantyavori 0.2500000
para makotake 0.3333333
para otiritantyaavori 0.3333333
para nireri 0.5000000
para itantotantyaavori 0.5000000
para ramanantakero 0.5000000
para rovantyaariri 0.5000000
para rovatsikantyavori 0.5000000
para operiri 0.3333333
para tonkaare 0.5000000
para koriari 0.3333333
para inchapatakite 0.5000000
para ayero 0.3333333
para ihonkantantyaari 0.5000000
para shintsini 0.3333333
para ashi 0.2500000
para rovantyaavori 0.2857143
para antsotavake 0.2000000
para chavari 1.0000000
para riyomatantyavori 0.3333333
para pashikaamentotsi 0.5000000
para okarentsatantyari 0.3333333
para riyotantyaari 0.5000000
para ikomintsatantyaari 0.2000000
para naake 0.3333333
para navihakero 0.5000000
para tsoompirontsi 0.5000000
para antantyari 0.5000000
para shitamentotsi 0.3333333
para tsirentsitonki 0.5000000
para oitsare 0.2500000
para opitiriantyariri 0.5000000
para ototakeri 0.5000000
para nenkitsiki 0.5000000
para mapipookiki 0.5000000
para nantake 0.5000000
para rotetantyaariri 0.5000000
para ontimatye 0.4000000
para mampetsa 1.0000000
para kitsaarentsi 0.5000000
para rantantyavori 0.3333333
para ikitamaaripetate 0.5000000
para patsiri 0.5000000
para maavo 0.3333333
para onkotsiteri 0.3333333
para rantantyaavori 0.3333333
para . 0.0013793
para nopehashitantyaavori 0.2500000
para oteyantyaariri 0.2500000
para iponkantyari 0.2500000
para roetantyaariri 0.4000000
para notiritavakia 0.3333333
para ihankenavaerentitantyaari 0.2500000
para isheeto 0.2000000
para NULL 0.0180180
para niravake 0.4000000
para imire 0.5000000
para imaantyari 0.5000000
para rako 0.3333333
para irare 0.5000000
para akishitantyaari 0.5000000
para opotsotyari 0.5000000
para rantantyaari 0.3333333
para antantyaari 0.4285714
para ishempaki 0.2000000
para iraari 0.3333333
para ikaemantariri 0.2500000
para ikentantyaariri 0.6666667
para imaantyaari 0.3333333
para ikiyakoti 0.2500000
para kampona 0.2000000
para hataki 0.5000000
para nopankiterime 0.2500000
para tashirentsi 0.3333333
para antantyaavori 0.3333333
para kompiroshi 0.4000000
para aatatyeri 0.2500000
para akishitavakeeta 0.5000000
para kepiyashi 0.2500000
para chenko 0.5000000
para raavintantyari 0.2500000
para nakiheekakotantyari 0.5000000
para ampatotya 0.3333333
para nakachatantyari 0.5000000
para pivavitero 0.5000000
para rovantyari 0.3333333
para maretyakintsi 0.3333333
para ishirikashitantyaavori 0.5000000
para roteyantyaariri 0.2000000
para ikaboshitantyari 0.3333333
para raati 0.6000000
para iitsokantyari 0.2500000
para akachatantyaari 0.5000000
para nopankiteri 0.3333333
para opiare 0.2500000
para oshiyakaantsi 0.3333333
para omorekantyaari 0.3333333
sirva otsikaatena 0.2500000
tinaja antantsi 0.3333333
tinaja chomo 1.0000000
tinaja sheni 0.5000000
pequeña oriani 0.3333333
insectos inyaamatari 0.3333333
insectos shikiri 0.2000000
coge itsikotiro 0.5000000
con pinyanatiro 0.3333333
con avantyari 0.2500000
con rirati 0.5000000
con akachavaerenti 0.2500000
con pinyaavakena 0.3333333
con raavintatyavo 0.5000000
con inyaanatakeri 0.5000000
con rantivatakaro 0.2500000
con oitsare 0.2500000
con rantiro 0.2000000
con itotanakeri 0.3333333
con ipashikaatantari 0.3333333
con akaatavakeriita 0.3333333
con kaariperori 0.2500000
con rakachaatake 0.3333333
con tonkamentotsiki 0.3333333
con otaavakero 0.5000000
con katsikori 0.3333333
con ikenkitsatakaeri 0.5000000
con NULL 0.0030030
con rampate 0.4000000
con katsirentsi 0.5000000
con vatsatsi 0.1666667
curuhuinsi inati 0.2500000
curuhuinsi hankori 0.5000000
curuhuinsi antavaerianti 0.5000000
curuhuinsi rovapiintiro 0.3333333
barre opishiti 0.5000000
playa impanekiki 0.1666667
playa iitsokantyari 0.2500000
negro oitsare 0.2500000
negro cheenkari 0.2000000
corteza NULL 0.0030030
corteza oshivitsate 0.5000000
corteza otakipayeki 0.2000000
corteza iye 0.5000000
astilla inchapataki 0.2500000
yarinas apanko 0.2500000
yarinas kompiroshi 0.2000000
yarinas ivetsikantyari 0.3333333
viven inchatomashiki 0.2500000
viven iheeki 0.1363636
viven mavoeni 0.1666667
viven iheekaeyeni 0.2500000
viven ihaekaeyeni 1.0000000
viven mata 0.2000000
viven shenontipaye 0.3333333
largo hantsari 1.0000000
largo tsompari 0.3333333
largo hantsaro 0.5000000
comió rovavetakari 0.1666667
comió rovahempiakavo 0.3333333
comió rovakari 0.6000000
comió ovahempiakari 0.3333333
comió poshiniri 0.2000000
comió rovakavo 0.5000000
comió matsontsori 0.3333333
comió NULL 0.0090090
comió ivakavo 0.5000000
día kiteheriki 0.2500000
día ikiteehitakotake 0.2500000
día menkoriityaake 0.3333333
día nareetyari 0.5000000
unchala koteri 1.0000000
después rovavetakari 0.1666667
pegados iyontaachari 0.3333333
pegados rayi 0.1250000
pegados mata 0.2000000
conocimientos yotaantsi 1.0000000
conocimientos opakae 0.3333333
llamando ikaematimi 0.3333333
perfume notiritavakia 0.3333333
si pinyeri 0.3333333
si pinoshikanakero 0.3333333
si otampiate 0.1666667
si ontime 0.5000000
si arakote 0.5000000
si aririka 0.2400000
si anyaanatero 0.5000000
si akemehanteri 0.3333333
collar tsanoerentsi 0.3333333
regresa tyempoya 0.3333333
regresa riyaati 0.1428571
regresa rantavaeti 0.3333333
y irotake 0.2500000
y shitovanake 0.2500000
y rookanakeri 0.2500000
y eehati 0.7142857
y NULL 0.0030030
y peyari 0.2500000
y ratsikavakeri 0.2500000
y rootake 0.2000000
y otenkanaki 0.3333333
y pantavaka 0.3333333
zapallos onkotsiteri 0.3333333
zapallos kemi 0.3333333
produce ipatsaakaanti 0.3333333
vayas piyaatake 0.3333333
vayas hantariki 0.5000000
humo kachaarentsi 0.3333333
humo otinaantari 0.3333333
basta aritapaake 0.5000000
toser inkaariveri 0.3333333
toser totiroki 0.1111111
toser ovahempiakari 0.3333333
cazar ikenavaete 0.5000000
cazar ikenavaetantakari 0.5000000
cazar ramene 0.3333333
cazar nonkentantyaari 0.2000000
cazar ikenavaeti 0.5000000
cazar ikinavaeti 0.3333333
hacen ikaemakantaetiri 0.3333333
huayos chochoki 0.3333333
corre pishiye 0.5000000
corre intsipaeni 0.5000000
remo komarontsi 0.2500000
remo iyomaro 0.3333333
remo raetiro 0.3333333
huasacos inkaareki 0.0294118
huasacos chenkoripaye 0.5000000
secan nihapaye 0.2500000
patrón ivaatrote 0.5000000
suegra ayiini 1.0000000
suegra okaemakantiro 0.2500000
allá hanta 0.5000000
experto iyotiro 0.5000000
pequeño evonkiri 1.0000000
pesca ikentavaeti 1.0000000
pesca akachavaerenti 0.2500000
pesca rakachatiri 0.5000000
preparó rovetsikake 0.5000000
preparó shimperi 0.5000000
cresta imentaina 0.5000000
difícil ipakenari 0.3333333
difícil nyaantsi 0.3333333
hoja ovaantsipooshiki 0.1666667
echó mariapake 0.5000000
