pantakaeri malas 0.5000000
kaariperori malas 0.5000000
oshirantaaki laja 1.0000000
piyatsari desobediente 1.0000000
otashitake asó 0.3333333
otashitakeri asó 0.3333333
akishitakeniri asó 0.3333333
timpinare extraviado 0.3333333
iheeki extraviado 0.3333333
iravaeta extraviado 0.3333333
isheeto cebo 1.0000000
ookanakeri charca 0.5000000
inkaareki charca 0.5000000
osheki es 0.0222222
rantavaeshiti es 0.0222222
piponyari es 0.0222222
omoti es 0.0222222
aashitakari es 0.0222222
eshiraatake es 0.0222222
itseyantari es 0.0222222
shitovi es 0.0222222
inintaitiri es 0.0222222
oharentsite es 0.0222222
kametsari es 0.0444444
apitsatakiriri es 0.0222222
pishimentotsi es 0.0222222
pochari es 0.0222222
opochatati es 0.0222222
kepishiri es 0.0222222
iritake es 0.0222222
rovanavo es 0.0222222
maaperotaka es 0.0222222
imaperotatya es 0.0222222
chokiro es 0.0222222
tsompare es 0.0222222
pamakira es 0.0222222
ikovaaetiri es 0.0222222
ipante es 0.0222222
kametsarini es 0.0222222
iyotiro es 0.0222222
irootake es 0.0222222
pashi es 0.0222222
tontori es 0.0222222
opotsota es 0.0222222
ari es 0.0222222
rantyavaeshiti es 0.0222222
NULL es 0.0666667
otampiate es 0.0222222
kiteriatake es 0.0222222
potsomentotsi es 0.0222222
shipetatantsi es 0.0222222
inati es 0.0444444
shiramparihaniki es 0.0222222
ipakenari es 0.0222222
kamaiteri kamaiteri 1.0000000
tooso turushuqui 0.5000000
ipashikaatakeri turushuqui 0.5000000
maavo cava 0.2500000
okiyakoti cava 0.2500000
avantyari cava 0.2500000
imoo cava 0.2500000
kemetaka parece 0.5714286
opochaanikiti parece 0.1428571
omantsiyare parece 0.1428571
opariatye parece 0.1428571
rovetsikati confeccionando 1.0000000
iyotaka solamente 1.0000000
tiho gallinazo 0.6666667
iheki gallinazo 0.3333333
oporiperoki derecha 0.5000000
rakopero derecha 0.5000000
hankenarentsi escrito 0.5000000
rantakeri escrito 0.5000000
otihaavakeri rompió 0.5000000
ihaatakero rompió 0.5000000
tonkitsi espina 0.2500000
okentakero espina 0.2500000
kitoche espina 0.5000000
ishetaki garra 1.0000000
ashirariake queriendo 0.3333333
ikoveme queriendo 0.3333333
impeeta queriendo 0.3333333
makotake descansar 1.0000000
pivitirieri mató 0.2500000
itonkake mató 0.5000000
rovamayeri mató 0.2500000
notonkake había 0.2000000
kamavetaka había 0.2000000
nonkotsivetaka había 0.2000000
kaniri había 0.2000000
nonyavetakari había 0.2000000
inkani llover 1.0000000
ovakemiri qué 0.4000000
oitaka qué 0.2000000
iita qué 0.2000000
noyometaemi qué 0.2000000
otsaato amarrar 0.5000000
roohotantyaavori amarrar 0.5000000
riraeyeni toma 0.5000000
cheetatsiri toma 0.5000000
. afasi 0.2500000
kayetsi afasi 0.7500000
rantakaantake construir 0.2000000
ivetsikantyari construir 0.2000000
ishintipare construir 0.2000000
rantantyaari construir 0.2000000
kepaye construir 0.2000000
impetaki roca 0.1666667
ovae roca 0.1666667
impeeta roca 0.1666667
NULL roca 0.1666667
omoki roca 0.1666667
iheki roca 0.1666667
nonyakeri marino 1.0000000
oteyakitanake mayo 1.0000000
apaani palometa 0.2000000
irika palometa 0.2000000
chomenta palometa 0.6000000
pamakena tráeme 0.2500000
pamakenavo tráeme 0.7500000
itseyantari mentiroso 1.0000000
shinkirentipaye borrachos 1.0000000
rayiro lleva 0.6666667
raantavori lleva 0.3333333
tsimiki colpa 1.0000000
oshekitiri maderables 0.3333333
ari maderables 0.3333333
hantari maderables 0.3333333
iheetiro lit. 0.5000000
nokovati lit. 0.5000000
oharentsiki quebradas 0.5000000
nihapaye quebradas 0.5000000
shookake crecieron 0.5000000
ishivanki crecieron 0.5000000
shitamenkotsi mordió 0.0909091
ratsikakeri mordió 0.4545455
okirikakeri mordió 0.0909091
ratsikakerira mordió 0.0909091
ratsikavetakari mordió 0.1818182
kamaatonki mordió 0.0909091
hankenamentotsi regaló 1.0000000
payena traerme 1.0000000
inkame hambre 0.2500000
itashe hambre 0.2500000
aakeri hambre 0.2500000
tasheyakena hambre 0.2500000
antyashipari anciano 1.0000000
piyote tienes 0.2000000
piviari tienes 0.2000000
timatsi tienes 0.2000000
pihaeke tienes 0.2000000
NULL tienes 0.2000000
potsoti pintarse 0.5000000
opotsotyari pintarse 0.5000000
ipanko techo 0.6666667
ipashikantyaabori techo 0.3333333
ityaapapankote gallinero 0.2000000
tyaapapanko gallinero 0.2000000
tyaapapankoki gallinero 0.4000000
rova gallinero 0.2000000
koviti agua 0.0833333
nihaaki agua 0.1666667
moyaake agua 0.0833333
niha agua 0.5833333
ohavati agua 0.0833333
pavitsi escalera 0.5000000
nantake escalera 0.5000000
pampiamentotsi quebrada 0.1250000
nihateniki quebrada 0.2500000
nihaateniki quebrada 0.2500000
nihaatenipaye quebrada 0.1250000
nihaateni quebrada 0.1250000
NULL quebrada 0.1250000
shevantoki uvillas 0.5000000
pochari uvillas 0.5000000
noitsiki pie 0.1250000
chareto pie 0.1250000
iitiki pie 0.6250000
noitsi pie 0.1250000
ichenkoreetakeri sacaron 1.0000000
aventyari demasiado 0.1666667
rovaka demasiado 0.1666667
avitatakena demasiado 0.1666667
kametsa demasiado 0.1666667
omorekantari demasiado 0.1666667
oshinkitantari demasiado 0.1666667
ocheraaki cazó 0.5000000
raakeri cazó 0.5000000
antavo orejas 0.5000000
iyempita orejas 0.5000000
noviamene balista 1.0000000
rovari ratones 0.3333333
onkiro ratones 0.3333333
misho ratones 0.3333333
maanki enroscando 0.5000000
rankoviitiri enroscando 0.5000000
chorito chorito 1.0000000
kaariperori hagas 1.0000000
okantakeri dijo 0.0416667
piyatsare dijo 0.0416667
ikantakina dijo 0.0416667
ikantanake dijo 0.0416667
ikantapaakeri dijo 0.0416667
ikantakero dijo 0.0416667
okantiro dijo 0.0833333
ikantakena dijo 0.0833333
ikanti dijo 0.0416667
okantakena dijo 0.3333333
okantakina dijo 0.0416667
okantanake dijo 0.0416667
ikantakeri dijo 0.1250000
haaka lleno 0.6666667
itsonkatakeri lleno 0.3333333
moyaake hierve 0.5000000
onihaate hierve 0.5000000
itarika manacaraco 0.5000000
maati manacaraco 0.5000000
itsaatakeri ladró 0.6666667
notsitsite ladró 0.3333333
chapinki pasada 0.5000000
oshokakaakero pasada 0.5000000
henoki parte 1.0000000
avihatsiri pasa 0.3333333
inyayetiri pasa 0.3333333
petakovaetantari pasa 0.3333333
katsimari perro 0.0526316
nihateniki perro 0.0526316
rotsitsite perro 0.0526316
otsitsi perro 0.1052632
NULL perro 0.1052632
notsitsite perro 0.1052632
otsiti perro 0.4736842
otsitzi perro 0.0526316
pinkiteri tu 0.0370370
pitomi tu 0.1481481
pipanko tu 0.0740741
pantavaere tu 0.0370370
pakeri tu 0.0370370
pinampiki tu 0.0370370
piyahankarite tu 0.0370370
pipankoki tu 0.0370370
pipoke tu 0.0370370
piyaariri tu 0.0370370
pireenti tu 0.0370370
piri tu 0.0370370
shintsiri tu 0.0740741
pakishire tu 0.0370370
pitsiro tu 0.0740741
piponyari tu 0.0370370
pivaero tu 0.0370370
okaematimi tu 0.0370370
itonkakeri tu 0.0370370
pirenti tu 0.0740741
korinto elefante 1.0000000
itseeyaka mintió 0.5000000
kamaiteri mintió 0.5000000
rovavaetya izquierda 0.3333333
rampateki izquierda 0.3333333
oshero izquierda 0.3333333
ikaimati gritando 1.0000000
imaantare mosquitero 0.3333333
kamanyaari mosquitero 0.3333333
itsatakero mosquitero 0.3333333
ipankitakeri creciendo 1.0000000
NULL avioneta 1.0000000
inkaamane tenemos 0.1428571
ontime tenemos 0.1428571
antavaete tenemos 0.1428571
oya tenemos 0.1428571
ayometaeri tenemos 0.1428571
ovametaeri tenemos 0.1428571
atoonkatyeero tenemos 0.1428571
ratsovootiro besó 1.0000000
nonkaavoshitapaentya bañarme 0.5000000
noyaatapainte bañarme 0.5000000
iponkatyari ishanga 1.0000000
paamaventya cuídense 1.0000000
oshitovake agüero 1.0000000
kamari satanás 1.0000000
kametsare pensamiento 0.5000000
akenkishiriamento pensamiento 0.5000000
katsimari bravo 0.5000000
rotsitsite bravo 0.5000000
nyaavaementotsiki radio 0.5000000
poematanake radio 0.5000000
itsonkatakeri chuparon 0.5000000
ivoriki chuparon 0.5000000
ikinavaeti salía 1.0000000
pimpichenkero ven 1.0000000
nyaamentotsiki llamar 0.2000000
okaemakantiro llamar 0.2000000
ikaemantariri llamar 0.2000000
pinkatsari llamar 0.2000000
ikaemakantakae llamar 0.2000000
oheeke kishokiyo 0.3333333
heekamentotsiki kishokiyo 0.3333333
kishityo kishokiyo 0.3333333
irianipaye alumnos 0.5000000
rovameri alumnos 0.5000000
chorina chorina 0.5000000
tonkaariki chorina 0.5000000
pinkeme escucha 1.0000000
naaka tambien 1.0000000
pisheteri moco 0.5000000
iyamantsite moco 0.5000000
otsoyempitati dientes 1.0000000
kantimaetacha pero 0.3750000
kantaencha pero 0.1250000
iro pero 0.3750000
chenkotsi pero 0.1250000
amaenkari porque 0.0384615
NULL porque 0.0384615
inkaaricheraaki porque 0.0384615
pirevoshitya porque 0.0384615
tema porque 0.1923077
rashinonkaaka porque 0.0384615
itsarovi porque 0.0384615
atsikakeri porque 0.0384615
itoviro porque 0.0384615
iraiki porque 0.0384615
imaye porque 0.0384615
otampiate porque 0.0384615
iporeriaati porque 0.0384615
ikemaenkatiri porque 0.0384615
timanake porque 0.0384615
ominkiake porque 0.0384615
raatikaitakeri porque 0.0384615
karentsatake porque 0.0384615
ikiteehitakotake porque 0.0384615
noitsi porque 0.0384615
okantakaantiro porque 0.0769231
ishempaki hombros 1.0000000
pinyaakeri ves 0.3333333
pinyeri ves 0.3333333
pinyaakerira ves 0.3333333
nontyaare tejido 1.0000000
inkokiroeni afuera 1.0000000
ani cuñado 0.4482759
eemeeni cuñado 0.0344828
nani cuñado 0.5172414
imaperotatya verdadero 1.0000000
atomipaye nuestros 0.5000000
ovametaeri nuestros 0.5000000
iponkantyari castigar 1.0000000
pitetahero mete 0.5000000
pomonkeri mete 0.5000000
NULL gripe 0.2000000
neentsite gripe 0.2000000
omatakeri gripe 0.2000000
kamaantsi gripe 0.4000000
ahatahe iremos 0.5000000
ari iremos 0.5000000
raretatyea tendrás 1.0000000
oyiitakero baja 1.0000000
ikentsi larga 0.5000000
tsompare larga 0.5000000
kihinkari colérico 1.0000000
ipimantayetiri costosas 0.5000000
ovaravontsi costosas 0.5000000
itsariantyariri red 1.0000000
ipehatiro roza 1.0000000
kainitake comezón 1.0000000
eehati yo 0.3333333
naaka yo 0.6666667
ineetsikiroeni buscando 0.3333333
ramenayeti buscando 0.6666667
kooya embarazada 0.5000000
motinto embarazada 0.5000000
ina madre 0.3333333
naana madre 0.1666667
okaematimi madre 0.1666667
onkotsitantyari madre 0.1666667
NULL madre 0.1666667
rareetaka extraña 0.5000000
anampiki extraña 0.5000000
ipashikaatake tarrafeó 0.5000000
ipashikaatakeri tarrafeó 0.5000000
akipatantyaari bijao 0.5000000
pitiro bijao 0.5000000
konoya tortuga 1.0000000
inyaanatero lee 1.0000000
maeni oso 1.0000000
niyanki medio 1.0000000
kirikotake saqué 0.5000000
naashitakeri saqué 0.5000000
tsireentsi palmera 1.0000000
mantsiyatake enfermó 0.5000000
imantsiyatantanakari enfermó 0.5000000
inchatonakiki cosho 0.5000000
inchatonaki cosho 0.5000000
ankaraero quebrar 0.5000000
amatiro quebrar 0.5000000
maperotaka grave 1.0000000
antavo grueso 1.0000000
ikaemakantakae nos 0.1666667
NULL nos 0.1666667
eroti nos 0.1666667
opakae nos 0.1666667
nyaatsavaerontsi nos 0.1666667
ari nos 0.1666667
inkani lluvia 0.7500000
pirinto lluvia 0.2500000
pimpiriintaheri levanta 0.3333333
itinaeri levanta 0.3333333
kachaarentsi levanta 0.3333333
otsapiki canto 0.5000000
ovantsi canto 0.5000000
sheteri tuerto 1.0000000
shiranta rocas 1.0000000
timatsiri bueno 0.5000000
rahankane bueno 0.5000000
ishinkiro borrachera 1.0000000
ishiyanaka corrió 1.0000000
raati junta 1.0000000
pireenti hermano 0.0204082
iye hermano 0.0204082
maanko hermano 0.0204082
otsipa hermano 0.0204082
pirenti hermano 0.0408163
aari hermano 0.0408163
ipokake hermano 0.0204082
piyaariri hermano 0.0204082
yeye hermano 0.7755102
rirenti hermano 0.0204082
eshiraatake caulla 1.0000000
pampiamentotsi kemariari 0.5000000
heekatsiri kemariari 0.5000000
otevaki juegan 0.3333333
inyatsaeyani juegan 0.3333333
inchato juegan 0.3333333
antavaeti trabaja 0.5000000
ovaneki trabaja 0.5000000
aririka manos 0.2500000
ovanavontsi manos 0.2500000
poya manos 0.2500000
pako manos 0.2500000
pokashitiriri acercarse 0.3333333
inyeri acercarse 0.3333333
inyee acercarse 0.3333333
piyaatika vas 0.3333333
povatikerori vas 0.3333333
karentsatake vas 0.3333333
tsitsi leña 0.8333333
atsima leña 0.1666667
kovana lisa 1.0000000
soraro soldados 0.5000000
kiteeheriki soldados 0.5000000
oteyantyaariri naza 1.0000000
ayometaeri enseñar 0.2500000
otimatye enseñar 0.5000000
ovametaeri enseñar 0.2500000
ikemeta algún 1.0000000
ivaero nombre 0.5000000
pivaero nombre 0.5000000
panteri instruir 0.5000000
noyometaemi instruir 0.5000000
shiyakaantsi foto 1.0000000
mantsiyare enfermo 1.0000000
raatikashitakavo piso 1.0000000
NULL tyobiri 0.3333333
tyoviri tyobiri 0.6666667
imoreki les 0.3333333
inyaamatari les 0.3333333
hamorenkake les 0.3333333
iyempitaki oreja 1.0000000
rovatyaari mojarra 1.0000000
ikentsiki atragantar 1.0000000
piyate pegar 0.5000000
pimpichero pegar 0.5000000
chompi pecho 0.5000000
ineeki pecho 0.5000000
oshinkitantakari estaba 0.2500000
chompita estaba 0.2500000
inyaatsatavo estaba 0.2500000
inkie estaba 0.2500000
imampaveata sobre 0.3333333
katsivore sobre 0.3333333
shitashintsi sobre 0.3333333
eero prevenir 0.5000000
shitamentotsi prevenir 0.5000000
ikiriki mosca 1.0000000
hamorenkake ampollas 1.0000000
inchatonakiki rebalsó 0.5000000
heekatsiri rebalsó 0.5000000
inampitavo shansho 0.5000000
shesheti shansho 0.5000000
okirikakeri hilo 1.0000000
rahankane feliz 0.2500000
kametsari feliz 0.2500000
oveshiriachari feliz 0.2500000
iritake feliz 0.2500000
tyopiki pollito 0.3333333
otyaapanikite pollito 0.3333333
tyaapaniki pollito 0.3333333
notyomi hijo 0.2777778
pitomi hijo 0.2222222
itomi hijo 0.4444444
neentsite hijo 0.0555556
oshirinkaare merma 1.0000000
iishi cabello 0.2000000
oishi cabello 0.4000000
okishitantyariri cabello 0.2000000
aishi cabello 0.2000000
hamorenkake maestros 1.0000000
rantavaeveta trabajaba 0.5000000
rantavaetantari trabajaba 0.5000000
hampovatsa barro 0.4000000
ohampovatsate barro 0.2000000
oitsare barro 0.2000000
rovanavo barro 0.2000000
ichekake cortó 0.3333333
itaki cortó 0.1666667
ichekakotake cortó 0.1666667
itotakero cortó 0.1666667
chekaka cortó 0.1666667
chapitsi gusanos 0.2000000
onkona gusanos 0.2000000
oneeki gusanos 0.2000000
mata gusanos 0.2000000
koriato gusanos 0.2000000
nampitsiki grandes 0.5000000
ikemantari grandes 0.5000000
rootake caracoles 0.5000000
totiroki caracoles 0.5000000
tsireentsi huasaí 0.5000000
oyeenka huasaí 0.5000000
NULL planta 0.2000000
otaki planta 0.2000000
pankirentsi planta 0.2000000
ashi planta 0.2000000
kametsari planta 0.2000000
pimpena regálame 1.0000000
pinkantero dile 1.0000000
oonkaka barriga 0.3333333
omoti barriga 0.3333333
imoti barriga 0.3333333
itahonkakero sopló 1.0000000
iperata ocioso 0.1666667
te ocioso 0.1666667
ivane ocioso 0.1666667
otime ocioso 0.1666667
ikantake ocioso 0.1666667
peranti ocioso 0.1666667
maankivenki mordedura 0.5000000
inchashi mordedura 0.5000000
rakachaatake pescó 0.1428571
pava pescó 0.1428571
inoshikakeri pescó 0.1428571
pavachori pescó 0.1428571
ipashikaatantari pescó 0.1428571
NULL pescó 0.1428571
ipahakaatakeri pescó 0.1428571
hevaantsi abanico 1.0000000
pinyaakeri centro 1.0000000
ranyeenkaveta respiraba 1.0000000
kamanyaari amarró 0.3333333
ovityo amarró 0.3333333
ishirikakeri amarró 0.3333333
shitsa lombriz 1.0000000
nopankiti siembro 1.0000000
pashiventaka tuvo 1.0000000
amampaantsi emiten 0.5000000
oshaaviityaanake emiten 0.5000000
iraari grado 1.0000000
amarentsipaye brazaletes 1.0000000
notyomi hjo 1.0000000
nomatakero haré 0.5000000
ari haré 0.5000000
nopankiterime guardaba 0.5000000
oharentsiki guardaba 0.5000000
mamori sábalo 0.5000000
koviri sábalo 0.2500000
akacharentsi sábalo 0.2500000
parianti siembran 1.0000000
inchaki pieza 1.0000000
inkiteki firmamento 1.0000000
pitsiro arrastra 0.5000000
pinoshikanakero arrastra 0.5000000
inyaatsavaeveta juego 1.0000000
avintantyaavori herida 0.2500000
enchaniki herida 0.2500000
raavintantyariri herida 0.2500000
opatsavo herida 0.2500000
rantantyaari contruir 1.0000000
chapiti las 0.0204082
pinkevero las 0.0204082
iheekantavo las 0.0204082
otakipayeki las 0.0204082
aavintantatsiri las 0.0204082
anyaakero las 0.0204082
iyempita las 0.0204082
ipentaki las 0.0204082
nihapaye las 0.0204082
chekito las 0.0204082
ishivanki las 0.0204082
itonkakeri las 0.0204082
inchateyaki las 0.0204082
ikaimi las 0.0204082
roteyantyaariri las 0.0204082
antavoki las 0.0204082
okentimikari las 0.0204082
royeri las 0.0204082
ompokiro las 0.0204082
shiyakaantsipaye las 0.0204082
oshokakaakero las 0.0204082
tsinanipaye las 0.0204082
NULL las 0.1020408
okantashiyetashita las 0.0204082
ookiro las 0.0204082
oshetaki las 0.0204082
shiranta las 0.0204082
tsirenirikipaye las 0.0204082
otapinaki las 0.0204082
tsinanepaye las 0.0816327
inyatsaeyani las 0.0204082
oshaaviityaanake las 0.0204082
toniro las 0.0204082
otsapairikita las 0.0204082
timpinare las 0.0204082
inchatoshiki las 0.0204082
itsinanitepaye las 0.0204082
ohaaviki las 0.0204082
ipori las 0.0204082
aayetirori las 0.0204082
tsipana las 0.0408163
koshoshiko bufeo 1.0000000
perato traeme 1.0000000
itsaakeri hueso 1.0000000
inchaki duro 0.5000000
NULL duro 0.5000000
oonkantanakari represó 1.0000000
shavo añuje 1.0000000
tyominkiyo chocó 1.0000000
imoreki luz 0.3333333
entsite luz 0.3333333
otamentotsiki luz 0.3333333
oharentsiteki aniversario 0.5000000
yotaantsinpanko aniversario 0.5000000
okiantyariri cargar 1.0000000
ikaavoshiveta raya 1.0000000
kishokiri kishokiri 1.0000000
koriti camotes 1.0000000
inyaanatero palabra 0.3333333
inyaane palabra 0.3333333
kompitaka palabra 0.3333333
shintsiri ) 0.5000000
otsipaki ) 0.5000000
shinki maíz 0.5714286
ishinkine maíz 0.4285714
shitovi callampa 1.0000000
tsiyeri huasa 0.5000000
rapatota huasa 0.5000000
katsikori tierra 0.2000000
kipatsi tierra 0.6000000
mavoeni tierra 0.2000000
anyane nuestra 0.2500000
kaari nuestra 0.2500000
anyaapintane nuestra 0.2500000
ivetsikantyari nuestra 0.2500000
piyaatika dónde 0.2000000
ikenanake dónde 0.2000000
hempe dónde 0.6000000
iraenkari llorón 0.2500000
pamakenari llorón 0.2500000
aventyari llorón 0.5000000
ovityo obityo 1.0000000
sharishi sharishi 1.0000000
pamananteri compra 0.2500000
ihankenatantantyari compra 0.2500000
ikitamaaripetate compra 0.2500000
pitomi compra 0.2500000
ronyaakakeri mostró 1.0000000
pamenarotya fija 0.5000000
hempe fija 0.5000000
ashiyakero chupó 0.5000000
ratsimiyakeri chupó 0.5000000
tiyaatanaha surcan 1.0000000
opiyaataki remolino 0.5000000
shinkiririti remolino 0.5000000
ranashitantyaari grupos 1.0000000
maniro venado 0.9166667
NULL venado 0.0833333
ikevoki duerma 0.5000000
imaantyaari duerma 0.5000000
ovirentsi trampa 1.0000000
iraka frutos 0.2000000
okitsoki frutos 0.4000000
kapararo frutos 0.2000000
onkochapaaki frutos 0.2000000
oshitovake shantyoma 0.5000000
inyaakeri shantyoma 0.5000000
manyo zancudos 1.0000000
tsoompirontsi aparina 1.0000000
oontsotakero atizó 1.0000000
iraka madura 0.3333333
ari madura 0.3333333
irakakerika madura 0.3333333
pivitirieri que 0.0106383
homintsaavakeri que 0.0106383
ikamankaati que 0.0106383
inchatopaye que 0.0106383
tsonkiri que 0.0106383
ero que 0.0106383
anirio que 0.0106383
pinyaakeri que 0.0106383
ramakeri que 0.0212766
oya que 0.0106383
ipokatye que 0.0106383
omorekantyaari que 0.0106383
atoonkatyeero que 0.0106383
rovaveta que 0.0106383
mata que 0.0106383
hamaani que 0.0106383
ishinkine que 0.0212766
nopankiterime que 0.0106383
pinkamanteri que 0.0106383
pivavitero que 0.0106383
ritaki que 0.0106383
mereto que 0.0106383
namanantakera que 0.0106383
pantavaere que 0.0106383
inyee que 0.0106383
ichekakotake que 0.0106383
ikemashitanaka que 0.0106383
akachavaerenti que 0.0106383
maranke que 0.0106383
nantero que 0.0106383
koveenkari que 0.0106383
anonkaka que 0.0106383
poyaatanakero que 0.0106383
notonkake que 0.0106383
otimatye que 0.0425532
rovaeyakani que 0.0106383
imaantyaari que 0.0106383
pinyaakerira que 0.0106383
ihankenavaerentitantyaari que 0.0106383
otyaakitakeri que 0.0106383
NULL que 0.1382979
ihaekantavo que 0.0106383
omantsiyare que 0.0106383
rovavetakari que 0.0106383
ontimatye que 0.0106383
eentsikeroeni que 0.0106383
irakaentsiri que 0.0106383
tekatsi que 0.0106383
aashitakari que 0.0106383
onkotsitakeri que 0.0106383
ishiyanaka que 0.0106383
ikomintsatantyaari que 0.0106383
oovaenchari que 0.0106383
inkani que 0.0106383
ataerikari que 0.0106383
oshirontane que 0.0106383
ookanakeri que 0.0106383
kihinkari que 0.0106383
otsapairikita que 0.0106383
oveshiriachari que 0.0106383
pihaeke que 0.0106383
pariakitatsiri que 0.0106383
aretapaenchari que 0.0106383
niotya que 0.0106383
aayetirori que 0.0106383
hankenarentsi que 0.0106383
oyaari que 0.0106383
onihaate que 0.0106383
raakeri que 0.0212766
maaroni que 0.0106383
antavotantyaari que 0.0106383
imaantare que 0.0106383
ipahakaatakeri que 0.0106383
antirori que 0.0106383
ihankenatantantyari que 0.0106383
ranyi que 0.0106383
otyaankakeri mandó 0.5000000
ikaemakantakae mandó 0.5000000
raminiro mira 0.3333333
pamenero mira 0.3333333
ramene mira 0.3333333
ivachakateki porongo 1.0000000
sharishi oyó 0.5000000
ikemake oyó 0.5000000
piniro llama 0.5000000
pirinto llama 0.5000000
imiamiataeyeni brincan 1.0000000
kamanyari kamañari 0.2000000
inampiki kamañari 0.2000000
kamanyaari kamañari 0.2000000
matsantsi kamañari 0.2000000
oshekini kamañari 0.2000000
nareetyari ser 0.2000000
onkantapaentya ser 0.2000000
imatsini ser 0.2000000
ikemeta ser 0.2000000
ikomintsatantyari ser 0.2000000
pamitakotena termirar 0.2500000
notsonkantyaavori termirar 0.2500000
intsipaite termirar 0.2500000
nopankoki termirar 0.2500000
vatsatsi carne 0.4285714
ivatsa carne 0.4285714
shitsivari carne 0.1428571
shitovake niña 0.3333333
itaakero niña 0.3333333
oriani niña 0.3333333
tainchari quemado 1.0000000
ishiviki pene 1.0000000
ramaero volver 1.0000000
anyaatsini vivo 0.5000000
noheki vivo 0.5000000
kepityoki kepityoki 0.5000000
ompohakeri kepityoki 0.5000000
periki polilla 0.5000000
rapeyakero polilla 0.5000000
nopehashitantyaavori hacer 0.0666667
antantyaari hacer 0.1333333
rantantyaari hacer 0.0666667
komarontsi hacer 0.0666667
noyometaemi hacer 0.0666667
atsima hacer 0.0666667
rantantyavori hacer 0.0666667
akipatantyaari hacer 0.0666667
nantantyaari hacer 0.1333333
shovirentsi hacer 0.0666667
rantantyaavori hacer 0.0666667
ishitamenkotantyaabori hacer 0.0666667
nante hacer 0.0666667
iniyamentoki atoró 1.0000000
kentsori perdiz 0.1666667
shonkiri perdiz 0.6666667
kontsavo perdiz 0.1666667
shavashi shawashi 1.0000000
navihakero pasé 1.0000000
ikantiro diciendo 0.4000000
pirinto diciendo 0.2000000
ashitaaniyetatsiri diciendo 0.2000000
iinatsori diciendo 0.2000000
mereto mojarras 1.0000000
onkoveme sentarse 1.0000000
rovantyari moscas 0.2500000
shikiri moscas 0.5000000
royeri moscas 0.2500000
kapichoki poco 0.4000000
piviari poco 0.2000000
pipavakena poco 0.2000000
pitivine poco 0.2000000
maavo gusano 0.2000000
chapiti gusano 0.2000000
oyanire gusano 0.2000000
chovitake gusano 0.2000000
rotsitsite gusano 0.2000000
pamitakotena ayúdame 1.0000000
ironta ese 0.6666667
irinta ese 0.3333333
mahoki renacuajo 0.5000000
iheki renacuajo 0.5000000
mavoeni vivos 0.5000000
anyiinkari vivos 0.5000000
ivatsaki cuerpo 1.0000000
kapeshi achuni 1.0000000
tema pies 1.0000000
shevankori shewankori 1.0000000
heekamentotsiki asiento 1.0000000
rovantavo camarón 1.0000000
kiteeheri amaneció 0.3333333
menkoriityaake amaneció 0.3333333
iroka amaneció 0.3333333
echonkiini dieron 1.0000000
atiri diferentes 1.0000000
kametsa mal 0.2500000
te mal 0.2500000
rovetsikaperotero mal 0.2500000
oshitovake mal 0.2500000
nonyaakeri shapopo 0.5000000
shapopo shapopo 0.5000000
shiyava recolectar 0.5000000
raaki recolectar 0.5000000
ineetsikiroeni despacio 0.3333333
ramini despacio 0.3333333
paniite despacio 0.3333333
eerorika quiere 0.5000000
okovi quiere 0.5000000
ikovakotiro pide 1.0000000
noshavo nieta 1.0000000
pantyo pato 0.5000000
amaatake pato 0.5000000
NULL solo 0.2500000
ebankari solo 0.2500000
apaniroeni solo 0.5000000
ityerovi estar 0.2500000
pihaeke estar 0.2500000
ikahankantyaari estar 0.2500000
pankotsiki estar 0.2500000
amenero revisar 1.0000000
poya anzueleado 1.0000000
iheeki vive 0.3750000
inampitavo vive 0.1250000
NULL vive 0.1875000
oveshiriachari vive 0.0625000
ihaeki vive 0.1250000
mahoki vive 0.0625000
ranyi vive 0.0625000
kovashito kowashito 0.5000000
raatsi kowashito 0.5000000
kiavontsiki invierno 1.0000000
itotanakeri caparazón 0.5000000
inaki caparazón 0.5000000
kitairiki sajino 0.5000000
kitaeriki sajino 0.5000000
naake agarré 1.0000000
ikihakotavo pelean 0.5000000
rantavakaatya pelean 0.5000000
imonkaatakero también 1.0000000
niha ríos 0.5000000
amaaniti ríos 0.5000000
katsinkaiteri frío 1.0000000
mapiti canta 0.2500000
ovashireenkataka canta 0.2500000
imampaavaeta canta 0.5000000
tyonkiro crece 0.2500000
oshoki crece 0.5000000
amanite crece 0.2500000
kompiyoki lopuna 0.5000000
raati lopuna 0.5000000
antavaete trabajar 0.2000000
rantavaete trabajar 0.2000000
rantavaeti trabajar 0.2000000
otimatye trabajar 0.2000000
antavaeti trabajar 0.2000000
payantipeshi machiki 1.0000000
onkotsitakiro cocina 1.0000000
okemeneenta caña 0.2000000
ashiyakero caña 0.2000000
oyaatantari caña 0.2000000
hanko caña 0.4000000
okemeneenta azúcar 1.0000000
akonkire suegro 0.0555556
pinkiteri suegro 0.0555556
ikentsiki suegro 0.0555556
konki suegro 0.7777778
NULL suegro 0.0555556
aashitakari preñó 1.0000000
ikemashitanaka sintió 0.5000000
kimoshiretanaki sintió 0.5000000
chochoki altura 1.0000000
entyo hermana 0.0714286
toto hermana 0.0357143
NULL hermana 0.0357143
eentyo hermana 0.0357143
choeni hermana 0.7500000
pitsiro hermana 0.0357143
pinoshikanakero hermana 0.0357143
raahero sacar 0.1250000
piyaatake sacar 0.1250000
tsimenkito sacar 0.1250000
akonkire sacar 0.1250000
antsokakite sacar 0.1250000
kaniri sacar 0.1250000
otsoki sacar 0.1250000
rovaneki sacar 0.1250000
ramavetapahero soportó 1.0000000
oitsoki semillas 0.3333333
NULL semillas 0.3333333
kentavo semillas 0.3333333
ootsironakite olla 0.2500000
kotsironaki olla 0.2500000
koviti olla 0.5000000
rashitiro tapa 1.0000000
chompita cucarachas 1.0000000
niyaatantakari fui 0.3333333
naye fui 0.3333333
niyaate fui 0.3333333
itsano cuello 0.3333333
nokentsiki cuello 0.3333333
NULL cuello 0.3333333
sheripiari curandero 1.0000000
ipankitake piñas 1.0000000
oharipaye nietos 1.0000000
tahorentsi jesús 1.0000000
etiki caimitillos 1.0000000
omachaakite frijoles 1.0000000
NULL monte 0.0769231
antamiki monte 0.9230769
ramate nadar 0.1666667
ontimatye nadar 0.1666667
maniro nadar 0.1666667
oveniki nadar 0.1666667
ramaate nadar 0.1666667
imontyantyaavori nadar 0.1666667
: : 1.0000000
pankotsi costado 0.3333333
oheeki costado 0.3333333
shivitsa costado 0.3333333
intsomoeki dentro 1.0000000
paamaventya entres 1.0000000
tasheyakena siento 1.0000000
atoonkatyeero moler 0.5000000
honkoki moler 0.5000000
pirinto hualo 0.5000000
ikaemiro hualo 0.5000000
imintsaavakero asustó 0.2000000
romintsaakeri asustó 0.2000000
maranke asustó 0.2000000
homintsaavakeri asustó 0.2000000
mintsarovakenari asustó 0.2000000
ikiyakoti quirquincho 0.5000000
etini quirquincho 0.5000000
ikahankantyaari espalda 0.5000000
itapikiki espalda 0.5000000
ohankenamento digital 1.0000000
nonkaavoshitapaentya voy 0.3333333
panteri voy 0.3333333
navihavaketa voy 0.3333333
ayaataki volando 0.5000000
etso volando 0.5000000
ochera otra 0.3333333
otsipaki otra 0.3333333
otsipa otra 0.3333333
tivotake toca 1.0000000
icheki cortar 1.0000000
ramanantakero compró 0.1666667
amanantake compró 0.1666667
ramanantake compró 0.6666667
otime tiene 0.0312500
hantsaro tiene 0.0312500
NULL tiene 0.0312500
enchaniki tiene 0.0312500
oneeki tiene 0.0312500
itsarovi tiene 0.0312500
oparetsa tiene 0.0312500
katsovatake tiene 0.0312500
motinti tiene 0.0312500
oshekini tiene 0.0625000
pochokitake tiene 0.0312500
itsano tiene 0.0312500
miretake tiene 0.0312500
otimi tiene 0.0937500
iriripaye tiene 0.0312500
otsapairikita tiene 0.0312500
ikaemakantaetakeri tiene 0.0312500
timanake tiene 0.0312500
hompotaki tiene 0.0312500
iviti tiene 0.0625000
oshitsapaereki tiene 0.0312500
ichera tiene 0.0312500
imaatsa tiene 0.0312500
tekatsi tiene 0.0312500
tsovo tiene 0.0312500
ramaate tiene 0.0312500
timatsi tiene 0.0312500
rotsitsite tiene 0.0312500
rantyavaeshiti maquisapa 0.5000000
tsovero maquisapa 0.5000000
evankari joven 0.6250000
NULL joven 0.2500000
evankavo joven 0.1250000
ratsi hojas 0.1111111
oshi hojas 0.1111111
itipiati hojas 0.1111111
payantishi hojas 0.1111111
onkonashi hojas 0.1111111
tsipana hojas 0.2222222
itsipanashite hojas 0.1111111
pitiro hojas 0.1111111
ikovaaetiri muy 0.0625000
ipimantayetiri muy 0.0625000
ipentaki muy 0.0625000
piriaperotake muy 0.0625000
intaena muy 0.0625000
inintaitiri muy 0.0625000
ohaavati muy 0.0625000
kohaniri muy 0.0625000
NULL muy 0.0625000
rantavaeshiti muy 0.0625000
menkori muy 0.0625000
tontori muy 0.0625000
osheki muy 0.2500000
rareetaka llegó 0.3333333
aretapaenchari llegó 0.3333333
pavaeni llegó 0.3333333
novaneki sembrarlo 0.5000000
nopankiteri sembrarlo 0.5000000
antaiki llena 1.0000000
tyonkishori tyonkishori 1.0000000
pitsaeyaka mentira 1.0000000
maaniri maaniri 1.0000000
pirevoshitya lávate 0.5000000
pinkevero lávate 0.5000000
ipaetantakariri recibió 1.0000000
yompiri yompiri 1.0000000
anampiki una 0.0277778
maanki una 0.0277778
apaani una 0.0277778
NULL una 0.0555556
pavitsi una 0.0277778
oriani una 0.0277778
noonki una 0.0555556
ampatotya una 0.0277778
rantantyari una 0.0277778
tsaampi una 0.0277778
ontyiro una 0.0277778
apani una 0.1388889
ichekake una 0.0277778
imintsaavakero una 0.0277778
ichekakotake una 0.0277778
ikaemakantaetakeri una 0.0277778
omoonaki una 0.0277778
okiki una 0.0277778
materinki una 0.0277778
nyaatsavaerontsi una 0.0277778
kameetsaanto una 0.0277778
oshiyakaantsi una 0.0277778
raretatyea una 0.0277778
inchapataki una 0.0277778
ikentake una 0.0277778
irootake una 0.0277778
kentsori una 0.0277778
opakero una 0.0277778
mampaantsi una 0.0555556
ipashikantyaari tarrafear 1.0000000
otampatikatapake llegar 0.1666667
raretantapaakari llegar 0.1666667
nareetantakari llegar 0.1666667
rareetahea llegar 0.1666667
nokovashiriaka llegar 0.1666667
avireri llegar 0.1666667
ari haremos 0.3333333
amatakero haremos 0.3333333
kametsa haremos 0.3333333
opiriati verano 0.2500000
oharentsite verano 0.5000000
oharentsiki verano 0.2500000
ishinkitantari fiesta 1.0000000
riyotiro anunciando 1.0000000
tonkariki kentabo 0.3333333
kentavo kentabo 0.3333333
kiri kentabo 0.3333333
inkaare inkaare 1.0000000
chetakitakemi legañoso 0.2500000
otyaakitakeri legañoso 0.2500000
entsi legañoso 0.2500000
chetakitaki legañoso 0.2500000
miretake sed 0.3333333
NULL sed 0.3333333
nomire sed 0.3333333
hoo joo 0.7500000
... joo 0.2500000
NULL buen 0.5000000
kametsare buen 0.5000000
chokiro atraída 1.0000000
iraeyeni tomando 1.0000000
otevaki rama 1.0000000
rakachatantyari pescar 0.2500000
akachaarontsi pescar 0.2500000
iyaati pescar 0.2500000
ishimata pescar 0.2500000
raatikashitakavo podrido 0.3333333
kihori podrido 0.3333333
hamaka podrido 0.3333333
anyiiri ve 0.1428571
itarika ve 0.1428571
pimpichero ve 0.1428571
inyaayetiri ve 0.1428571
pikamanteri ve 0.1428571
inyee ve 0.2857143
ampe blanco 0.2500000
kitamaari blanco 0.5000000
rovakavo blanco 0.2500000
pitomi haz 0.5000000
pishiyakaeri haz 0.5000000
te no 0.2500000
eerorika no 0.0555556
ero no 0.0833333
eero no 0.3333333
tee no 0.0555556
kaari no 0.0555556
shipetatantsi no 0.0277778
tekatsi no 0.1111111
nontsonkero no 0.0277778
ipimantayetiri esta 0.0833333
chomenta esta 0.0833333
iroka esta 0.8333333
iniyamentoki garganta 1.0000000
ohampiti pregunta 0.3333333
ihampitiro pregunta 0.3333333
ohampitiri pregunta 0.3333333
paho chabari 1.0000000
rakitsitavo estera 1.0000000
pirevoshitya cara 0.2000000
opooki cara 0.2000000
NULL cara 0.2000000
oria cara 0.2000000
eentsi cara 0.2000000
rareetajea a 0.0041152
aatonkoriakero a 0.0041152
inyaakota a 0.0041152
pamitakotantyaariri a 0.0041152
itimatye a 0.0082305
inyeri a 0.0041152
hempe a 0.0082305
amenero a 0.0041152
, a 0.0041152
iito a 0.0041152
shikiri a 0.0041152
shapopo a 0.0041152
opochaanikiti a 0.0041152
pamananteri a 0.0041152
antamimashiki a 0.0041152
ishirontane a 0.0041152
otsoki a 0.0041152
antamiki a 0.0041152
ovantire a 0.0041152
opare a 0.0041152
imintsaavakero a 0.0041152
nokantiri a 0.0082305
nonyaakero a 0.0041152
areetavo a 0.0041152
ovanavontsi a 0.0041152
pimpichenkero a 0.0041152
piyaatake a 0.0041152
raye a 0.0082305
roteyantyaariri a 0.0041152
ikinavaeti a 0.0041152
imatsini a 0.0041152
ikentsiki a 0.0041152
royeri a 0.0041152
nonyakiri a 0.0041152
rotyaantiri a 0.0041152
rokakiro a 0.0041152
pishitovashitovati a 0.0041152
okentakero a 0.0041152
pinkantero a 0.0041152
icharine a 0.0123457
matsari a 0.0041152
areetinkari a 0.0082305
inkie a 0.0041152
ramene a 0.0041152
roshiyakantantyariri a 0.0041152
iheekahe a 0.0041152
pipariikari a 0.0041152
itsikotsi a 0.0041152
tsame a 0.0123457
niyankiiteki a 0.0041152
opooki a 0.0041152
hatipoki a 0.0041152
areetaka a 0.0041152
rakatsatantyaariri a 0.0041152
ikantakero a 0.0041152
okantiro a 0.0123457
pikonkire a 0.0041152
pimpichero a 0.0041152
ovakeri a 0.0082305
niyaate a 0.0041152
pitsiro a 0.0041152
ayometaeri a 0.0041152
ikaemakantaetiri a 0.0041152
onkaavoshiteri a 0.0041152
itahonkakero a 0.0041152
omatakeri a 0.0082305
riyompari a 0.0082305
ratsikakeri a 0.0123457
haka a 0.0082305
ranyi a 0.0041152
okaemakantiro a 0.0041152
rovakoventiro a 0.0041152
ratsikakiri a 0.0041152
ipaetakiri a 0.0041152
pishiyakaeri a 0.0041152
opoki a 0.0041152
ishitsa a 0.0041152
ishirikakeri a 0.0041152
shoshokiri a 0.0082305
yotaantsipankoki a 0.0041152
ikantiri a 0.0041152
riyaatatye a 0.0041152
aavintavontsi a 0.0041152
ivotsore a 0.0041152
nareetakitakavo a 0.0082305
imanatakeri a 0.0041152
icheki a 0.0041152
nyaamatari a 0.0041152
ohampitiri a 0.0041152
raanatyeero a 0.0041152
atohetake a 0.0041152
onkantapaentya a 0.0041152
nokantakeri a 0.0041152
irianikipaye a 0.0041152
ikiakeri a 0.0041152
iina a 0.0041152
katsitori a 0.0041152
ovaepatakiri a 0.0041152
itapikiki a 0.0041152
iyomoneerote a 0.0041152
amene a 0.0041152
oteyantyaariri a 0.0041152
iponkantyari a 0.0041152
pishiye a 0.0041152
itsinampaakero a 0.0041152
oshitovake a 0.0041152
rotatsinkakeri a 0.0041152
riyaati a 0.0041152
notsitsite a 0.0082305
ihankenate a 0.0041152
pokatsiri a 0.0041152
rankoviitakeri a 0.0041152
NULL a 0.0411523
shiyava a 0.0041152
ikovakotiro a 0.0041152
apani a 0.0123457
inoshikakero a 0.0041152
ramini a 0.0041152
otsitite a 0.0041152
rovavetakari a 0.0041152
tsiveta a 0.0041152
nonyavetakari a 0.0041152
aretavo a 0.0082305
okantakeri a 0.0041152
ikaemiro a 0.0041152
riyaatati a 0.0041152
royeeri a 0.0041152
kamankaantsi a 0.0041152
otyaankakeri a 0.0041152
okiantyariri a 0.0041152
areetyavo a 0.0123457
rapatotya a 0.0041152
ikantanakeri a 0.0041152
hankori a 0.0041152
rayi a 0.0123457
hatatsiri a 0.0041152
noyaate a 0.0041152
povatikerori a 0.0041152
kishokiri a 0.0041152
ivaero a 0.0041152
itapoviri a 0.0041152
mapotopaye a 0.0041152
ikenavaete a 0.0041152
raanaheniro a 0.0041152
pakeri a 0.0041152
piyaate a 0.0082305
iponkatyari a 0.0082305
pikamanteri a 0.0041152
ikentavakotakeri a 0.0041152
nopankoki a 0.0041152
tsinanepaye a 0.0041152
raatsi a 0.0082305
ariaheniti a 0.0041152
ihampitiro a 0.0041152
itsipanashite a 0.0041152
iiti a 0.0041152
ovametaakeri a 0.0041152
ikantakeri a 0.0082305
rantavaete a 0.0041152
ikentakiri a 0.0041152
petyaari a 0.0041152
entyo a 0.0041152
ratsikavakeri a 0.0041152
ikantapaakeri a 0.0041152
ashitaaneyetachari a 0.0041152
ohompo a 0.0041152
iyamaantsite a 0.0041152
ichekakoti a 0.0082305
nonkaavoshitapaentya a 0.0041152
ramatavitakero a 0.0041152
irira a 0.0041152
ishiyakomento a 0.0041152
pinkiteri a 0.0041152
shiketsi a 0.0041152
nopiyaavo a 0.0041152
kepityoki a 0.0041152
oyaati a 0.0041152
okaminaeri a 0.0041152
pamitakotena a 0.0041152
ayi a 0.0164609
tsanoerentsi a 0.0041152
iyaati a 0.0082305
ramake a 0.0041152
yeeye a 0.0041152
maanki a 0.0082305
atomipaye a 0.0041152
pimpiriintaheri a 0.0041152
mani a 0.0041152
shirampari a 0.0082305
icheraakotakeri a 0.0041152
atsinakakeri a 0.0041152
navihavaketa a 0.0041152
noyometaemi a 0.0041152
shariva a 0.0041152
iyereto a 0.0041152
inkani a 0.0041152
okatsitakaakeri doler 1.0000000
ashitavo puerta 1.0000000
tyaapa gallina 0.7000000
otyaapate gallina 0.1000000
NULL gallina 0.2000000
kaari aroshi 0.3333333
rootake aroshi 0.3333333
aroshi aroshi 0.3333333
kantapookitaka pared 0.5000000
itanto pared 0.5000000
kiaheetanake tunel 1.0000000
ochaapote chapo 0.5000000
antantyaari chapo 0.5000000
rovavetakari náuseas 0.5000000
aavintavontsi náuseas 0.5000000
pantarite eres 0.5000000
pevonkiritsi eres 0.5000000
iyataeyeni van 1.0000000
meeka ahora 0.5000000
ironyaaka ahora 0.5000000
iyaatantyari tambo 0.5000000
tampoki tambo 0.5000000
aririka tardes 0.5000000
oshaaviityaanake tardes 0.5000000
pipankoki casa 0.0303030
NULL casa 0.0606061
apanko casa 0.0606061
kepaye casa 0.0303030
shivitsa casa 0.0303030
pankotsiki casa 0.1515152
nopankoki casa 0.0606061
shavashi casa 0.0303030
opankoki casa 0.0303030
pipanko casa 0.0606061
ipankori casa 0.0303030
intsipaete casa 0.0303030
ipankoki casa 0.1515152
ipanko casa 0.1212121
matsantsi casa 0.0303030
pankotsi casa 0.0606061
notsonkantyaavori casa 0.0303030
petavakiari empieza 1.0000000
inchatonaki está 0.0227273
rashinonkaaka está 0.0227273
maperotaka está 0.0227273
itoviro está 0.0227273
chetakitaki está 0.0227273
ipankitakeri está 0.0227273
iraantari está 0.0227273
meshinto está 0.0227273
rovatyaari está 0.0227273
oovaenchari está 0.0227273
inyaatsatavo está 0.0227273
ikimoshiretati está 0.0227273
rareetahea está 0.0227273
mataka está 0.0227273
irakaentsiri está 0.0227273
irotaintsi está 0.0227273
ikamankaati está 0.0227273
onkotsitakeri está 0.0227273
etso está 0.0227273
otakiriati está 0.0227273
antyashipavotaki está 0.0227273
etakota está 0.0227273
ikaematimi está 0.0227273
niivotya está 0.0227273
rovetsikati está 0.0227273
itipiati está 0.0227273
heekatsiri está 0.0454545
NULL está 0.0454545
rovavaitavo está 0.0227273
iheeki está 0.0227273
rovetsikaperotero está 0.0227273
shitashintsi está 0.0227273
ikaimati está 0.0227273
irakakerika está 0.0227273
oyoyaatati está 0.0227273
kantaencha está 0.0227273
charava está 0.0227273
tiho está 0.0227273
kahankari está 0.0227273
itsonkatakeri está 0.0227273
anyeenkatatsi está 0.0227273
karentsatake está 0.0227273
riyaaveta shushupi 1.0000000
tsimenkito carbón 1.0000000
iheekaeyeni tortugas 0.5000000
ohaaviki tortugas 0.5000000
inyatsaeyani monos 0.2500000
koshiripaye monos 0.2500000
shenontipaye monos 0.2500000
ari monos 0.2500000
mampaantsi escribieron 0.5000000
ihankenaeyakeni escribieron 0.5000000
NULL niotya 1.0000000
shintsiri ( 0.2500000
niravake ( 0.2500000
nokovati ( 0.2500000
imonkaatakero ( 0.2500000
nonyaakeri vi 0.2222222
nonyakiri vi 0.1111111
NULL vi 0.1111111
nonyaakero vi 0.1111111
nonyaake vi 0.3333333
parari vi 0.1111111
ikiakaakena entrar 0.5000000
pinyeri entrar 0.5000000
pako comer 0.0714286
maretyakintsi comer 0.0714286
poshiniri comer 0.0714286
rovakaeyavo comer 0.0714286
ontimatye comer 0.0714286
rovavakia comer 0.0714286
noya comer 0.0714286
rovantyari comer 0.0714286
rovaka comer 0.0714286
avantyari comer 0.0714286
oyaari comer 0.1428571
novavo comer 0.0714286
royaari comer 0.0714286
ityaakitakero ceniza 1.0000000
shitsivari podrida 1.0000000
iyaaki paujil 0.3333333
tsamiri paujil 0.6666667
shempiri charapa 1.0000000
kirikotake pijuayo 0.1428571
kiri pijuayo 0.8571429
ataanakeri atacó 0.5000000
omatakeri atacó 0.5000000
ipankitakeri sembró 0.3333333
koshanti sembró 0.3333333
opankitake sembró 0.3333333
iyaaki de 0.0054348
amperi de 0.0054348
aakomentotsiki de 0.0054348
amporetsate de 0.0054348
antsotavake de 0.0054348
onintane de 0.0054348
omoti de 0.0054348
rakitsitavo de 0.0054348
inchakiire de 0.0054348
kipatsi de 0.0054348
pako de 0.0054348
pitivine de 0.0054348
payantishi de 0.0054348
koriti de 0.0054348
akipatantyaari de 0.0108696
haaka de 0.0108696
etakantavori de 0.0054348
okentanakeri de 0.0054348
otapinaki de 0.0054348
okaemakantiro de 0.0054348
aakeri de 0.0054348
pitiro de 0.0054348
ipankori de 0.0054348
impaneki de 0.0054348
nonkentantyaari de 0.0054348
rovankiniri de 0.0054348
iraantsi de 0.0054348
aritapaake de 0.0054348
omakoneti de 0.0054348
onkochapaaki de 0.0054348
iitsaare de 0.0054348
itinkaavo de 0.0054348
ovaneki de 0.0054348
oitsoki de 0.0054348
ishinto de 0.0054348
shavashi de 0.0054348
inchakitso de 0.0054348
ichenko de 0.0163043
kantapookitaka de 0.0054348
ranivaeti de 0.0054348
iitsare de 0.0054348
imanonkakeri de 0.0054348
ikiteehitakotake de 0.0054348
omooki de 0.0108696
piponyari de 0.0054348
mantsiyarentsi de 0.0054348
tyominkiyo de 0.0054348
tsomanto de 0.0108696
korioviri de 0.0054348
tivotake de 0.0054348
iyaniri de 0.0054348
meshiyanto de 0.0054348
roretane de 0.0054348
rovakaeyavo de 0.0054348
piherenkiro de 0.0054348
imooshi de 0.0054348
opotsota de 0.0054348
okemeneenta de 0.0054348
pankotsi de 0.0054348
pashiitoki de 0.0054348
oporiki de 0.0054348
nante de 0.0054348
kentavo de 0.0054348
otyaapate de 0.0108696
iishi de 0.0054348
oharentsite de 0.0054348
piyaariri de 0.0054348
tonkaariki de 0.0054348
makaatake de 0.0054348
kiteheriki de 0.0054348
yotaantsinpanko de 0.0054348
tsireentsi de 0.0054348
iitsoki de 0.0271739
okityonkati de 0.0054348
oteyakitanake de 0.0054348
irashi de 0.0054348
koriato de 0.0054348
tyoviri de 0.0054348
shiranta de 0.0054348
rantavaeti de 0.0054348
onyaaro de 0.0054348
tivi de 0.0054348
rovavakari de 0.0054348
ikovantari de 0.0054348
riraashiterori de 0.0054348
oheeki de 0.0054348
okantakaantiro de 0.0108696
riyatantyaari de 0.0054348
mahoki de 0.0054348
chapitsi de 0.0054348
shitovahe de 0.0054348
iyomaro de 0.0054348
henoki de 0.0163043
iveshiriaeyani de 0.0054348
oshi de 0.0108696
inyaane de 0.0054348
ovantsi de 0.0054348
ishinkiro de 0.0108696
kompiroshi de 0.0054348
iraenkari de 0.0054348
intakeronta de 0.0054348
koviti de 0.0054348
pinkamanteri de 0.0054348
antantyaavori de 0.0054348
otakipayeki de 0.0054348
omenta de 0.0108696
iheekantavo de 0.0054348
irohati de 0.0054348
ipashikantyaabori de 0.0054348
omoo de 0.0054348
okiki de 0.0054348
oetsareki de 0.0054348
kirikotake de 0.0054348
orianeeriki de 0.0054348
oime de 0.0054348
maankivenki de 0.0054348
ipankitaetiro de 0.0054348
totiroki de 0.0108696
opatsavo de 0.0054348
ponatake de 0.0054348
okirikakeri de 0.0054348
kempityaariki de 0.0054348
NULL de 0.1086957
pisheteri de 0.0054348
irokiki de 0.0108696
isheeto de 0.0108696
areetanta de 0.0054348
ivatsa de 0.0163043
niyanki de 0.0054348
itapikiki de 0.0054348
iyanirimashite de 0.0054348
kocheri de 0.0054348
itsonkatakeri de 0.0054348
okaakini de 0.0054348
cheviro de 0.0054348
iina de 0.0108696
inchatoshiki de 0.0054348
otyaapanikite de 0.0054348
otsonkakero de 0.0054348
ohampovatsate de 0.0054348
matsantsi de 0.0054348
ovashiyavakena de 0.0054348
atsamaetero limpiaremos 0.5000000
meeka limpiaremos 0.5000000
haanaareki profundo 1.0000000
omoetonka pongo 1.0000000
eeniro estés 1.0000000
oshekini música 0.5000000
amampaantsi música 0.5000000
natantakaari comí 0.3333333
nirake comí 0.3333333
niyaatantakari comí 0.3333333
ashi voz 0.5000000
anyane voz 0.5000000
shimashiri shimashiri 0.5000000
opotsotiro shimashiri 0.5000000
raanatyeero llevando 1.0000000
itsati ladra 1.0000000
itsipamintsare fiel 1.0000000
katsivore alumbrar 1.0000000
komatake rema 0.5000000
avireri rema 0.5000000
okaminaeri aconseja 1.0000000
ikentantyaariri picarlas 0.5000000
shonkoro picarlas 0.5000000
paatikiro pises 1.0000000
roviintakero botó 1.0000000
otashitake pituca 0.2500000
ameeni pituca 0.2500000
operiri pituca 0.2500000
tsanavo pituca 0.2500000
itovakaakenavo tumbar 1.0000000
menkori nubes 1.0000000
otishi cueva 0.5000000
omoonaki cueva 0.5000000
mata juntar 0.5000000
ayi juntar 0.5000000
itenki guacamayo 1.0000000
hani avispa 0.6666667
antari avispa 0.3333333
ihankenate escribir 0.2500000
ihankenatantantyari escribir 0.2500000
pihankenate escribir 0.2500000
piyote escribir 0.2500000
otitakotapaka atravesó 1.0000000
tyaapapaye gallos 1.0000000
nonyavetakari visto 1.0000000
hantari madera 0.7500000
hantariki madera 0.2500000
inchatomashiki pajaritos 0.3333333
tsimeripaye pajaritos 0.6666667
ipaetakiri le 0.0222222
materinki le 0.0222222
ratsimiyakeri le 0.0222222
ichenkoreetakeri le 0.0222222
ishivaitatya le 0.0222222
nyaamatari le 0.0222222
ohampitiri le 0.0222222
apitsatakiriri le 0.0222222
ikentavakotakeri le 0.0222222
ipiyakeri le 0.0222222
shariva le 0.0222222
okihotimotiri le 0.0222222
shitovake le 0.0222222
ratsotiro le 0.0444444
tsirikana le 0.0222222
shitamenkotsi le 0.0222222
opiyiro le 0.0222222
ikantakeri le 0.0222222
ipakeri le 0.0444444
nokantakeri le 0.0222222
koshitakeriri le 0.0222222
ikantakero le 0.0222222
ovaepatakiri le 0.0222222
kaaroshi le 0.0222222
ikiahempiakari le 0.0222222
okantiro le 0.0444444
riyaaveta le 0.0222222
neentsite le 0.0222222
rateetantavori le 0.0222222
katsitake le 0.0444444
okentanakeri le 0.0222222
nokantiri le 0.0444444
tahorentsi le 0.0222222
rookanakeri le 0.0222222
ikentakiri le 0.0222222
ikantapaakeri le 0.0222222
NULL le 0.0666667
otyaakitakeri le 0.0222222
apani bonita 0.5000000
amampaantsi bonita 0.5000000
iperatantari sean 0.5000000
ihankenavaerentitantyaari sean 0.5000000
rapatotya reunión 0.3333333
ampatotya reunión 0.3333333
apatorentsi reunión 0.3333333
nopakotakeri dulce 0.1666667
kooko dulce 0.1666667
opochatati dulce 0.1666667
pochari dulce 0.3333333
pochaari dulce 0.1666667
ihankenavaerentitantyaari escritores 1.0000000
kampona pona 0.6666667
ishitamenkotantyaabori pona 0.3333333
okivatsiro lava 1.0000000
tiyaatanaha profesores 0.5000000
ovametantatsiri profesores 0.5000000
noinantemi conmigo 1.0000000
ichekakotake tenía 1.0000000
rateetantavori subir 0.2500000
rataetero subir 0.5000000
nataetakotantyaavori subir 0.2500000
anyaanatero leemos 1.0000000
pantavaka pelear 1.0000000
parianti plátano 0.1428571
opashikakotantyaavori plátano 0.1428571
nopankiteri plátano 0.1428571
payanti plátano 0.5714286
otiritantyaavori teñirse 1.0000000
shevankori shebankori 1.0000000
iyotaka quedaron 1.0000000
osheki negra 0.2500000
ikemaenkatiro negra 0.2500000
maaniri negra 0.2500000
noetsare negra 0.2500000
iriri padre 1.0000000
ipankaki frente 1.0000000
NULL di 1.0000000
rantantyari yarina 0.5000000
kompiroshi yarina 0.5000000
shintori hunagana 1.0000000
ana huito 1.0000000
otimatye conocer 1.0000000
shakinyi shakiñi 0.3333333
antavo shakiñi 0.3333333
omoti shakiñi 0.3333333
osheki grita 0.5000000
aventyari grita 0.2500000
itsaatiri grita 0.2500000
inchashi curativas 1.0000000
hamorenkake salieron 0.2500000
tyaapa salieron 0.2500000
shitovanake salieron 0.5000000
okaminaena consejos 1.0000000
mampaamentotsi sonó 0.5000000
poematanake sonó 0.5000000
henoki arriba 1.0000000
oshi sacan 0.5000000
raitiro sacan 0.5000000
antamimashiki selva 1.0000000
ootamentotsi mechero 1.0000000
chompita entrando 1.0000000
ikiriki nariz 0.5000000
ikiri nariz 0.5000000
pava dios 1.0000000
tonkamentotsiki escopeta 1.0000000
osheki cásate 0.5000000
noinantemi cásate 0.5000000
akishiveta asaba 1.0000000
anyantavo enfermendades 0.5000000
mantsiyarentsi enfermendades 0.5000000
oveni unini 0.6000000
oveniki unini 0.2000000
NULL unini 0.2000000
eeroka origen 1.0000000
pampiamentotsi puente 0.5000000
makaatake puente 0.5000000
cherenkantsi frito 1.0000000
hompotaki tumor 1.0000000
namanantake compré 0.8000000
nairotsa compré 0.2000000
royeeri esperar 1.0000000
ameniriri letrinas 0.3333333
shitamentotsi letrinas 0.3333333
mantsiyare letrinas 0.3333333
tsirarato pájaro 0.2500000
chamanto pájaro 0.2500000
hiriti pájaro 0.2500000
imampa pájaro 0.2500000
opiyiro dan 1.0000000
itsinampaakero bromeó 1.0000000
aventyari bañarlo 0.5000000
akaatavakeriita bañarlo 0.5000000
shevankori vio 0.1666667
inyake vio 0.1666667
inyakeri vio 0.1666667
ipashitakariri vio 0.1666667
inyaakeri vio 0.3333333
NULL chupar 0.5000000
antsotavake chupar 0.5000000
NULL quien 0.6666667
ivakeniri quien 0.3333333
ovayeri guerreros 1.0000000
perantaantsi ociosidad 1.0000000
nopiyaavo regresaré 1.0000000
notinavo vieja 1.0000000
oviyare masato 0.0666667
NULL masato 0.0666667
opiare masato 0.0666667
piarentsi masato 0.7333333
piviari masato 0.0666667
iraantari llorando 0.5000000
iravaeta llorando 0.5000000
shimpoki tábanos 1.0000000
ikonatantakavori echaro 1.0000000
pavaeni escuché 0.5000000
nokemakemi escuché 0.5000000
raaviro puede 0.3333333
ankaraero puede 0.3333333
ovamaake puede 0.3333333
ikaemantariri comuneros 0.3333333
iyomoneerote comuneros 0.3333333
rovetsikaeyeni comuneros 0.3333333
ohari nieto 0.2500000
icharine nieto 0.7500000
imoo hueco 0.1111111
omoo hueco 0.1111111
imoontiro hueco 0.1111111
omonaki hueco 0.1111111
omoonaki hueco 0.3333333
kiteheriki hueco 0.1111111
NULL hueco 0.1111111
NULL . 0.0040872
oharentsite . 0.0013624
itivanate . 0.0013624
shima . 0.0013624
piarentsi . 0.0013624
ocheempeki . 0.0013624
ishintipare . 0.0013624
tonkariki . 0.0013624
maniti . 0.0013624
. . 0.9809264
kashekari . 0.0013624
ovaantsiki . 0.0013624
iviare . 0.0013624
kahankari perfumado 0.3333333
ikahankantyaari perfumado 0.3333333
, perfumado 0.3333333
niyompari amigo 0.4285714
itsipamintsare amigo 0.4285714
riyompari amigo 0.1428571
koshinti ratero 0.5000000
nonampiki ratero 0.5000000
iparianta caerse 0.5000000
kemariariki caerse 0.5000000
novito todavía 0.3333333
nante todavía 0.3333333
nontsonkero todavía 0.3333333
isheni abuela 0.4482759
oetsareki abuela 0.0344828
isheeni abuela 0.4482759
ameeni abuela 0.0689655
ishitsa ir 0.2000000
aatatyeri ir 0.2000000
noyaate ir 0.2000000
kishanyavo ir 0.2000000
riyatantyaari ir 0.2000000
kitaeterikipaye pescado 0.1250000
shima pescado 0.8750000
ameeni fuí 0.5000000
nareetakitakavo fuí 0.5000000
ihaantakoti saca 0.2000000
NULL saca 0.2000000
kompiyoki saca 0.2000000
ikiyakoti saca 0.2000000
okarentsatantyari saca 0.2000000
iperatantari ociosos 1.0000000
, celoso 0.3333333
amaenkari celoso 0.3333333
inati celoso 0.3333333
kohaniri filudos 1.0000000
itanto cerco 1.0000000
amporetsate intestino 1.0000000
irotaentsi ya 0.0769231
evatairo ya 0.0769231
pitsaeyaka ya 0.0769231
chokiyo ya 0.0769231
aroshi ya 0.0769231
shakinyi ya 0.0769231
iraiki ya 0.0769231
mataka ya 0.0769231
timanake ya 0.0769231
inkame ya 0.0769231
tyempoya ya 0.0769231
NULL ya 0.0769231
nomatakero ya 0.0769231
ikiakeri cargó 1.0000000
iitiki en 0.0224215
nokentsiki en 0.0044843
oporiperoki en 0.0044843
imaavaeti en 0.0044843
tonkareki en 0.0089686
iheekahe en 0.0044843
inyaatsatavo en 0.0044843
nihaateniki en 0.0134529
imaashita en 0.0044843
paamariki en 0.0044843
paamaventya en 0.0044843
haekanaentsiri en 0.0044843
iyaatantyari en 0.0044843
irora en 0.0044843
ramatsaereki en 0.0044843
nakoki en 0.0044843
tsopiro en 0.0044843
katsinkaiteri en 0.0044843
itsati en 0.0044843
irihaniki en 0.0044843
tsonkakeri en 0.0044843
yotaantsinpankoki en 0.0044843
heekatsiri en 0.0044843
ramaatakoti en 0.0044843
inkaareki en 0.0448430
ipankiteri en 0.0044843
ivitiki en 0.0044843
antamiki en 0.0358744
ovantsiki en 0.0179372
omotyaki en 0.0089686
novaneki en 0.0089686
tsimiki en 0.0179372
ishempaki en 0.0044843
ovaantsipooshiki en 0.0044843
mampaamentotsi en 0.0044843
impanekiki en 0.0044843
hamaka en 0.0044843
kamantaantsi en 0.0044843
shonyaki en 0.0044843
inchapookiki en 0.0044843
ocheraaki en 0.0089686
kiavontsiki en 0.0044843
ishiviki en 0.0044843
oharentsiki en 0.0044843
ishimane en 0.0044843
ishintsaerikakeri en 0.0044843
ovametantayetatsiri en 0.0044843
komatire en 0.0044843
tonkaareki en 0.0179372
itapinomaki en 0.0044843
tonkariki en 0.0134529
ocheempeki en 0.0089686
irakoki en 0.0089686
kipatsi en 0.0044843
ipankoki en 0.0044843
itsatakiro en 0.0044843
ramana en 0.0044843
ivachakateki en 0.0044843
patintoki en 0.0044843
inyatsavaiveta en 0.0044843
iyokane en 0.0044843
ovaneki en 0.0134529
nampitsiki en 0.0179372
iyanire en 0.0044843
maavetachari en 0.0044843
rovaneki en 0.0089686
noitsiki en 0.0044843
ishavaetashita en 0.0044843
kipatsiki en 0.0044843
machaki en 0.0089686
iitoki en 0.0044843
ivitoki en 0.0044843
inkiteki en 0.0089686
ipankaki en 0.0044843
imampaavaeta en 0.0044843
chakami en 0.0044843
iheki en 0.0134529
tooso en 0.0044843
pinyaakeri en 0.0044843
avotsiki en 0.0089686
sheri en 0.0044843
ovaantsiki en 0.0089686
oharentsiteki en 0.0044843
ivashiyari en 0.0044843
ikiriki en 0.0044843
iyanirimashiteki en 0.0044843
koshinti en 0.0089686
yoosara en 0.0044843
NULL en 0.0807175
nyaantsi en 0.0044843
charava en 0.0044843
matsantsi en 0.0044843
ampe en 0.0044843
ovantsipooshiki en 0.0134529
ebankari en 0.0044843
iniyamentoki en 0.0044843
tyonkiro en 0.0044843
rakachatantyari en 0.0044843
imoontiro en 0.0044843
ivatsaki en 0.0134529
niyanki en 0.0089686
ovakotanakeri en 0.0044843
kiteheriki en 0.0044843
otevaki en 0.0179372
ishinkitantari en 0.0044843
arakomentotsiki en 0.0044843
tyaapapankoki en 0.0044843
shariva en 0.0044843
haanaareki en 0.0044843
rantiro en 0.0044843
antaiki en 0.0044843
rakoki en 0.0044843
rapatota en 0.0044843
kanirimashiki en 0.0089686
kishityo en 0.0044843
omotyaaki en 0.0089686
kirinka en 0.0044843
iheeki en 0.0403587
antari en 0.0134529
shitamenkotsiki en 0.0044843
tsireniriki en 0.0044843
inyaatsavaeveta en 0.0044843
akemehanteri en 0.0044843
ityaakitakero en 0.0044843
ikamarankake en 0.0044843
ohankenamento en 0.0044843
pihaeke en 0.0044843
nihaaki en 0.0134529
ocheva en 0.0044843
rantavaeveta en 0.0044843
ipankitake en 0.0044843
oheeki en 0.0044843
arakomentotsiki avión 1.0000000
pipariikari caer 1.0000000
osheki encanta 1.0000000
hiriimaki limón 1.0000000
kitoniro alacrán 1.0000000
kantaenchari embargo 1.0000000
ikemaenkatiri huelen 1.0000000
oshekini erizo 0.5000000
iche erizo 0.5000000
okantana dice 0.3333333
ikantana dice 0.2500000
ikantiri dice 0.0833333
okanti dice 0.0833333
okantiro dice 0.0833333
ikanti dice 0.1666667
rashitakotakeri encerró 1.0000000
kiteriatake limpia 0.5000000
iyamantsite limpia 0.5000000
oovaenchari soleado 1.0000000
ina mi 0.0321429
nirentitsori mi 0.0071429
choeni mi 0.0714286
cheenkari mi 0.0071429
eemeeni mi 0.0035714
maanko mi 0.0035714
omatakeri mi 0.0035714
okiyakoti mi 0.0035714
isheeni mi 0.0142857
inyeeni mi 0.0035714
ipahakaatakeri mi 0.0035714
ipashitakanavo mi 0.0035714
areetaka mi 0.0035714
nanaeni mi 0.0071429
operiri mi 0.0035714
nohina mi 0.0035714
noena mi 0.0071429
apa mi 0.0964286
yeeye mi 0.0035714
naantavori mi 0.0035714
komatire mi 0.0035714
itsintiro mi 0.0035714
konki mi 0.0500000
pamekenavo mi 0.0035714
nishintyo mi 0.0107143
aapi mi 0.0035714
nana mi 0.0750000
antakerori mi 0.0035714
noviamene mi 0.0035714
nantavaire mi 0.0035714
novito mi 0.0035714
rovametakeri mi 0.0035714
nopehashitantyaavori mi 0.0035714
NULL mi 0.0214286
koshinti mi 0.0035714
notsitsite mi 0.0071429
notsipamintsare mi 0.0035714
nani mi 0.0607143
evatairo mi 0.0035714
eentyo mi 0.0035714
kapironkari mi 0.0035714
toto mi 0.0035714
ani mi 0.0428571
pavachori mi 0.0500000
notyomi mi 0.0214286
novaneki mi 0.0071429
isheni mi 0.0250000
naana mi 0.0142857
iinyeeni mi 0.0107143
inyeni mi 0.0035714
ameeni mi 0.0071429
pavatyori mi 0.0035714
sheni mi 0.0035714
ishinto mi 0.0035714
charine mi 0.0535714
yeye mi 0.1357143
noshintipaare mi 0.0035714
paa mi 0.0035714
nopankoki mi 0.0107143
anirio mi 0.0071429
noshavo mi 0.0071429
potsotsi mi 0.0035714
pava mi 0.0071429
antyashipavotaki mi 0.0035714
ikentsiki mi 0.0035714
onintane amarla 0.5000000
inintahero amarla 0.5000000
shonkiri plumas 0.2000000
oshekini plumas 0.2000000
iviti plumas 0.2000000
itenki plumas 0.2000000
irotaintsi plumas 0.2000000
nyaperori valiente 1.0000000
ramenakoventantyaavori ver 1.0000000
imenkotake ahumó 1.0000000
rovavakia invitar 1.0000000
hiriti madrugador 1.0000000
okoyaati cosecha 1.0000000
nampitsi cargo 1.0000000
tiroti huicungo 1.0000000
atomipaye hijos 0.3333333
otomipaye hijos 0.3333333
rantavaete hijos 0.3333333
iroka tuya 0.5000000
kitsarentsi tuya 0.5000000
imoshi tela 0.5000000
imooshi tela 0.5000000
paamari candela 0.8000000
paamareki candela 0.2000000
NULL próximo 1.0000000
pitetahero frijol 0.3333333
kantiriki frijol 0.3333333
machaki frijol 0.3333333
pishitovashitovati cada 1.0000000
keshiiki gran 0.5000000
inteena gran 0.5000000
tyoentaka circulos 1.0000000
inkani llueve 0.5000000
omparee llueve 0.5000000
tyaapa NULL 0.0526316
shima NULL 0.0526316
, NULL 0.2105263
osheki NULL 0.1052632
riyati NULL 0.0526316
iheekaeyeni NULL 0.0526316
ikanti NULL 0.0526316
iheeki NULL 0.0526316
nana NULL 0.0526316
kentavo NULL 0.0526316
shookake NULL 0.0526316
ranti NULL 0.0526316
antavo NULL 0.0526316
kaniri NULL 0.0526316
rayi NULL 0.0526316
pichenkotya ponte 0.2000000
pitsiro ponte 0.2000000
intsipaite ponte 0.2000000
aatatyeri ponte 0.2000000
areetyavo ponte 0.2000000
hantari cedro 0.5000000
rantantyaari cedro 0.5000000
komairipaye pacos 1.0000000
nontsikaatavake colar 1.0000000
enchaniki bebé 0.3333333
patsake bebé 0.3333333
NULL bebé 0.3333333
aanakero creciente 0.5000000
amaani creciente 0.5000000
misho gato 0.5000000
riraashiterori gato 0.5000000
kepishiri tabaco 0.5000000
ipankitiro tabaco 0.5000000
katsovatake goteras 1.0000000
antavo grande 0.2500000
antari grande 0.6666667
nihaa grande 0.0833333
inteena lejos 0.3333333
intaena lejos 0.3333333
raniitake lejos 0.3333333
shonkoro lagartijas 0.5000000
eentsi lagartijas 0.5000000
ichenko orina 0.2000000
roohati orina 0.2000000
itsintiro orina 0.2000000
yeye orina 0.2000000
irihaniki orina 0.2000000
rovatsikantyavori embrear 1.0000000
konki ácido 0.5000000
okachoneentakeri ácido 0.5000000
piponyari lugar 1.0000000
antavoki ciudades 1.0000000
atoonkiro pila 1.0000000
tsiya alimenta 0.3333333
chapitsi alimenta 0.3333333
iraantsi alimenta 0.3333333
koshinti ladrón 0.5000000
pomonkeri ladrón 0.5000000
ihaeki ardilla 0.3333333
meyiri ardilla 0.6666667
ratsikakeri nacanaca 0.5000000
materinki nacanaca 0.5000000
iraka maduro 0.7500000
irakaentsiri maduro 0.2500000
rovametanti enseña 0.5000000
kameetsa enseña 0.5000000
oshekitiri árboles 0.5000000
inchatoki árboles 0.5000000
nirake miel 0.2500000
pitsi miel 0.5000000
opochaanikiti miel 0.2500000
shimashiri florea 0.5000000
oteyakitanake florea 0.5000000
inyaapakiri encontraba 0.5000000
apaniroeni encontraba 0.5000000
tsovo garras 1.0000000
anyiinkari seres 0.5000000
kipatsiki seres 0.5000000
ohaviki derribándolo 0.5000000
rookaitakeri derribándolo 0.5000000
notsipamintsare compañero 1.0000000
itapinomaki quijada 1.0000000
inampiki pueblo 0.1666667
pinampiki pueblo 0.1666667
nampitsiki pueblo 0.5000000
anampiki pueblo 0.1666667
oviitakero cosechó 1.0000000
kashetaeni pedazo 1.0000000
ikemaetiri cantar 0.2500000
ari cantar 0.2500000
ramampae cantar 0.2500000
namampaatyeri cantar 0.2500000
okentanakeri algo 1.0000000
irare volar 1.0000000
iiti del 0.0147059
oshirinkaare del 0.0147059
imoito del 0.0147059
hiriimaki del 0.0147059
imoreki del 0.0147059
chochoki del 0.0147059
ineeki del 0.0147059
antavo del 0.0441176
inyatsaeyani del 0.0147059
rovanavo del 0.0294118
aretantyavori del 0.0147059
akonkire del 0.0147059
inyampoeretakeri del 0.0147059
iniyamentoki del 0.0147059
omoonaki del 0.0294118
kiaheetanake del 0.0147059
nihaacheraki del 0.0147059
aatariki del 0.0147059
ivitiki del 0.0147059
ashitakantavori del 0.0147059
otapinaki del 0.0147059
ocheraki del 0.0147059
raetiro del 0.0147059
ishire del 0.0147059
inaki del 0.0147059
tsonkakeri del 0.0147059
opokake del 0.0147059
NULL del 0.0588235
hevatirori del 0.0147059
parianti del 0.0147059
rakoki del 0.0147059
itsipamintsare del 0.0147059
hevari del 0.0147059
otsimankitye del 0.0147059
iraeki del 0.0147059
irotaintsi del 0.0147059
onkonashi del 0.0147059
itonkakeri del 0.0147059
antavoki del 0.0147059
otsapiaki del 0.0588235
otitakotapaka del 0.0147059
ipankoki del 0.0147059
antantyavori del 0.0147059
oshivitsate del 0.0147059
antavaeshiri del 0.0147059
chorina del 0.0147059
oonkaka del 0.0147059
niha del 0.0441176
itenki del 0.0147059
omonaki del 0.0147059
otsiti del 0.0147059
otevaki del 0.0441176
onoshikimikari del 0.0147059
tyaapapanko del 0.0147059
oitaka ¿ 0.1111111
¿ ¿ 0.8888889
tsiyaroki palmeras 0.5000000
otakipayeki palmeras 0.5000000
nontsonkero termino 0.5000000
tekirata termino 0.5000000
okentanakeri repente 1.0000000
kentavo loro 0.5000000
rakavaantetae loro 0.5000000
otsonkakero terminaron 1.0000000
naantavori armar 0.5000000
kepaye armar 0.5000000
tyoviri tyoviri 0.5000000
itaati tyoviri 0.5000000
pareto pareto 1.0000000
ikiteehitakotake amanecieron 1.0000000
ramenakoventantyaavori quién 0.5000000
koshitakeriri quién 0.5000000
inchakiire palo 0.0909091
inchato palo 0.4545455
inchaki palo 0.1818182
paato palo 0.0909091
hamaka palo 0.0909091
NULL palo 0.0909091
ramatsaere corona 0.5000000
ramatsaereki corona 0.5000000
oteyakitanake flor 0.2500000
inchateyaki flor 0.2500000
avotsiki flor 0.2500000
kiteriri flor 0.2500000
irora esa 1.0000000
imoito ombligo 0.5000000
patsake ombligo 0.5000000
maaroni todo 0.6666667
mampiritsi todo 0.3333333
iitsoki huevo 0.3333333
kapashiro huevo 0.3333333
oitsokake huevo 0.3333333
nonyaake encontré 1.0000000
ipariantakavo cayó 0.2000000
pariakotanake cayó 0.2000000
ishinkiro cayó 0.2000000
NULL cayó 0.2000000
opariaki cayó 0.2000000
chaanari tigre 0.1000000
maniti tigre 0.7000000
NULL tigre 0.1000000
karinari tigre 0.1000000
kompiyoki kompiyoshi 1.0000000
okihotimotiri dura 0.5000000
kihotake dura 0.5000000
ero nades 0.3333333
niyanki nades 0.3333333
pamaati nades 0.3333333
oshimore espuma 1.0000000
ikiyiro escarba 1.0000000
mantsiyare enfermos 0.5000000
mantsiyarepaye enfermos 0.5000000
okantakaantiro culpa 1.0000000
shinkirenti borracho 0.6666667
ishinkiro borracho 0.3333333
pashiti garrapata 0.5000000
rovanavo garrapata 0.5000000
oyoyaatati cosechando 1.0000000
pava motor 0.5000000
ishiyakomento motor 0.5000000
rootaki ella 1.0000000
okitsoki guaba 0.5000000
intsipaki guaba 0.5000000
inkaaricheraaki macana 0.3333333
imintsaavakero macana 0.3333333
cheviro macana 0.3333333
koriato yuca 0.0476190
iyaniri yuca 0.0952381
akishitakeniri yuca 0.0476190
NULL yuca 0.0476190
iyanire yuca 0.0476190
oyanire yuca 0.0476190
kaniri yuca 0.6190476
oyaniri yuca 0.0476190
haye shitaracos 1.0000000
nonyakeri lobo 1.0000000
otakiriati pelando 0.5000000
inyeni pelando 0.5000000
irotake caracol 0.1666667
totiroki caracol 0.3333333
tseeri caracol 0.1666667
NULL caracol 0.1666667
pomporo caracol 0.1666667
maaniri canela 1.0000000
naana mamá 0.0937500
ina mamá 0.2187500
nana mamá 0.6562500
inyiiro mamá 0.0312500
rotatsinkakeri empujó 1.0000000
shenontipaye coto 0.3333333
shenonti coto 0.6666667
tiho el 0.0028329
itsonkakero el 0.0028329
ohankenamento el 0.0028329
aretantyavori el 0.0028329
rapeyakero el 0.0028329
inyaatsavaeveta el 0.0028329
ityaakero el 0.0028329
konoya el 0.0028329
pitetahero el 0.0028329
komintsare el 0.0056657
nihaaki el 0.0113314
etini el 0.0028329
ocheva el 0.0028329
tyopiki el 0.0028329
rantyavaeshiti el 0.0028329
koviri el 0.0056657
ityaapapankote el 0.0028329
itovi el 0.0028329
inaki el 0.0028329
antami el 0.0028329
rantakeri el 0.0056657
poematanake el 0.0028329
ratsikakerira el 0.0028329
pinkatsari el 0.0141643
itovakaakenavo el 0.0028329
hatantaneri el 0.0028329
pareto el 0.0028329
pahotiki el 0.0028329
iyatsinka el 0.0028329
inchaki el 0.0028329
natantakaari el 0.0028329
matsontsori el 0.0028329
evankari el 0.0084986
shinkiririti el 0.0028329
amaatake el 0.0028329
ichenkoreetakeri el 0.0028329
eentsi el 0.0084986
otsivakakero el 0.0056657
oteyakitanake el 0.0028329
ashetakero el 0.0028329
okivatsiro el 0.0028329
koshiri el 0.0113314
kishityo el 0.0028329
maati el 0.0028329
kitairiki el 0.0028329
kanirimashiki el 0.0056657
aashitakari el 0.0028329
kitoniro el 0.0028329
itiya el 0.0028329
hanta el 0.0028329
opiyaataki el 0.0028329
mashero el 0.0028329
haanaareki el 0.0028329
kashekari el 0.0028329
poya el 0.0028329
atsinakakeri el 0.0028329
tyaapapankoki el 0.0056657
antyashipari el 0.0056657
ataanakeri el 0.0028329
shenonti el 0.0056657
otishiki el 0.0028329
omoonaki el 0.0056657
amontyantyavori el 0.0028329
aishi el 0.0028329
iponyanaka el 0.0028329
ivatsaki el 0.0056657
ovametantatsiri el 0.0283286
omoetonka el 0.0028329
pampiamentotsi el 0.0028329
anonkaka el 0.0028329
hantsare el 0.0056657
NULL el 0.0793201
kainitake el 0.0028329
kachaarentsi el 0.0028329
amanite el 0.0028329
ishiyakaakavo el 0.0028329
ronyaakakeri el 0.0028329
oharentsiteki el 0.0028329
ratsikavetakari el 0.0056657
patsake el 0.0028329
roviintakero el 0.0028329
charava el 0.0056657
totiroki el 0.0056657
kiteriatake el 0.0028329
inoshikakero el 0.0028329
hankiro el 0.0028329
netsi el 0.0028329
inchato el 0.0028329
sheri el 0.0028329
tsonkiri el 0.0028329
itantoriaakero el 0.0028329
avotsiki el 0.0056657
shinki el 0.0056657
itsaati el 0.0028329
osheki el 0.0056657
oime el 0.0028329
rovantavo el 0.0056657
hamampo el 0.0028329
rirati el 0.0028329
chamanto el 0.0056657
otsikaatena el 0.0028329
cherepito el 0.0028329
inkiteki el 0.0056657
ishinkine el 0.0056657
opempe el 0.0028329
ivaero el 0.0028329
imontyantyaavori el 0.0028329
piyanirimashite el 0.0028329
maeni el 0.0028329
iheki el 0.0056657
tampootake el 0.0028329
ihaatakero el 0.0028329
itotakero el 0.0028329
rovetsikiro el 0.0028329
imampaavaeta el 0.0028329
kepiyashi el 0.0028329
charine el 0.0169972
riyaaveta el 0.0028329
ikaemi el 0.0028329
otiritantyaavori el 0.0028329
shima el 0.0141643
rovanavo el 0.0056657
ipichakatiro el 0.0028329
noitsiki el 0.0028329
menkoriityaake el 0.0028329
karinari el 0.0028329
okishitantyariri el 0.0028329
ramaate el 0.0028329
rovatsitapakeri el 0.0028329
iyamantsite el 0.0028329
rakavaantetae el 0.0028329
intsipaite el 0.0028329
rovankiniri el 0.0028329
pimonkaatero el 0.0028329
cheenkari el 0.0028329
aririka el 0.0028329
choori el 0.0028329
opane el 0.0028329
koshoshiko el 0.0028329
korinto el 0.0056657
itonki el 0.0028329
pamakenavo el 0.0113314
kipatsi el 0.0028329
iche el 0.0028329
tsonkitiroki el 0.0028329
rovari el 0.0028329
imontyaakero el 0.0056657
ratsimiyakeri el 0.0028329
ocheempeki el 0.0084986
iraka el 0.0028329
tsirarato el 0.0056657
. el 0.0028329
kapeshi el 0.0028329
hampovatsa el 0.0028329
itsikotiro el 0.0028329
patintoki el 0.0028329
kaakitake el 0.0028329
peyari el 0.0028329
rovakavo el 0.0084986
oharentsiki el 0.0028329
amperi el 0.0028329
kiavontsiki el 0.0028329
ikaraakero el 0.0028329
itinaeri el 0.0028329
itotanakeri el 0.0028329
piyate el 0.0028329
kitaeriki el 0.0028329
rovakari el 0.0056657
sheripiari el 0.0226629
pinkatsare el 0.0028329
otimi el 0.0028329
tonkaareki el 0.0084986
toniro el 0.0028329
pakitsa el 0.0028329
pitsitake el 0.0028329
shimperi el 0.0028329
hamaka el 0.0028329
itovakero el 0.0028329
impanekiki el 0.0028329
enini el 0.0028329
kiriviro el 0.0028329
enitatsi el 0.0028329
heekatsiri el 0.0028329
shompoti el 0.0028329
inampitavo el 0.0028329
moyaake el 0.0028329
hataantaneri el 0.0056657
piherenkiro el 0.0028329
avotsi el 0.0056657
entsi el 0.0084986
pirinto el 0.0028329
amenayetiriri el 0.0028329
antamiki el 0.0254958
imaashita el 0.0028329
okachoneentakeri el 0.0028329
peranti el 0.0028329
nihaateniki el 0.0028329
rovavo el 0.0169972
itomi el 0.0028329
shesheti el 0.0028329
iyaatantyari el 0.0028329
opiare el 0.0028329
kitaeheri el 0.0028329
paamariki el 0.0028329
hamaani el 0.0028329
otsitsi el 0.0028329
mantana el 0.0056657
imaavaeti el 0.0028329
otsiti el 0.0084986
omonaki el 0.0028329
inchatonaki el 0.0028329
iitiki el 0.0141643
sheripiare el 0.0028329
nokentsiki el 0.0028329
otiyaarentsi el 0.0028329
iritake el 0.0084986
ipashitakariri el 0.0028329
ovaeyirori el 0.0028329
iriani el 0.0084986
chaanari el 0.0028329
oshirikiro el 0.0028329
imitaanaka el 0.0028329
ritaki el 0.0028329
itantari queme 0.5000000
oria queme 0.5000000
aventyari aventyari 1.0000000
pohapaka golpeó 0.3333333
kepityoki golpeó 0.3333333
nironto golpeó 0.3333333
iporeriaati brilla 1.0000000
ovocharite flores 0.5000000
inchateyaki flores 0.5000000
pimpavakena dame 0.5000000
pimpena dame 0.2500000
pipavakena dame 0.2500000
hamaani dormía 0.3333333
maavetachari dormía 0.3333333
shitovake dormía 0.3333333
koshiripaye engordan 0.5000000
iyeenkati engordan 0.5000000
ipankori patio 0.5000000
piherenkiro patio 0.5000000
ivitoki meterlo 0.5000000
rotetantyaariri meterlo 0.5000000
katsikori comerlas 1.0000000
okatyokakero demasiada 1.0000000
shitovi callampas 0.2500000
ramini callampas 0.2500000
shitovipaye callampas 0.2500000
konoya callampas 0.2500000
osheki avisa 0.3333333
ashitaaneyetachari avisa 0.3333333
avo avisa 0.3333333
ikenkishiriaka pensó 0.5000000
iro pensó 0.5000000
tonkariki come 0.0500000
poya come 0.0500000
rovatya come 0.0500000
ovari come 0.0500000
rampate come 0.1000000
rovavo come 0.6000000
kitaeterikipaye come 0.0500000
misho come 0.0500000
eentsikeroeni cuidado 0.2500000
ataerikari cuidado 0.2500000
NULL cuidado 0.2500000
pikiikari cuidado 0.2500000
nakachatantyari anzuelear 1.0000000
otimatye saber 0.5000000
pihankenate saber 0.5000000
rantantyari topas 0.5000000
pashiitoki topas 0.5000000
tonkareki maduros 0.5000000
iraka maduros 0.5000000
tyoentaka haciendo 1.0000000
irianeerikipaye levantan 0.5000000
itinairo levantan 0.5000000
opankoki suelo 0.2500000
ohaviki suelo 0.2500000
ikaboshitantyari suelo 0.2500000
ohaaviki suelo 0.2500000
yoosara tiempo 0.5000000
aririka tiempo 0.5000000
te adolescente 0.5000000
pevonkiritsi adolescente 0.5000000
ayompari amigos 0.2500000
ishintipaareki amigos 0.2500000
aatariki amigos 0.2500000
riyatantyari amigos 0.2500000
kiriviro libro 1.0000000
kapiro paca 0.5000000
pincheke paca 0.5000000
shintori huangana 1.0000000
ari vemos 0.3333333
anyaakero vemos 0.3333333
niyankiiteki vemos 0.3333333
kantimaitacha ajusta 1.0000000
kamavetaka fallecido 1.0000000
okoyaati frejol 1.0000000
inchaki llegue 0.5000000
aretantyavori llegue 0.5000000
omoetonka arrastre 1.0000000
ikentakina aguja 0.3333333
kitsapi aguja 0.3333333
nakoki aguja 0.3333333
timpinare golondrinas 1.0000000
ikaraakero quebró 0.5000000
inchakiire quebró 0.5000000
oshiyakaantsi cámara 1.0000000
nanitiro cansé 1.0000000
okantakaantiro rodillas 0.5000000
ityerovi rodillas 0.5000000
chokiyo perico 0.5000000
inyavaeti perico 0.5000000
oshirontaka rió 1.0000000
ishintipaareki abajo 0.3333333
ohaaviki abajo 0.3333333
riyaataero abajo 0.3333333
ookiro bota 0.2500000
ookakiro bota 0.2500000
pookero bota 0.2500000
rokiro bota 0.2500000
nopochokiti sueño 0.5000000
pochokitake sueño 0.5000000
hee sí 1.0000000
oyaniri cocinada 0.5000000
pohare cocinada 0.5000000
shonkoro persiguen 0.5000000
ipatimatiri persiguen 0.5000000
NULL gallo 0.2500000
ramampae gallo 0.2500000
tyaapa gallo 0.5000000
roeminkiakeri metió 0.3333333
ominkiake metió 0.3333333
otetaka metió 0.3333333
ranashita camina 0.2000000
ranivaeti camina 0.2000000
ishavaetashita camina 0.2000000
paniite camina 0.2000000
raniti camina 0.2000000
kaaroshi kaaroshi 0.5000000
ikantiri kaaroshi 0.5000000
etso golondrina 1.0000000
nompiyahe regreso 1.0000000
oshirontane enamorado 0.3333333
te enamorado 0.3333333
inintahero enamorado 0.3333333
oshaake peló 1.0000000
eeroka cuál 0.5000000
piponyari cuál 0.5000000
rantamintsatiro fastidíar 1.0000000
opariaki alto 1.0000000
inyavaeti hablar 0.2500000
iro hablar 0.2500000
ikenkitsatakaeri hablar 0.2500000
ipokantanakari hablar 0.2500000
imampaakavo cantaron 0.5000000
irianipaye cantaron 0.5000000
oshirikiro cose 1.0000000
ramate miedo 1.0000000
tsame vamos 1.0000000
noitsiki cascabel 0.5000000
kamaatonki cascabel 0.5000000
tsinanipaye mujeres 0.2000000
tsinanepaye mujeres 0.8000000
etini carachupa 0.5000000
eti carachupa 0.5000000
ikaaveata bañándose 1.0000000
shiketsi korintoni 0.5000000
hataentsiri korintoni 0.5000000
nonkotsivetaka cocinado 1.0000000
ontyaati teje 0.3333333
NULL teje 0.3333333
ontyiro teje 0.3333333
noetsaare vestido 1.0000000
tsiya chicua 0.3333333
rovari chicua 0.3333333
osheki chicua 0.3333333
ishirikashitantyaavori techar 1.0000000
rateetantavori permite 1.0000000
kompitarentsi adivinanza 1.0000000
chomiyo moquichi 0.5000000
tsonkitiroki moquichi 0.5000000
ovamaake muerte 1.0000000
irotaintsi listo 1.0000000
raniitake caminaron 1.0000000
amampake cantó 0.5000000
motake cantó 0.5000000
itinkaavo fractura 1.0000000
NULL piernas 1.0000000
oonkaka hinchó 1.0000000
inyaatsatavo sucia 0.5000000
okantakaantiro sucia 0.5000000
ayiro llevan 1.0000000
tsitsiri saltó 0.3333333
imitaanaka saltó 0.3333333
romintsaakeri saltó 0.3333333
rovankiniri racimo 1.0000000
nareetantakari hasta 0.2500000
riyatantyari hasta 0.2500000
aretantyavori hasta 0.2500000
oshetakiriaakeri hasta 0.2500000
itoviro tumbando 1.0000000
antavaerianti trabajadora 1.0000000
konyoriki sólo 1.0000000
ashoshi ashoshi 1.0000000
oitsokake puso 0.1666667
rovanakero puso 0.1666667
ishintsaerikakeri puso 0.1666667
eentsite puso 0.1666667
ovakeri puso 0.1666667
ivakeniri puso 0.1666667
iraheempiaka tomar 0.1666667
rirantyari tomar 0.1666667
roshiyakantantyariri tomar 0.1666667
nireri tomar 0.1666667
niravake tomar 0.3333333
shiketsi fueron 1.0000000
oyaati achiote 0.2500000
aaye achiote 0.2500000
isheni achiote 0.2500000
potsoti achiote 0.2500000
ohaaviki están 0.1666667
oheeki están 0.1666667
teparo están 0.1666667
tyoentaka están 0.1666667
raatikaitakeri están 0.1666667
ovaantsi están 0.1666667
NULL salen 1.0000000
onkaavoshiteri bañar 0.2500000
pinkaavoshitya bañar 0.2500000
otsitite bañar 0.2500000
nihateniki bañar 0.2500000
inyaayetiri cosas 0.2000000
pinavontsini cosas 0.2000000
maaroni cosas 0.2000000
aayetirori cosas 0.2000000
pantakaeri cosas 0.2000000
ratsikavakeri uno 1.0000000
chenteroki ponilla 0.5000000
oparetsaki ponilla 0.5000000
ipoonkake batió 1.0000000
ranashita acompañado 1.0000000
riyotantyaari aprender 1.0000000
shintsini nawireri 0.5000000
ikovi nawireri 0.5000000
ivito canoa 0.2500000
ivitoki canoa 0.1250000
pitotsi canoa 0.5000000
novito canoa 0.1250000
mamavo búho 1.0000000
kaariperori ” 0.0188679
pankotsiki ” 0.0188679
tyaapapankoki ” 0.0188679
nareetakitakavo ” 0.0188679
apanko ” 0.0188679
piyaariri ” 0.0188679
nokentatakaemi ” 0.0188679
kaakitake ” 0.0188679
nompiyahe ” 0.0188679
ashavokiite ” 0.0188679
noyaate ” 0.0188679
shitovi ” 0.0188679
kitsarentsi ” 0.0188679
pantarite ” 0.0188679
noyotsiraanikite ” 0.0188679
kiri ” 0.0377358
kempiro ” 0.0188679
pantavaka ” 0.0188679
. ” 0.0377358
nantavaire ” 0.0188679
pava ” 0.0188679
otsikaatena ” 0.0188679
rookanakemiri ” 0.0188679
sheri ” 0.0188679
ovanavontsi ” 0.0188679
pitivine ” 0.0188679
ihankenatantantyari ” 0.0188679
? ” 0.1132075
NULL ” 0.0188679
intsipaite ” 0.0188679
chetakitakemi ” 0.0188679
atsamaetero ” 0.0188679
noya ” 0.0188679
tsitsi ” 0.0377358
piri ” 0.0188679
akacharentsi ” 0.0188679
noinantemi ” 0.0188679
inkokiroeni ” 0.0188679
hevaantsi ” 0.0188679
pitsiro ” 0.0188679
nontyaare ” 0.0188679
tyonkiro ” 0.0188679
kantiriki ” 0.0188679
ovaneki ” 0.0188679
akonkire ” 0.0188679
pantyo nada 0.3333333
tekatsi nada 0.6666667
pashiitoki topa 1.0000000
maanki víbora 1.0000000
oontsotakero tía 0.2000000
inyeeni tía 0.2000000
nanaeni tía 0.6000000
shirampari gordo 0.5000000
vatsanti gordo 0.5000000
irotaintsi pihuicho 0.3333333
chokiyo pihuicho 0.3333333
ishivanki pihuicho 0.3333333
rovantyaavori ponerlas 1.0000000
kenitsi piques 0.5000000
iitiki piques 0.5000000
mapocha papaya 1.0000000
ovatsa tubérculos 1.0000000
toropeeti toropetzi 1.0000000
kaminirio broma 0.3333333
nyaatsavaerontsi broma 0.3333333
ivashiyari broma 0.3333333
pinyaavakena permiso 1.0000000
imokaatiro mide 1.0000000
okiki chowirio 0.3333333
hamampo chowirio 0.3333333
chovirio chowirio 0.3333333
nokovati bebida 0.5000000
pimpavakena bebida 0.5000000
inoshikake jaló 1.0000000
okantashiyetashita tienen 1.0000000
rompohakotakari ahí 0.3333333
ari ahí 0.3333333
tyominkiyo ahí 0.3333333
pokatsiri alguien 0.2500000
inyee alguien 0.2500000
inyayetiri alguien 0.2500000
pokashitiriri alguien 0.2500000
ochera orilla 0.1000000
nihaacheraki orilla 0.1000000
otsapiaki orilla 0.4000000
NULL orilla 0.1000000
ocheraki orilla 0.1000000
cheviro orilla 0.1000000
ocheraaki orilla 0.1000000
pariantziri semana 1.0000000
imire líquido 0.5000000
ikenavaetantakari líquido 0.5000000
inyaakeri vió 1.0000000
rovantyaavori coman 0.5000000
nihaaki coman 0.5000000
pankivaerento sembradora 0.5000000
evankavo sembradora 0.5000000
tsikontoche uña 0.5000000
oshetakiriaakeri uña 0.5000000
pokake serrano 1.0000000
anyeenkatatsi aún 0.1250000
oparetsa aún 0.1250000
anyaatsini aún 0.1250000
roohati aún 0.1250000
oshekitatsi aún 0.1250000
pevonkiritsi aún 0.1250000
irohati aún 0.2500000
poonkito disciplinar 1.0000000
ikenavaeti animales 0.5000000
poshiniri animales 0.5000000
oveenikentsi pulgas 1.0000000
heekabetachari vivía 0.2500000
inampiki vivía 0.2500000
haka vivía 0.2500000
hatahe vivía 0.2500000
mishari maleza 0.2500000
shookake maleza 0.2500000
inchashipaye maleza 0.2500000
rovane maleza 0.2500000
imaantyari dormir 1.0000000
netsi piojo 0.5000000
ipatsaakaanti piojo 0.5000000
roretiri comedero 0.3333333
nani comedero 0.3333333
roretane comedero 0.3333333
kameetsaanto hermosa 1.0000000
raanatyeero satipo 0.3333333
hatipoki satipo 0.3333333
mavoeni satipo 0.3333333
ihapokaventiro brinca 1.0000000
kitaeterikipaye anzuelo 0.2000000
akachatantyaari anzuelo 0.2000000
rakachaatake anzuelo 0.2000000
rakachaare anzuelo 0.2000000
rakachatantyari anzuelo 0.2000000
ikaemake shariwa 0.5000000
shariva shariwa 0.5000000
areetinkari visitantes 0.5000000
imaantyaari visitantes 0.5000000
NULL construyen 1.0000000
konoya motelo 1.0000000
otsitsi llora 0.2000000
iraaka llora 0.4000000
iraatya llora 0.2000000
iraakotavo llora 0.2000000
kemari sachavaca 1.0000000
nopehashitantyaavori machete 0.3333333
haviri machete 0.3333333
habiri machete 0.3333333
NULL enfermero 1.0000000
akemehanteri creemos 1.0000000
arakote viajamos 1.0000000
kaakitake cállense 0.5000000
hantikoeni cállense 0.5000000
katsimari malo 1.0000000
itsatakiro koriari 0.3333333
koriari koriari 0.6666667
antari boa 0.3333333
noonki boa 0.6666667
maretyakintsi iguana 0.3333333
tyaapapankoki iguana 0.3333333
kapashiro iguana 0.3333333
ranivaeti cenizo 0.2000000
inyaapakiri cenizo 0.2000000
ocheraaki cenizo 0.2000000
nihaki cenizo 0.2000000
chanchati cenizo 0.2000000
atiri hombre 0.6000000
shirampari hombre 0.4000000
otsimapookiri casi 0.5000000
kamaatonki casi 0.5000000
omatakeri paludismo 0.5000000
katsirentsi paludismo 0.5000000
roonkake puqueó 1.0000000
shiketi carachamas 0.6666667
korintooniki carachamas 0.3333333
shiyakomentotsi carros 1.0000000
rovametakeri enseñó 0.3333333
ovametaakeri enseñó 0.3333333
charini enseñó 0.3333333
otsoki loma 0.1250000
tonkaareki loma 0.5000000
tonkareki loma 0.2500000
makotakena loma 0.1250000
tonkaare palos 1.0000000
, era 0.3333333
maeta era 0.3333333
inyaashitakavo era 0.3333333
raaki haber 1.0000000
ovantyaari poder 0.5000000
poshiniri poder 0.5000000
ovamaake causar 1.0000000
itaati quema 1.0000000
? ? 1.0000000
anyeenkatatsi cruda 1.0000000
antsotavake árbol 0.0500000
oteyakitanake árbol 0.0500000
otsimankitye árbol 0.0500000
koshiripaye árbol 0.0500000
oshitsapaereki árbol 0.0500000
meshiyanto árbol 0.0500000
inchato árbol 0.6500000
inchatoki árbol 0.0500000
otsapairikita rayas 1.0000000
tsompare garza 0.2500000
hantsare garza 0.2500000
tsompari garza 0.2500000
ranivaeti garza 0.2500000
itaakero la 0.0049875
shivaerontsi la 0.0024938
ishavaetashita la 0.0024938
rovane la 0.0049875
ivitoki la 0.0024938
ratsovootiro la 0.0024938
iheekantavo la 0.0024938
iitoki la 0.0024938
machaki la 0.0024938
kapashiro la 0.0024938
kipatsiki la 0.0024938
otakipayeki la 0.0024938
niha la 0.0049875
pankotsiki la 0.0124688
imokaatiro la 0.0024938
ovantsi la 0.0024938
ikaavoshita la 0.0024938
ovakerate la 0.0024938
yomaarentsi la 0.0024938
omakaatake la 0.0024938
kari la 0.0024938
kapararo la 0.0024938
paamareki la 0.0024938
shitsa la 0.0024938
osheki la 0.0024938
kovana la 0.0049875
ikaemiro la 0.0024938
shintori la 0.0049875
rovantavo la 0.0024938
amiro la 0.0024938
kashiri la 0.0024938
ovaantsiki la 0.0299252
rapatotya la 0.0024938
NULL la 0.1745636
kempityaariki la 0.0024938
otaki la 0.0024938
hetari la 0.0049875
riyaati la 0.0024938
nampitsi la 0.0049875
tivana la 0.0049875
itanto la 0.0024938
ayaataki la 0.0024938
nyaantsi la 0.0024938
oshaake la 0.0024938
tyonkiro la 0.0024938
katsitori la 0.0024938
maakookava la 0.0024938
ovantsipooshiki la 0.0099751
chamiri la 0.0024938
ovashiyavakena la 0.0024938
ikoveme la 0.0024938
itapikiki la 0.0024938
kampona la 0.0049875
nihateniki la 0.0049875
cheviro la 0.0049875
ikemaenkatiro la 0.0024938
evankavo la 0.0024938
hantsare la 0.0024938
mapi la 0.0074813
inkaariveri la 0.0024938
maanki la 0.0049875
makaatake la 0.0024938
riyomatantyavori la 0.0024938
otevaki la 0.0049875
ishinkitantari la 0.0024938
pirevoshitya la 0.0024938
riyatantyari la 0.0024938
kempiro la 0.0024938
otyaapate la 0.0024938
heto la 0.0049875
ikentakina la 0.0024938
oshinchaakiki la 0.0024938
ookakiro la 0.0024938
atiripaeni la 0.0024938
teparo la 0.0024938
rantiro la 0.0024938
pashiti la 0.0024938
omotyaaki la 0.0074813
yotaantsinpanko la 0.0024938
rakoki la 0.0049875
ovirentsi la 0.0024938
shitamenkotsiki la 0.0024938
ohompo la 0.0024938
avintantyaavori la 0.0024938
iheeki la 0.0024938
chomenta la 0.0024938
iporiki la 0.0024938
tsireniriki la 0.0099751
kotsironaki la 0.0024938
pariantziri la 0.0024938
inyampoeretakeri la 0.0024938
otakiriro la 0.0024938
tsinane la 0.0074813
periki la 0.0024938
konoya la 0.0049875
ikaemakantakae la 0.0024938
oyeenka la 0.0024938
otaakero la 0.0024938
ipante la 0.0024938
imoreki la 0.0049875
okantakaantiro la 0.0024938
tonkareki la 0.0074813
oporiperoki la 0.0024938
kantapookitaka la 0.0024938
mavona la 0.0024938
opooki la 0.0049875
shempiri la 0.0024938
raavintantyari la 0.0024938
ishinto la 0.0024938
mantsiyarentsi la 0.0024938
aanakero la 0.0049875
tivotake la 0.0049875
nihaateniki la 0.0049875
tyaapa la 0.0174564
ishetaki la 0.0074813
ovanavontsi la 0.0024938
ikiyiro la 0.0024938
ramatsaere la 0.0024938
omooki la 0.0049875
ashitavo la 0.0024938
otihaavakeri la 0.0024938
yotaantsinpankoki la 0.0024938
rovapiintiro la 0.0024938
antamimashiki la 0.0024938
opitsitsayetiro la 0.0024938
ayiro la 0.0024938
pitotsi la 0.0049875
tsonkakeri la 0.0024938
tsopiro la 0.0024938
opochaanikiti la 0.0024938
shikiri la 0.0024938
iito la 0.0049875
atiripaye la 0.0024938
omotyaki la 0.0049875
metsotake la 0.0024938
kontsavo la 0.0049875
ovantsiki la 0.0124688
ivitiki la 0.0024938
inkaareki la 0.0299252
ovamaake la 0.0024938
shonkiri la 0.0074813
inyaanatero la 0.0024938
ovaantsipooshiki la 0.0049875
rovaakiro la 0.0024938
maaperotaka la 0.0024938
tsompari la 0.0024938
rakopero la 0.0024938
tsimiki la 0.0099751
paamari la 0.0124688
nihaateni la 0.0024938
omishitakeri la 0.0024938
pashi la 0.0024938
otashitakeri la 0.0024938
okemeneenta la 0.0024938
pankotsi la 0.0049875
kamantaantsi la 0.0024938
oporiki la 0.0024938
kiake la 0.0074813
isheni la 0.0149626
rovakavo la 0.0024938
kitochempe la 0.0024938
inchapookiki la 0.0049875
ocheraaki la 0.0074813
kempiti la 0.0024938
okihotimotiri la 0.0024938
atiri la 0.0149626
oshekini la 0.0024938
tonkamentotsiki la 0.0024938
tsiyeri la 0.0024938
ikentakeri la 0.0124688
itapinomaki la 0.0024938
ishimane la 0.0024938
nihaatenipaye la 0.0024938
ipankoki la 0.0049875
makotakena la 0.0024938
rovari la 0.0024938
ratsikavetakana la 0.0024938
irakoki la 0.0049875
pishiti la 0.0024938
rovetsikake la 0.0024938
raanakero la 0.0049875
omoti la 0.0024938
imoti la 0.0024938
yotaantsipankoki la 0.0024938
rokiro la 0.0024938
impaneki la 0.0024938
itsaavakaakari la 0.0024938
onkotsivetakari la 0.0024938
hamomo la 0.0024938
nonkentantyaari la 0.0024938
raavintantyariri la 0.0024938
vatsatsi la 0.0024938
atsikakeri la 0.0024938
impohakeri la 0.0024938
isheeni la 0.0274314
otsimapookiri la 0.0024938
kitoche la 0.0049875
meyiri la 0.0049875
eti la 0.0024938
mapocha la 0.0049875
iitsaare la 0.0024938
rovanavo la 0.0024938
ishintipaareki la 0.0049875
pinyanatiro la 0.0024938
ovakeri la 0.0024938
kamaantsi la 0.0049875
iitsokantyari poner 0.3333333
rovantyaariri poner 0.3333333
pipoke poner 0.3333333
ihamanite majás 0.1250000
hamaani majás 0.1250000
mantana majás 0.1250000
hamani majás 0.6250000
otiyaarentsi mijano 1.0000000
itantoriaakero desarmó 1.0000000
kamankaantsi todos 0.2500000
akachavaerenti todos 0.2500000
ishiyaeyeni todos 0.2500000
mavoeni todos 0.2500000
vatsatsi sabrosa 1.0000000
impaneki entró 0.2500000
NULL entró 0.1250000
okiantakari entró 0.1250000
kiake entró 0.3750000
raakena entró 0.1250000
korioviri koriobiri 1.0000000
rivenkite piripiri 0.5000000
ikomintsatantyari piripiri 0.5000000
kemihantsinkari adventistas 0.5000000
tee adventistas 0.5000000
kari debilidad 0.5000000
shipetatantsi debilidad 0.5000000
rootaperotantaari alumbra 1.0000000
ratsikakeri kempiro 0.3333333
pavatyori kempiro 0.3333333
kempiro kempiro 0.3333333
ovatsa cogollos 1.0000000
anyaavakahea veremos 1.0000000
shamoko shamoco 0.3333333
poshiniri shamoco 0.3333333
rovaka shamoco 0.3333333
ipatsavo heridas 0.3333333
ipatsaakaanti heridas 0.3333333
iitoki heridas 0.3333333
ikentavakotakeri araña 0.2500000
heto araña 0.5000000
NULL araña 0.2500000
osheki emborrachó 0.5000000
oshinkitantari emborrachó 0.5000000
inkaareki cochas 1.0000000
shitamenkotsi tarima 0.2000000
makotake tarima 0.2000000
pankotsi tarima 0.2000000
shitamenkotsiki tarima 0.4000000
mahavitake suda 1.0000000
ichekakoti recoger 0.5000000
etiki recoger 0.5000000
impeetaki barranco 1.0000000
piri despluma 0.2500000
ramakeri despluma 0.2500000
shonkiri despluma 0.2500000
pivitirieri despluma 0.2500000
ishire espíritu 1.0000000
itovi tumba 1.0000000
omoo parcha 0.5000000
ipichakatiro parcha 0.5000000
rakachatiri anzuelea 1.0000000
nopankiterime sembrar 0.2500000
ipankiteri sembrar 0.2500000
rovaneki sembrar 0.2500000
intsipa sembrar 0.2500000
ichakopitepaye flechas 1.0000000
kapironkari abuelito 0.2500000
charine abuelito 0.5000000
ronyaakakeri abuelito 0.2500000
ovaeyirori pastor 1.0000000
notiritavakia echarme 1.0000000
onkiro ratón 0.6666667
rapeyakero ratón 0.3333333
tsirentsitonki fideos 1.0000000
, sucio 0.5000000
kipatsitakemi sucio 0.5000000
mantsiyarentsi enfermedad 1.0000000
rontivatakavo napo 1.0000000
ramaatakoti bajan 1.0000000
osheto travieso 0.3333333
antavaeshiri travieso 0.3333333
rantavaeshiti travieso 0.3333333
inyaanatiro palabras 1.0000000
ichakopite flecha 1.0000000
imonkaatakero llenó 0.3333333
ihaakero llenó 0.3333333
tyonkishori llenó 0.3333333
ikovakotiro puchkay 1.0000000
nihaateni vadeó 0.5000000
imontyaakero vadeó 0.5000000
ichera labios 1.0000000
amenayetiriri monitor 1.0000000
patsiri ranas 0.3333333
chekito ranas 0.3333333
oyaari ranas 0.3333333
opitsitsayetiro tiñe 1.0000000
tsoori paucar 1.0000000
opane arroz 0.5000000
oshekini arroz 0.5000000
ipankitaetiro retoños 0.5000000
opeshi retoños 0.5000000
rovatyaari martín 0.5000000
cherepito martín 0.5000000
maaperotaka verdad 1.0000000
isheeto tripa 1.0000000
rovari comiendo 0.2000000
rovavo comiendo 0.3000000
shitovipaye comiendo 0.1000000
rovatyaari comiendo 0.1000000
onkochapaaki comiendo 0.1000000
rovavaitavo comiendo 0.1000000
ovaantsipooshiki comiendo 0.1000000
amempori un 0.0208333
roetantyaariri un 0.0208333
rankoviitakeri un 0.0208333
NULL un 0.0208333
iitachari un 0.0208333
inoshikakeri un 0.0208333
shiramparihaniki un 0.0208333
hankenamentotsi un 0.0208333
akachaarontsi un 0.0208333
itonkavetaka un 0.0208333
rantyavori un 0.0208333
kapichoki un 0.0416667
komarontsi un 0.0208333
imaperotatya un 0.0208333
notonkake un 0.0208333
inchatoki un 0.0208333
kotsiraaniki un 0.0208333
piratsi un 0.0208333
itoviro un 0.0208333
imoo un 0.0208333
pamiro un 0.0208333
apaani un 0.0416667
matsari un 0.0208333
oitsokake un 0.0208333
itonkake un 0.0833333
inoshikake un 0.0416667
inyaane un 0.0208333
haviri un 0.0208333
hompotaki un 0.0208333
kirikotake un 0.0208333
kashetaeni un 0.0208333
shavo un 0.0208333
noyaatapainte un 0.0208333
omooki un 0.0208333
tsanoerentsi un 0.0208333
timatsi un 0.0416667
hamani un 0.0208333
aashitakari un 0.0208333
ipashikaatakeri un 0.0208333
rovatiyakero un 0.0208333
amanantake un 0.0208333
ishiyakakavo escapar 0.5000000
ishiyakaakavo escapar 0.5000000
poovonto panguana 0.5000000
maakookava panguana 0.5000000
ihaantakoti hormigas 1.0000000
ratsimiyakeri chupasangre 0.5000000
penta chupasangre 0.5000000
pinyanatiro hables 1.0000000
ishiyaeyeni corren 1.0000000
anyavaete hablamos 1.0000000
ashavokiite bailar 1.0000000
ihankenatantantyari pueda 1.0000000
noyaatapainte momento 1.0000000
iheki taricaya 0.2000000
shempiri taricaya 0.4000000
ocheraki taricaya 0.2000000
teparo taricaya 0.2000000
ishirontane enamorada 1.0000000
shitamenkotsiki emponado 1.0000000
pishiti pinsha 1.0000000
ramatavitakero engañó 1.0000000
kaminirio kaminirio 1.0000000
otapinaki debajo 1.0000000
ovanavontsi comida 0.2000000
ramenayeti comida 0.2000000
rovanavo comida 0.4000000
katsitori comida 0.2000000
ihekaki makota 1.0000000
pamakenavo plato 1.0000000
nokemakero sentí 1.0000000
ohevankiro abanica 1.0000000
kaari cierto 0.5000000
maeta cierto 0.5000000
ipashitakariri regalo 0.5000000
hevari regalo 0.5000000
iporiki pierna 0.2500000
eentsi pierna 0.2500000
oporiperoki pierna 0.2500000
oporiki pierna 0.2500000
rovahempiakavo diarrea 0.5000000
shivaerontsi diarrea 0.5000000
chorina cerro 0.0588235
otishi cerro 0.1176471
tonkariki cerro 0.1176471
tonkaareki cerro 0.2941176
ochempeki cerro 0.0588235
ichekakotake cerro 0.0588235
otishiki cerro 0.0588235
NULL cerro 0.0588235
ocheempeki cerro 0.1764706
ovakemiri te 0.0714286
karentsatake te 0.0714286
piniro te 0.0714286
ikaematimi te 0.0714286
pantavaere te 0.0714286
panteri te 0.0714286
nonintakemi te 0.0714286
okentimikari te 0.0714286
rakantakamiri te 0.0714286
onoshikimikari te 0.0714286
okatsitake te 0.0714286
nokemakemi te 0.0714286
opiyaataki te 0.0714286
niotya te 0.0714286
ratsotiro chupa 1.0000000
pipanko ubicar 0.5000000
povatikerori ubicar 0.5000000
onampinaki soga 1.0000000
iheekantavo cañabravas 0.5000000
havooki cañabravas 0.5000000
atyo cuñada 0.1666667
iinatsori cuñada 0.1666667
iinyeeni cuñada 0.5000000
inyeni cuñada 0.1666667
sheyaki ungurahui 1.0000000
rantyavori zancudo 0.5000000
manyo zancudo 0.5000000
iheekahe vivir 1.0000000
pashikavontsi colcha 1.0000000
otsitzi remató 1.0000000
rovapiintiro acarrea 0.5000000
tsipana acarrea 0.5000000
ivaneki koshantzi 0.3333333
koshanti koshantzi 0.3333333
tivana koshantzi 0.3333333
ivitiki piel 1.0000000
shinkirentipaye duermen 1.0000000
onkotsitakeri suave 1.0000000
oveniki río 0.0322581
niha río 0.2258065
oveni río 0.0967742
antavaaki río 0.0322581
onkaavoshiteri río 0.0322581
riyaataero río 0.0322581
itsarovi río 0.0322581
tampoki río 0.0322581
NULL río 0.0645161
eniki río 0.1612903
nihaaki río 0.0645161
nihaki río 0.0645161
nihaateni río 0.0322581
amaanitake río 0.0322581
nihaateniki río 0.0322581
nihaa río 0.0322581
katsivore lamparilla 1.0000000
inyampoeretakeri huella 0.5000000
pimpichenkero huella 0.5000000
omitsitsiyimikari puedes 1.0000000
mapi piedras 1.0000000
piyaariri excemento 0.5000000
itiya excemento 0.5000000
shoshokiri shoshokiri 1.0000000
novaneki dulces 0.2500000
pochaari dulces 0.2500000
pocharipaye dulces 0.2500000
shevantoki dulces 0.2500000
NULL salió 0.2500000
shitovake salió 0.2500000
maavetachari salió 0.2500000
hevatirori salió 0.2500000
niivotya niibotya 1.0000000
raatikaitakeri renegridas 1.0000000
ratsi trae 0.1111111
maaniri trae 0.1111111
NULL trae 0.1111111
payantishi trae 0.1111111
amiro trae 0.1111111
pamakenari trae 0.1111111
pamakeri trae 0.1111111
amake trae 0.1111111
ayi trae 0.1111111
paahonki gracias 1.0000000
kitochempe pinza 0.2000000
rampate pinza 0.2000000
rovavaetya pinza 0.2000000
rovantavo pinza 0.2000000
aririka pinza 0.2000000
yempipavaerontsiki teléfono 1.0000000
anyiinkari los 0.0163934
pinkamanteri los 0.0163934
antsotavake los 0.0163934
rovantyaavori los 0.0163934
rantavakaatya los 0.0163934
ayompari los 0.0163934
areetinkari los 0.0163934
itinairo los 0.0163934
eentsipaye los 0.0491803
iitsoki los 0.0327869
iheekaeyeni los 0.0163934
kiteeheriki los 0.0163934
ovenihati los 0.0163934
opeshi los 0.0163934
nyaatsarepaeni los 0.0163934
ipatimatiri los 0.0163934
tyaapaniki los 0.0163934
tiyaatanaha los 0.0163934
ikantanakeri los 0.0163934
inchatomashiki los 0.0327869
ikentantariri los 0.0163934
ovari los 0.0163934
NULL los 0.0983607
apinka los 0.0163934
ovayeri los 0.0163934
ari los 0.0163934
iponkantyari los 0.0163934
tyoviri los 0.0163934
ishinkana los 0.0163934
irianeriki los 0.0163934
shimpoki los 0.0163934
soraro los 0.0163934
ihankenaeyakeni los 0.0163934
irianikipaye los 0.0163934
pamitakotantyaariri los 0.0163934
mantsiyarepaye los 0.0163934
inchatoshiki los 0.0163934
inyaamatari los 0.0163934
otsoyempitati los 0.0163934
kemihantsinkari los 0.0163934
hamorenkake los 0.0163934
shimapaye los 0.0163934
rova los 0.0327869
ishempaki los 0.0163934
amaaniti los 0.0163934
iyomoneerote los 0.0163934
opiyiro los 0.0163934
maeyakeni los 0.0163934
pocharipaye los 0.0163934
irianipaye los 0.0327869
nopankoki aquí 0.2000000
haka aquí 0.6000000
nani aquí 0.2000000
omorekantyaari arda 1.0000000
inyaamatavo néctar 1.0000000
shina vender 0.5000000
ipimanteri vender 0.5000000
itsinanitepaye gallinas 1.0000000
ovakerari nuevo 1.0000000
tsirikana sea 0.5000000
ikomintsatantyaari sea 0.5000000
antavotantyaari para 0.0073529
raavintantyariri para 0.0073529
kishanyavo para 0.0073529
rantavaete para 0.0073529
nonkentantyaari para 0.0073529
kishiri para 0.0073529
nontsikaatavake para 0.0073529
ityootantyari para 0.0073529
haanari para 0.0073529
ovantyaari para 0.0147059
hayapa para 0.0073529
ishiyakomento para 0.0073529
akaatavakeriita para 0.0073529
rivenkite para 0.0073529
imaantare para 0.0073529
rantantyari para 0.0220588
akipatantyaari para 0.0073529
rantyavori para 0.0073529
makotake para 0.0073529
otiritantyaavori para 0.0073529
nireri para 0.0073529
itantotantyaavori para 0.0073529
ramanantakero para 0.0073529
rovantyaariri para 0.0073529
rovatsikantyavori para 0.0073529
operiri para 0.0073529
tonkaare para 0.0147059
koriari para 0.0073529
inchapatakite para 0.0073529
ayero para 0.0073529
ihonkantantyaari para 0.0073529
shintsini para 0.0073529
ashi para 0.0073529
rovantyaavori para 0.0147059
antsotavake para 0.0073529
chavari para 0.0073529
riyomatantyavori para 0.0073529
pashikaamentotsi para 0.0073529
okarentsatantyari para 0.0073529
riyotantyaari para 0.0073529
ikomintsatantyaari para 0.0073529
naake para 0.0073529
navihakero para 0.0073529
tsoompirontsi para 0.0073529
antantyari para 0.0073529
shitamentotsi para 0.0073529
tsirentsitonki para 0.0073529
oitsare para 0.0073529
opitiriantyariri para 0.0073529
ototakeri para 0.0073529
nenkitsiki para 0.0073529
mapipookiki para 0.0073529
nantake para 0.0073529
rotetantyaariri para 0.0073529
ontimatye para 0.0147059
mampetsa para 0.0073529
kitsaarentsi para 0.0073529
rantantyavori para 0.0073529
ikitamaaripetate para 0.0073529
patsiri para 0.0073529
maavo para 0.0073529
onkotsiteri para 0.0073529
rantantyaavori para 0.0073529
. para 0.0073529
nopehashitantyaavori para 0.0073529
oteyantyaariri para 0.0073529
iponkantyari para 0.0073529
roetantyaariri para 0.0147059
notiritavakia para 0.0073529
ihankenavaerentitantyaari para 0.0073529
isheeto para 0.0073529
NULL para 0.0441176
niravake para 0.0147059
imire para 0.0073529
imaantyari para 0.0073529
rako para 0.0073529
irare para 0.0073529
akishitantyaari para 0.0073529
opotsotyari para 0.0073529
rantantyaari para 0.0220588
antantyaari para 0.0220588
ishempaki para 0.0073529
iraari para 0.0073529
ikaemantariri para 0.0073529
ikentantyaariri para 0.0147059
imaantyaari para 0.0147059
ikiyakoti para 0.0073529
kampona para 0.0073529
hataki para 0.0073529
nopankiterime para 0.0073529
tashirentsi para 0.0073529
antantyaavori para 0.0073529
kompiroshi para 0.0147059
aatatyeri para 0.0073529
akishitavakeeta para 0.0073529
kepiyashi para 0.0073529
chenko para 0.0073529
raavintantyari para 0.0073529
nakiheekakotantyari para 0.0073529
ampatotya para 0.0073529
nakachatantyari para 0.0073529
pivavitero para 0.0073529
rovantyari para 0.0073529
maretyakintsi para 0.0073529
ishirikashitantyaavori para 0.0073529
roteyantyaariri para 0.0073529
ikaboshitantyari para 0.0073529
raati para 0.0220588
iitsokantyari para 0.0073529
akachatantyaari para 0.0073529
nopankiteri para 0.0073529
opiare para 0.0073529
oshiyakaantsi para 0.0073529
omorekantyaari para 0.0073529
otsikaatena sirva 1.0000000
antantsi tinaja 0.3333333
chomo tinaja 0.3333333
sheni tinaja 0.3333333
oriani pequeña 1.0000000
inyaamatari insectos 0.5000000
shikiri insectos 0.5000000
itsikotiro coge 1.0000000
pinyanatiro con 0.0416667
avantyari con 0.0416667
rirati con 0.0416667
akachavaerenti con 0.0416667
pinyaavakena con 0.0416667
raavintatyavo con 0.0416667
inyaanatakeri con 0.0416667
rantivatakaro con 0.0416667
oitsare con 0.0416667
rantiro con 0.0416667
itotanakeri con 0.0416667
ipashikaatantari con 0.0416667
akaatavakeriita con 0.0416667
kaariperori con 0.0416667
rakachaatake con 0.0416667
tonkamentotsiki con 0.0416667
otaavakero con 0.0416667
katsikori con 0.0416667
ikenkitsatakaeri con 0.0416667
NULL con 0.0416667
rampate con 0.0833333
katsirentsi con 0.0416667
vatsatsi con 0.0416667
inati curuhuinsi 0.2000000
hankori curuhuinsi 0.4000000
antavaerianti curuhuinsi 0.2000000
rovapiintiro curuhuinsi 0.2000000
opishiti barre 1.0000000
impanekiki playa 0.5000000
iitsokantyari playa 0.5000000
oitsare negro 0.5000000
cheenkari negro 0.5000000
NULL corteza 0.2500000
oshivitsate corteza 0.2500000
otakipayeki corteza 0.2500000
iye corteza 0.2500000
inchapataki astilla 1.0000000
apanko yarinas 0.3333333
kompiroshi yarinas 0.3333333
ivetsikantyari yarinas 0.3333333
inchatomashiki viven 0.1111111
iheeki viven 0.3333333
mavoeni viven 0.1111111
iheekaeyeni viven 0.1111111
ihaekaeyeni viven 0.1111111
mata viven 0.1111111
shenontipaye viven 0.1111111
hantsari largo 0.3333333
tsompari largo 0.3333333
hantsaro largo 0.3333333
rovavetakari comió 0.0588235
rovahempiakavo comió 0.0588235
rovakari comió 0.1764706
ovahempiakari comió 0.0588235
poshiniri comió 0.0588235
rovakavo comió 0.2941176
matsontsori comió 0.0588235
NULL comió 0.1764706
ivakavo comió 0.0588235
kiteheriki día 0.2500000
ikiteehitakotake día 0.2500000
menkoriityaake día 0.2500000
nareetyari día 0.2500000
koteri unchala 1.0000000
rovavetakari después 1.0000000
iyontaachari pegados 0.3333333
rayi pegados 0.3333333
mata pegados 0.3333333
yotaantsi conocimientos 0.5000000
opakae conocimientos 0.5000000
ikaematimi llamando 1.0000000
notiritavakia perfume 1.0000000
pinyeri si 0.0769231
pinoshikanakero si 0.0769231
otampiate si 0.0769231
ontime si 0.0769231
arakote si 0.0769231
aririka si 0.4615385
anyaanatero si 0.0769231
akemehanteri si 0.0769231
tsanoerentsi collar 1.0000000
tyempoya regresa 0.3333333
riyaati regresa 0.3333333
rantavaeti regresa 0.3333333
irotake y 0.0714286
shitovanake y 0.0714286
rookanakeri y 0.0714286
eehati y 0.3571429
NULL y 0.0714286
peyari y 0.0714286
ratsikavakeri y 0.0714286
rootake y 0.0714286
otenkanaki y 0.0714286
pantavaka y 0.0714286
onkotsiteri zapallos 0.5000000
kemi zapallos 0.5000000
ipatsaakaanti produce 1.0000000
piyaatake vayas 0.5000000
hantariki vayas 0.5000000
kachaarentsi humo 0.5000000
otinaantari humo 0.5000000
aritapaake basta 1.0000000
inkaariveri toser 0.3333333
totiroki toser 0.3333333
ovahempiakari toser 0.3333333
ikenavaete cazar 0.1666667
ikenavaetantakari cazar 0.1666667
ramene cazar 0.1666667
nonkentantyaari cazar 0.1666667
ikenavaeti cazar 0.1666667
ikinavaeti cazar 0.1666667
ikaemakantaetiri hacen 1.0000000
chochoki huayos 1.0000000
pishiye corre 0.5000000
intsipaeni corre 0.5000000
komarontsi remo 0.3333333
iyomaro remo 0.3333333
raetiro remo 0.3333333
inkaareki huasacos 0.5000000
chenkoripaye huasacos 0.5000000
nihapaye secan 1.0000000
ivaatrote patrón 1.0000000
ayiini suegra 0.5000000
okaemakantiro suegra 0.5000000
hanta allá 1.0000000
iyotiro experto 1.0000000
evonkiri pequeño 1.0000000
ikentavaeti pesca 0.3333333
akachavaerenti pesca 0.3333333
rakachatiri pesca 0.3333333
rovetsikake preparó 0.5000000
shimperi preparó 0.5000000
imentaina cresta 1.0000000
ipakenari difícil 0.5000000
nyaantsi difícil 0.5000000
ovaantsipooshiki hoja 1.0000000
mariapake echó 0.2000000
