, no ||| , ero ||| 0.6 0.2 0.2 0.2 0.2 0.6
, pero no ||| iro kantimaetacha te ||| 0.6 0.2 0.2 0.6 0.2 0.2
, pero ||| iro kantimaetacha ||| 0.714286 0.142857 0.142857 0.714286 0.142857 0.142857
, pero ||| kantimaetacha ||| 0.6 0.2 0.2 0.6 0.2 0.2
, por eso ||| , irohatsi ||| 0.6 0.2 0.2 0.6 0.2 0.2
, ||| , ||| 0.939394 0.030303 0.030303 0.878788 0.030303 0.0909091
, ||| iro ||| 0.777778 0.111111 0.111111 0.777778 0.111111 0.111111
, ||| pikemakena ||| 0.2 0.6 0.2 0.2 0.2 0.6
. ||| . ||| 0.927928 0.000693001 0.0713791 0.998614 0.000693001 0.000693001
. ||| iviare ||| 0.2 0.2 0.6 0.6 0.2 0.2
. ||| shima . ||| 0.6 0.2 0.2 0.6 0.2 0.2
. ||| tyaapa . ||| 0.2 0.2 0.6 0.6 0.2 0.2
? ||| ? ||| 0.2 0.2 0.6 0.6 0.2 0.2
a buscar ||| amene ||| 0.6 0.2 0.2 0.6 0.2 0.2
a buscar ||| ramini ||| 0.6 0.2 0.2 0.6 0.2 0.2
a la ||| opooki ||| 0.2 0.6 0.2 0.2 0.2 0.6
a la ||| tonkareki ||| 0.2 0.2 0.6 0.2 0.2 0.6
a los ||| ikantanakeri ||| 0.6 0.2 0.2 0.6 0.2 0.2
a mi hermano ||| yeye ||| 0.2 0.6 0.2 0.2 0.2 0.6
a su nieto ||| icharine ||| 0.428571 0.142857 0.428571 0.428571 0.142857 0.428571
a su ||| rareetajea ||| 0.2 0.2 0.6 0.6 0.2 0.2
a traer ||| ayi ||| 0.714286 0.142857 0.142857 0.428571 0.142857 0.428571
a traer ||| raye ||| 0.714286 0.142857 0.142857 0.714286 0.142857 0.142857
a traer ||| rayi ||| 0.142857 0.142857 0.714286 0.714286 0.142857 0.142857
a ||| apani ||| 0.428571 0.142857 0.428571 0.428571 0.142857 0.428571
a ||| iiti ||| 0.2 0.6 0.2 0.2 0.2 0.6
a ||| ivotsore ||| 0.6 0.2 0.2 0.6 0.2 0.2
a ||| iyereto ||| 0.2 0.2 0.6 0.6 0.2 0.2
a ||| rareetajea ||| 0.2 0.2 0.6 0.2 0.2 0.6
a ||| ratsikakeri ||| 0.2 0.2 0.6 0.2 0.2 0.6
a ||| ratsikakiri kentavo ||| 0.6 0.2 0.2 0.6 0.2 0.2
a ||| ratsikakiri ||| 0.6 0.2 0.2 0.2 0.2 0.6
abuelo ||| charine ||| 0.636364 0.0909091 0.272727 0.636364 0.0909091 0.272727
agua . ||| niha . ||| 0.6 0.2 0.2 0.6 0.2 0.2
agua ||| niha ||| 0.692308 0.0769231 0.230769 0.692308 0.0769231 0.230769
ahora que ||| ironyaaka namanantakera ||| 0.6 0.2 0.2 0.6 0.2 0.2
ahora ||| ironyaaka ||| 0.6 0.2 0.2 0.6 0.2 0.2
al monte ||| antamiki ||| 0.2 0.2 0.6 0.2 0.2 0.6
animales . ||| poshiniri . ||| 0.6 0.2 0.2 0.6 0.2 0.2
animales ||| poshiniri ||| 0.6 0.2 0.2 0.6 0.2 0.2
aquí ||| haka ||| 0.6 0.2 0.2 0.6 0.2 0.2
arriba . ||| henoki . ||| 0.6 0.2 0.2 0.6 0.2 0.2
arriba ||| henoki ||| 0.6 0.2 0.2 0.6 0.2 0.2
bien ||| kametsa ||| 0.692308 0.0769231 0.230769 0.692308 0.0769231 0.230769
blanco ||| kitamaari ||| 0.6 0.2 0.2 0.6 0.2 0.2
blanco ||| rovakavo ||| 0.2 0.2 0.6 0.2 0.6 0.2
bota ||| pookero ||| 0.6 0.2 0.2 0.6 0.2 0.2
carne de ||| ivatsa ||| 0.428571 0.142857 0.428571 0.714286 0.142857 0.142857
carne ||| vatsatsi ||| 0.2 0.2 0.6 0.6 0.2 0.2
casa del ||| ipankoki ||| 0.6 0.2 0.2 0.6 0.2 0.2
casa ||| intsipaete ||| 0.2 0.2 0.6 0.6 0.2 0.2
casa ||| ipankoki ||| 0.428571 0.142857 0.428571 0.714286 0.142857 0.142857
casa ||| pankotsi ||| 0.2 0.2 0.6 0.6 0.2 0.2
caído ||| tyaentsiri ||| 0.6 0.2 0.2 0.6 0.2 0.2
cerca ||| okaakini ||| 0.6 0.2 0.2 0.6 0.2 0.2
chimicua ||| onati ||| 0.6 0.2 0.2 0.6 0.2 0.2
chimicua ||| pamaki ||| 0.333333 0.111111 0.555556 0.333333 0.111111 0.555556
come ||| rovatya ||| 0.2 0.2 0.6 0.2 0.6 0.2
come ||| rovavo ||| 0.0666667 0.0666667 0.866667 0.0666667 0.6 0.333333
comer . ||| royaari . ||| 0.6 0.2 0.2 0.6 0.2 0.2
comer ||| royaari ||| 0.6 0.2 0.2 0.6 0.2 0.2
comió a ||| ratsikakeri ||| 0.2 0.2 0.6 0.2 0.2 0.6
comió el ||| rovakari ||| 0.2 0.2 0.6 0.2 0.2 0.6
comió el ||| rovakavo ||| 0.2 0.2 0.6 0.2 0.6 0.2
comió la ||| rovakavo ||| 0.2 0.2 0.6 0.2 0.6 0.2
comió ||| rovakari ||| 0.142857 0.142857 0.714286 0.428571 0.428571 0.142857
comió ||| rovakavo ||| 0.2 0.2 0.6 0.2 0.6 0.2
cosas ||| pinavontsini ||| 0.2 0.2 0.6 0.2 0.2 0.6
cuando ||| aririka ||| 0.777778 0.037037 0.185185 0.925926 0.037037 0.037037
cushma ||| kitsarentsi ||| 0.2 0.2 0.6 0.6 0.2 0.2
cuñado ||| ani ||| 0.2 0.6 0.2 0.2 0.2 0.6
darle de comer ||| rovakaeyavo ||| 0.6 0.2 0.2 0.6 0.2 0.2
de la ||| , rovavakari tyaapa ||| 0.2 0.6 0.2 0.2 0.2 0.6
de la ||| , rovavakari ||| 0.2 0.6 0.2 0.2 0.2 0.6
de la ||| omenta ||| 0.2 0.2 0.6 0.2 0.2 0.6
de la ||| rovavakari tyaapa ||| 0.2 0.2 0.6 0.2 0.2 0.6
de la ||| rovavakari ||| 0.2 0.2 0.6 0.2 0.2 0.6
de mi ||| otyaapate nana ||| 0.2 0.2 0.6 0.2 0.2 0.6
de mi ||| otyaapate ||| 0.2 0.2 0.6 0.2 0.2 0.6
de pescado ||| shima ||| 0.2 0.2 0.6 0.6 0.2 0.2
de un ||| omooki ||| 0.6 0.2 0.2 0.6 0.2 0.2
de un árbol ||| omooki inchato ||| 0.6 0.2 0.2 0.6 0.2 0.2
de ||| , rovavakari tyaapa ||| 0.2 0.2 0.6 0.2 0.2 0.6
de ||| , rovavakari ||| 0.2 0.2 0.6 0.2 0.2 0.6
de ||| areetanta ||| 0.6 0.2 0.2 0.2 0.2 0.6
de ||| henoki ||| 0.2 0.2 0.6 0.6 0.2 0.2
de ||| omenta ||| 0.2 0.2 0.6 0.2 0.2 0.6
de ||| oshi ||| 0.2 0.2 0.6 0.6 0.2 0.2
de ||| otyaapate nana ||| 0.2 0.2 0.6 0.2 0.2 0.6
de ||| otyaapate ||| 0.2 0.2 0.6 0.2 0.2 0.6
de ||| ponatake ||| 0.2 0.2 0.6 0.2 0.2 0.6
de ||| rovavakari tyaapa ||| 0.2 0.2 0.6 0.2 0.2 0.6
de ||| rovavakari ||| 0.2 0.2 0.6 0.2 0.2 0.6
debajo ||| otapinaki ||| 0.6 0.2 0.2 0.2 0.2 0.6
dejó a ||| rokakiro ||| 0.6 0.2 0.2 0.6 0.2 0.2
del ||| antavoki ||| 0.6 0.2 0.2 0.6 0.2 0.2
dice ||| ikanti ||| 0.142857 0.142857 0.714286 0.142857 0.714286 0.142857
dice ||| okanti ||| 0.2 0.2 0.6 0.2 0.6 0.2
diciendo ||| ikantiro ||| 0.6 0.2 0.2 0.6 0.2 0.2
dijo a ||| ikantakeri ||| 0.2 0.2 0.6 0.2 0.6 0.2
dijo a ||| okantakeri ||| 0.2 0.2 0.6 0.2 0.6 0.2
dijo a ||| okantiro ||| 0.2 0.2 0.6 0.2 0.6 0.2
dijo ||| ikantakeri ||| 0.2 0.2 0.6 0.2 0.2 0.6
dijo ||| ikantanake ||| 0.2 0.2 0.6 0.2 0.6 0.2
dijo ||| ikanti ||| 0.2 0.2 0.6 0.2 0.2 0.6
dijo ||| okantanake ||| 0.2 0.2 0.6 0.2 0.6 0.2
dijo ||| piyatsare ||| 0.2 0.2 0.6 0.6 0.2 0.2
dio ||| ipakeri ||| 0.2 0.2 0.6 0.2 0.6 0.2
duro ||| inchaki ||| 0.2 0.2 0.6 0.6 0.2 0.2
dónde ||| hempe ||| 0.6 0.2 0.2 0.6 0.2 0.2
el abuelo ||| charine ||| 0.0769231 0.846154 0.0769231 0.0769231 0.0769231 0.846154
el hueco ||| omoonaki ||| 0.142857 0.142857 0.714286 0.428571 0.142857 0.428571
el niño ||| eentsi ||| 0.111111 0.777778 0.111111 0.333333 0.111111 0.555556
el niño ||| entsi ||| 0.142857 0.714286 0.142857 0.142857 0.142857 0.714286
el niño ||| iriani ||| 0.111111 0.777778 0.111111 0.111111 0.111111 0.777778
el rio . ||| nihaaki . ||| 0.2 0.2 0.6 0.6 0.2 0.2
el rio ||| nihaaki ||| 0.2 0.2 0.6 0.6 0.2 0.2
el ||| . ||| 0.2 0.6 0.2 0.2 0.2 0.6
el ||| charine ||| 0.2 0.2 0.6 0.2 0.2 0.6
el ||| choori ||| 0.2 0.6 0.2 0.2 0.2 0.6
el ||| entsi ||| 0.2 0.2 0.6 0.2 0.2 0.6
el ||| hankiro ||| 0.2 0.2 0.6 0.2 0.2 0.6
el ||| hantsare ||| 0.6 0.2 0.2 0.2 0.2 0.6
el ||| iriani ||| 0.2 0.2 0.6 0.2 0.2 0.6
el ||| itonki ||| 0.2 0.6 0.2 0.2 0.2 0.6
el ||| matsontsori ||| 0.2 0.2 0.6 0.2 0.2 0.6
el ||| nana rovatsitapakeri ||| 0.2 0.2 0.6 0.2 0.2 0.6
el ||| pitsitake ||| 0.6 0.2 0.2 0.6 0.2 0.2
el ||| rovakari ||| 0.6 0.2 0.2 0.6 0.2 0.2
el ||| rovatsitapakeri ||| 0.2 0.2 0.6 0.2 0.2 0.6
ella es ||| rootaki ||| 0.6 0.2 0.2 0.2 0.2 0.6
ella ||| rootaki ||| 0.6 0.2 0.2 0.2 0.2 0.6
en el agua ||| nihaaki ||| 0.2 0.2 0.6 0.6 0.2 0.2
en el ||| imaavaeti ||| 0.2 0.2 0.6 0.2 0.2 0.6
en el ||| sheri ||| 0.2 0.2 0.6 0.6 0.2 0.2
en la ||| machaki ||| 0.2 0.2 0.6 0.2 0.2 0.6
en la ||| nyaantsi ||| 0.2 0.2 0.6 0.6 0.2 0.2
en la ||| otaki kaniri ||| 0.2 0.2 0.6 0.2 0.2 0.6
en la ||| otaki ||| 0.2 0.2 0.6 0.2 0.2 0.6
en la ||| tsopiro ||| 0.6 0.2 0.2 0.6 0.2 0.2
en ||| antari ||| 0.6 0.2 0.2 0.6 0.2 0.2
en ||| haekanaentsiri ||| 0.6 0.2 0.2 0.6 0.2 0.2
en ||| machaki ||| 0.2 0.2 0.6 0.2 0.2 0.6
en ||| ovametantayetatsiri , ||| 0.2 0.2 0.6 0.2 0.2 0.6
en ||| ovametantayetatsiri ||| 0.2 0.2 0.6 0.2 0.2 0.6
era un ||| inyaashitakavo ||| 0.2 0.2 0.6 0.2 0.2 0.6
era ||| inyaashitakavo ||| 0.2 0.2 0.6 0.2 0.2 0.6
es una ||| irootake ||| 0.6 0.2 0.2 0.6 0.2 0.2
es ||| ari ||| 0.2 0.2 0.6 0.2 0.2 0.6
es ||| osheki ||| 0.6 0.2 0.2 0.6 0.2 0.2
es ||| pamakira ||| 0.6 0.2 0.2 0.6 0.2 0.2
ese ||| ironta ||| 0.714286 0.142857 0.142857 0.714286 0.142857 0.142857
esta ||| iroka ||| 0.578947 0.0526316 0.368421 0.894737 0.0526316 0.0526316
este ||| irika ||| 0.862069 0.0344828 0.103448 0.931034 0.0344828 0.0344828
este ||| iroka ||| 0.555556 0.333333 0.111111 0.555556 0.111111 0.333333
estoy ||| naati ||| 0.6 0.2 0.2 0.2 0.2 0.6
flor ||| inchateyaki kiteriri avotsiki ||| 0.2 0.2 0.6 0.2 0.2 0.6
fue a ||| raatsi ||| 0.2 0.2 0.6 0.2 0.6 0.2
fue a ||| riyaatati ||| 0.2 0.2 0.6 0.2 0.6 0.2
fue a ||| riyaati ||| 0.2 0.2 0.6 0.2 0.6 0.2
fue al ||| hatake ||| 0.142857 0.142857 0.714286 0.142857 0.714286 0.142857
fue ||| iriitake ||| 0.2 0.2 0.6 0.2 0.6 0.2
fue ||| iyatzi ||| 0.6 0.2 0.2 0.6 0.2 0.2
fue ||| riyaati ||| 0.142857 0.142857 0.714286 0.142857 0.714286 0.142857
grande ||| antari ||| 0.294118 0.0588235 0.647059 0.294118 0.411765 0.294118
grasa ||| iyeenka ||| 0.6 0.2 0.2 0.6 0.2 0.2
grillo ||| tsipanashi ||| 0.2 0.2 0.6 0.2 0.2 0.6
haber ||| raaki ||| 0.2 0.2 0.6 0.2 0.2 0.6
hace ||| anti ||| 0.6 0.2 0.2 0.6 0.2 0.2
hacer ||| nantantyaari ||| 0.6 0.2 0.2 0.6 0.2 0.2
hay ||| aeniro ||| 0.6 0.2 0.2 0.6 0.2 0.2
hay ||| timatsi ||| 0.6 0.2 0.2 0.6 0.2 0.2
hermana , ||| entyo , ||| 0.6 0.2 0.2 0.6 0.2 0.2
hermana ||| choeni ||| 0.2 0.6 0.2 0.2 0.2 0.6
hermana ||| entyo ||| 0.6 0.2 0.2 0.6 0.2 0.2
hermano , ||| aari ||| 0.428571 0.428571 0.142857 0.428571 0.142857 0.428571
hermano , ||| iye , ||| 0.6 0.2 0.2 0.6 0.2 0.2
hermano ||| iye ||| 0.6 0.2 0.2 0.6 0.2 0.2
hijo ||| itomi ||| 0.2 0.2 0.6 0.6 0.2 0.2
hijos . ||| otomipaye . ||| 0.6 0.2 0.2 0.6 0.2 0.2
hijos ||| otomipaye ||| 0.6 0.2 0.2 0.6 0.2 0.2
hizo ||| shantyoma ||| 0.2 0.2 0.6 0.2 0.2 0.6
hombre ||| atiri ||| 0.466667 0.0666667 0.466667 0.6 0.0666667 0.333333
hombre ||| shirampari ||| 0.428571 0.142857 0.428571 0.428571 0.142857 0.428571
ir a ||| ishitsa ||| 0.2 0.2 0.6 0.6 0.2 0.2
jaló ||| inoshikake ||| 0.2 0.2 0.6 0.2 0.6 0.2
la abuela ||| isheeni ||| 0.333333 0.619048 0.047619 0.428571 0.047619 0.52381
la abuela ||| isheni ||| 0.2 0.6 0.2 0.2 0.0666667 0.733333
la candela . ||| paamareki . ||| 0.6 0.2 0.2 0.6 0.2 0.2
la candela . ||| paamari . ||| 0.6 0.2 0.2 0.6 0.2 0.2
la candela ||| paamareki ||| 0.6 0.2 0.2 0.6 0.2 0.2
la candela ||| paamari ||| 0.454545 0.272727 0.272727 0.818182 0.0909091 0.0909091
la casa ||| ipankoki ||| 0.6 0.2 0.2 0.6 0.2 0.2
la casa ||| pankotsiki ||| 0.636364 0.0909091 0.272727 0.818182 0.0909091 0.0909091
la espina ||| kitoche ||| 0.2 0.6 0.2 0.2 0.2 0.6
la lluvia ||| inkani ||| 0.6 0.2 0.2 0.2 0.2 0.6
la luna ||| kashiri ||| 0.2 0.6 0.2 0.2 0.2 0.6
la mujer ||| tsinane ||| 0.333333 0.333333 0.333333 0.555556 0.111111 0.333333
la olla ||| kotsironaki ||| 0.6 0.2 0.2 0.6 0.2 0.2
la yuca ||| kaniri ||| 0.6 0.2 0.2 0.6 0.2 0.2
la yuca ||| metsotake kaniri ||| 0.6 0.2 0.2 0.6 0.2 0.2
la ||| evankavo ||| 0.2 0.2 0.6 0.2 0.2 0.6
la ||| iheekantavo ||| 0.2 0.2 0.6 0.2 0.2 0.6
la ||| ikaavoshita ||| 0.6 0.2 0.2 0.6 0.2 0.2
la ||| ikentakeri ||| 0.538462 0.0769231 0.384615 0.384615 0.0769231 0.538462
la ||| imoreki ||| 0.2 0.2 0.6 0.2 0.2 0.6
la ||| impohakeri ||| 0.6 0.2 0.2 0.6 0.2 0.2
la ||| ishetaki ||| 0.2 0.2 0.6 0.2 0.2 0.6
la ||| metsotake ||| 0.6 0.2 0.2 0.6 0.2 0.2
la ||| otaki kaniri ||| 0.2 0.2 0.6 0.2 0.2 0.6
la ||| otaki ||| 0.2 0.2 0.6 0.2 0.2 0.6
la ||| shikiri ||| 0.2 0.2 0.6 0.2 0.2 0.6
la ||| tonkareki ||| 0.2 0.2 0.6 0.2 0.2 0.6
laja ||| oshirantaaki ||| 0.6 0.2 0.2 0.6 0.2 0.2
largo ||| hantsari ||| 0.6 0.2 0.2 0.6 0.2 0.2
largo ||| tsompari ||| 0.6 0.2 0.2 0.6 0.2 0.2
las cosas ||| pinavontsini ||| 0.6 0.2 0.2 0.2 0.2 0.6
las hojas ||| tsipana ||| 0.6 0.2 0.2 0.6 0.2 0.2
las ||| aavintantatsiri ||| 0.2 0.2 0.6 0.2 0.2 0.6
las ||| ipori ||| 0.2 0.2 0.6 0.2 0.2 0.6
le dejó ||| rookanakeri ||| 0.2 0.2 0.6 0.6 0.2 0.2
le dijo a ||| ikantakeri ||| 0.2 0.2 0.6 0.2 0.6 0.2
le dijo a ||| ikantakero ||| 0.2 0.2 0.6 0.2 0.6 0.2
le dijo a ||| ikantapaakeri ||| 0.2 0.2 0.6 0.2 0.6 0.2
le dijo a ||| okantiro ||| 0.2 0.2 0.6 0.2 0.6 0.2
le dio ||| ipakeri ||| 0.142857 0.142857 0.714286 0.142857 0.714286 0.142857
le ||| ikiahempiakari ||| 0.2 0.2 0.6 0.2 0.2 0.6
le ||| ratsotiro ||| 0.6 0.2 0.2 0.2 0.2 0.6
lleno de ||| haaka ||| 0.142857 0.142857 0.714286 0.428571 0.428571 0.142857
lluvia . ||| inkani . ||| 0.2 0.2 0.6 0.6 0.2 0.2
lluvia ||| inkani ||| 0.142857 0.142857 0.714286 0.428571 0.142857 0.428571
lo que ||| nantero ||| 0.6 0.2 0.2 0.6 0.2 0.2
lo ||| itsinampaitakeri ||| 0.2 0.2 0.6 0.2 0.6 0.2
los niños ||| eentsipaye ||| 0.555556 0.333333 0.111111 0.555556 0.111111 0.333333
los niños ||| irianeriki ||| 0.2 0.6 0.2 0.2 0.2 0.6
los ||| apinka ||| 0.6 0.2 0.2 0.6 0.2 0.2
los ||| maeyakeni ||| 0.6 0.2 0.2 0.6 0.2 0.2
los ||| ovenihati ||| 0.2 0.6 0.2 0.2 0.2 0.6
luego ||| piriintaha ||| 0.2 0.2 0.6 0.6 0.2 0.2
luna ||| kashiri ||| 0.2 0.2 0.6 0.2 0.2 0.6
mano ||| cheenti ||| 0.2 0.2 0.6 0.6 0.2 0.2
maní . ||| inki . ||| 0.6 0.2 0.2 0.6 0.2 0.2
maní ||| inki ||| 0.6 0.2 0.2 0.6 0.2 0.2
masato ||| piarentsi ||| 0.391304 0.217391 0.391304 0.652174 0.0434783 0.304348
maíz que ||| ishinkine ||| 0.2 0.2 0.6 0.6 0.2 0.2
maíz ||| shinki ||| 0.142857 0.142857 0.714286 0.714286 0.142857 0.142857
metió ||| otetaka ||| 0.2 0.2 0.6 0.2 0.2 0.6
mi hermano ||| yeye ||| 0.189873 0.594937 0.21519 0.291139 0.0632911 0.64557
mi hija ||| nishintyo ||| 0.333333 0.555556 0.111111 0.333333 0.111111 0.555556
mi hijo ||| notyomi ||| 0.230769 0.692308 0.0769231 0.230769 0.0769231 0.692308
mi ||| cheenkari ||| 0.2 0.6 0.2 0.2 0.2 0.6
mi ||| pava ||| 0.2 0.2 0.6 0.2 0.2 0.6
mira ||| pamenero ||| 0.6 0.2 0.2 0.6 0.2 0.2
mira ||| ramene ||| 0.6 0.2 0.2 0.6 0.2 0.2
mira ||| raminiro ||| 0.2 0.2 0.6 0.2 0.6 0.2
monte ||| antamiki ||| 0.230769 0.0769231 0.692308 0.692308 0.0769231 0.230769
mujer . ||| iina . ||| 0.6 0.2 0.2 0.6 0.2 0.2
mujer . ||| tsinane . ||| 0.6 0.2 0.2 0.6 0.2 0.2
mujer embarazada ||| kooya motinto ||| 0.6 0.2 0.2 0.6 0.2 0.2
mujer ||| iina ||| 0.428571 0.142857 0.428571 0.428571 0.142857 0.428571
mujer ||| tsinane ||| 0.538462 0.0769231 0.384615 0.538462 0.0769231 0.384615
muy ||| osheki ||| 0.2 0.2 0.6 0.2 0.6 0.2
negro ||| cheenkari ||| 0.6 0.2 0.2 0.6 0.2 0.2
nieto . ||| ohari . ||| 0.6 0.2 0.2 0.6 0.2 0.2
nieto ||| ohari ||| 0.6 0.2 0.2 0.6 0.2 0.2
niño ||| eentsi osheki ||| 0.2 0.6 0.2 0.2 0.2 0.6
niño ||| eentsi ||| 0.428571 0.142857 0.428571 0.428571 0.047619 0.52381
niño ||| iriani ||| 0.2 0.2 0.6 0.2 0.2 0.6
niños ||| eentsipaye ||| 0.6 0.2 0.2 0.6 0.2 0.2
no ||| eero ||| 0.62963 0.037037 0.333333 0.703704 0.037037 0.259259
no ||| ero ||| 0.6 0.2 0.2 0.2 0.2 0.6
no ||| te ||| 0.866667 0.0666667 0.0666667 0.866667 0.0666667 0.0666667
no ||| tee ||| 0.6 0.2 0.2 0.6 0.2 0.2
no ||| tekatsi ||| 0.6 0.2 0.2 0.6 0.2 0.2
olla . ||| koviti . ||| 0.6 0.2 0.2 0.6 0.2 0.2
olla ||| koviti ||| 0.6 0.2 0.2 0.6 0.2 0.2
orilla del ||| otsapiaki ||| 0.333333 0.111111 0.555556 0.777778 0.111111 0.111111
otra ||| otsipa ||| 0.6 0.2 0.2 0.6 0.2 0.2
padre ||| iriri ||| 0.6 0.2 0.2 0.6 0.2 0.2
pajaritos ||| tsimeripaye ||| 0.6 0.2 0.2 0.6 0.2 0.2
palo ||| inchaki ||| 0.6 0.2 0.2 0.6 0.2 0.2
palo ||| inchato ||| 0.454545 0.272727 0.272727 0.454545 0.0909091 0.454545
palo ||| paato ||| 0.6 0.2 0.2 0.6 0.2 0.2
papá ||| apa ||| 0.111111 0.555556 0.333333 0.111111 0.333333 0.555556
para que ||| pivavitero ||| 0.2 0.2 0.6 0.2 0.2 0.6
para ||| chavari ||| 0.2 0.2 0.6 0.6 0.2 0.2
para ||| ikentantyaariri ||| 0.6 0.2 0.2 0.6 0.2 0.2
para ||| mampetsa ||| 0.6 0.2 0.2 0.6 0.2 0.2
para ||| oitsare ||| 0.6 0.2 0.2 0.6 0.2 0.2
para ||| ovantyaari ||| 0.6 0.2 0.2 0.6 0.2 0.2
para ||| raati ||| 0.142857 0.142857 0.714286 0.142857 0.142857 0.714286
para ||| rantantyari ||| 0.714286 0.142857 0.142857 0.714286 0.142857 0.142857
pensó ||| iro ||| 0.2 0.2 0.6 0.2 0.2 0.6
pequeño ||| evonkiri ||| 0.2 0.2 0.6 0.2 0.6 0.2
pero no ||| kantimaetacha te ||| 0.6 0.2 0.2 0.6 0.2 0.2
pero ||| kantimaetacha ||| 0.6 0.2 0.2 0.6 0.2 0.2
persona ||| atiri ||| 0.428571 0.142857 0.428571 0.142857 0.142857 0.714286
pescado ||| shima ||| 0.333333 0.111111 0.555556 0.555556 0.111111 0.333333
piedra ||| mapi ||| 0.6 0.2 0.2 0.6 0.2 0.2
por eso ||| irohatsi ||| 0.6 0.2 0.2 0.6 0.2 0.2
por ||| aririka ||| 0.6 0.2 0.2 0.6 0.2 0.2
por ||| ikovi ||| 0.6 0.2 0.2 0.6 0.2 0.2
por ||| irohati ||| 0.6 0.2 0.2 0.6 0.2 0.2
que comía ||| rovaveta ||| 0.6 0.2 0.2 0.6 0.2 0.2
que era ||| inyaashitakavo ||| 0.2 0.2 0.6 0.2 0.6 0.2
que no ||| ero ||| 0.6 0.2 0.2 0.6 0.2 0.2
que ||| ihaekantavo ||| 0.2 0.2 0.6 0.2 0.2 0.6
que ||| mereto ||| 0.2 0.2 0.6 0.2 0.2 0.6
que ||| namanantakera ||| 0.6 0.2 0.2 0.6 0.2 0.2
que ||| raakeri ||| 0.6 0.2 0.2 0.6 0.2 0.2
quiero ||| nokovi ||| 0.6 0.2 0.2 0.6 0.2 0.2
qué ||| iita ||| 0.6 0.2 0.2 0.6 0.2 0.2
roca ||| iheki ovae omoki impetaki ||| 0.2 0.2 0.6 0.6 0.2 0.2
sacar ||| raahero ||| 0.6 0.2 0.2 0.6 0.2 0.2
se cayó ||| pariakotanake ||| 0.6 0.2 0.2 0.6 0.2 0.2
se comió ||| ivakavo ||| 0.2 0.2 0.6 0.2 0.6 0.2
se metió ||| otetaka ||| 0.2 0.2 0.6 0.2 0.6 0.2
se sumergió ||| tsitsiyake ||| 0.2 0.2 0.6 0.2 0.6 0.2
se va ||| iyati ||| 0.2 0.2 0.6 0.2 0.6 0.2
se va ||| oyaati ||| 0.6 0.2 0.2 0.6 0.2 0.2
se ||| aake ||| 0.6 0.2 0.2 0.6 0.2 0.2
se ||| ahopi ||| 0.2 0.2 0.6 0.2 0.6 0.2
se ||| ishintipare ||| 0.6 0.2 0.2 0.2 0.2 0.6
se ||| napo ||| 0.6 0.2 0.2 0.2 0.2 0.6
se ||| riyaati ||| 0.2 0.2 0.6 0.2 0.6 0.2
sin embargo ||| kantaenchari ||| 0.2 0.2 0.6 0.2 0.2 0.6
su casa ||| intsipaete ||| 0.6 0.2 0.2 0.6 0.2 0.2
su casa ||| ipanko ||| 0.777778 0.111111 0.111111 0.777778 0.111111 0.111111
su esposa ||| iina ||| 0.6 0.2 0.2 0.6 0.2 0.2
su hija ||| ishinto ||| 0.428571 0.142857 0.428571 0.714286 0.142857 0.142857
su hijo . ||| itomi . ||| 0.428571 0.142857 0.428571 0.714286 0.142857 0.142857
su hijo ||| itomi ||| 0.466667 0.2 0.333333 0.733333 0.0666667 0.2
su nieto ||| omperiri ohari ||| 0.6 0.2 0.2 0.6 0.2 0.2
su ||| omperiri ||| 0.6 0.2 0.2 0.6 0.2 0.2
subir ||| rataetero ||| 0.142857 0.142857 0.714286 0.142857 0.428571 0.428571
subió ||| tonkake ||| 0.2 0.2 0.6 0.2 0.6 0.2
techo ||| ipanko ||| 0.2 0.2 0.6 0.2 0.6 0.2
tengo ||| ari ||| 0.6 0.2 0.2 0.6 0.2 0.2
tengo ||| oshekini ||| 0.6 0.2 0.2 0.6 0.2 0.2
tiene bastante ||| oshekini ||| 0.6 0.2 0.2 0.6 0.2 0.2
tiene ||| otimi ||| 0.142857 0.142857 0.714286 0.714286 0.142857 0.142857
tierra ||| kipatsi ||| 0.2 0.2 0.6 0.6 0.2 0.2
todo ||| maaroni ||| 0.428571 0.142857 0.428571 0.142857 0.142857 0.714286
trajo ||| amake ||| 0.142857 0.142857 0.714286 0.142857 0.714286 0.142857
trajo ||| amakeri ||| 0.2 0.2 0.6 0.2 0.6 0.2
trajo ||| ramake ||| 0.2 0.2 0.6 0.2 0.6 0.2
trajo ||| ramaki ||| 0.142857 0.142857 0.714286 0.142857 0.714286 0.142857
tu hermano ||| pirenti ||| 0.714286 0.142857 0.142857 0.714286 0.142857 0.142857
tu madre ||| okaematimi ||| 0.6 0.2 0.2 0.6 0.2 0.2
tu ||| piyahankarite ||| 0.6 0.2 0.2 0.6 0.2 0.2
un ||| apaani ||| 0.714286 0.142857 0.142857 0.714286 0.142857 0.142857
un ||| iitachari ||| 0.2 0.2 0.6 0.2 0.2 0.6
un ||| inyaane ||| 0.2 0.2 0.6 0.2 0.2 0.6
un ||| itonkake ||| 0.6 0.2 0.2 0.2 0.2 0.6
un árbol ||| inchatoki ||| 0.6 0.2 0.2 0.6 0.2 0.2
una olla ||| apani koviti ||| 0.6 0.2 0.2 0.6 0.2 0.2
una perdiz ||| kentsori ||| 0.2 0.2 0.6 0.6 0.2 0.2
una persona ||| apani atiri ||| 0.2 0.2 0.6 0.2 0.2 0.6
una ||| apani ||| 0.428571 0.142857 0.428571 0.714286 0.142857 0.142857
va a ||| opare ||| 0.6 0.2 0.2 0.6 0.2 0.2
va a ||| oyaati ||| 0.142857 0.142857 0.714286 0.142857 0.714286 0.142857
va a ||| riyaatatye ||| 0.2 0.2 0.6 0.2 0.6 0.2
va ||| iyaati ||| 0.6 0.2 0.2 0.6 0.2 0.2
va ||| oyaati ||| 0.111111 0.111111 0.777778 0.333333 0.555556 0.111111
va ||| ramaatakoti ||| 0.2 0.2 0.6 0.2 0.6 0.2
va ||| riyati ||| 0.2 0.2 0.6 0.2 0.6 0.2
vamos a ||| tsame ||| 0.777778 0.111111 0.111111 0.777778 0.111111 0.111111
venado ||| maniro ||| 0.478261 0.217391 0.304348 0.565217 0.0434783 0.391304
vi ||| nonyaake ||| 0.555556 0.111111 0.333333 0.777778 0.111111 0.111111
vio ||| inyake ||| 0.2 0.2 0.6 0.2 0.6 0.2
vive el ||| inampitavo ||| 0.6 0.2 0.2 0.6 0.2 0.2
vive ||| ihaeki ||| 0.142857 0.142857 0.714286 0.142857 0.714286 0.142857
y ||| eehati ||| 0.636364 0.0909091 0.272727 0.818182 0.0909091 0.0909091
ya está ||| mataka ||| 0.6 0.2 0.2 0.6 0.2 0.2
yo ||| naaka ||| 0.6 0.2 0.2 0.6 0.2 0.2
yuca . ||| iyaniri . ||| 0.6 0.2 0.2 0.6 0.2 0.2
yuca . ||| kaniri . ||| 0.538462 0.0769231 0.384615 0.846154 0.0769231 0.0769231
yuca ||| iyaniri ||| 0.6 0.2 0.2 0.6 0.2 0.2
yuca ||| kaniri ||| 0.6 0.04 0.36 0.68 0.04 0.28
¿ ||| ¿ ||| 0.578947 0.0526316 0.368421 0.578947 0.157895 0.263158
árbol ||| inchato ||| 0.793103 0.0344828 0.172414 0.862069 0.103448 0.0344828
árbol ||| koshiripaye ||| 0.6 0.2 0.2 0.6 0.2 0.2
