\data\
ngram 1=2067
ngram 2=3833
ngram 3=4084
ngram 4=3562
ngram 5=2826

\1-grams:
-3.6319559	<unk>	0
0	<s>	-0.3595212
-2.3679028	</s>	0
-3.5357146	paamaventya	-0.30103
-3.3679879	kaakitaki	-0.30103
-3.3679879	ovayeri	-0.30103
-0.8705274	.	-2.5373993
-2.6577141	eero	-0.30103
-3.5357146	pinyanatiro	-0.30103
-2.6090298	iina	-0.45593196
-3.0482519	yompiri	-0.30103
-2.1147494	,	-0.30103
-3.5357146	amaenkari	-0.30103
-3.3679879	inati	-0.30103
-3.3679879	amake	-0.30103
-3.3679879	noshavo	-0.30103
-3.5357146	koriti	-0.30103
-2.5254948	ovaantsiki	-0.6812413
-3.3679879	irika	-0.30103
-3.5357146	aaniri	-0.30103
-3.5357146	rashinonkaaka	-0.30103
-3.0482519	tekatsi	-0.30103
-3.5357146	iriripaye	-0.30103
-3.5357146	nonyaakero	-0.30103
-3.1979425	nanaeni	-0.30103
-3.5357146	aanakiro	-0.30103
-3.5357146	ovantire	-0.30103
-3.5357146	okantakina	-0.30103
-3.1979425	nishintyo	-0.30103
-2.129763	:	-0.3290587
-3.3679879	ramaki	-0.30103
-3.5357146	aapi	-0.30103
-3.1979425	shitovi	-0.30103
-3.5357146	okantakena	-0.30103
-2.2950673	choeni	-0.30103
-3.3679879	pamakena	-0.30103
-3.3679879	aari	-0.30103
-2.9371407	tsitsi	-0.39794
-3.5357146	aatonkoriakero	-0.30103
-3.1979425	ishinto	-0.30103
-3.3679879	oitsare	-0.30103
-3.5357146	okavoshitantyaavori	-0.30103
-3.5357146	pamakenari	-0.30103
-3.1979425	aventyari	-0.30103
-3.5357146	akaatavakeriita	-0.30103
-2.4242742	niha	-0.35902193
-3.5357146	haavari	-0.30103
-2.4890697	eentsi	-0.30103
-2.1002376	osheki	-0.30103
-3.5357146	ikaimi	-0.30103
-2.8487434	tsireniriki	-0.38021123
-3.5357146	navihakero	-0.30103
-3.1979425	nampitsi	-0.30103
-3.5357146	nareetantakari	-0.30103
-3.1979425	haka	-0.30103
-3.5357146	itsaati	-0.30103
-3.5357146	avo	-0.30103
-2.4554646	aririka	-0.30103
-3.5357146	inyee	-0.30103
-3.5357146	pokatsiri	-0.30103
-3.5357146	poyaatanakero	-0.30103
-3.3679879	avotsi	-0.30103
-3.5357146	hatatsiri	-0.30103
-3.5357146	kempityaariki	-0.30103
-3.5357146	ihampitiro	-0.30103
-2.1614425	charine	-0.3521825
-2.4242742	isheeni	-0.3309932
-3.1979425	¿	-0.30103
-3.5357146	aeniro	-0.30103
-2.5652568	piarentsi	-0.38818017
-3.5357146	nireri	-0.30103
-2.7125533	?	-0.50514996
-3.5357146	itsatakiro	-0.30103
-3.5357146	ahopi	-0.30103
-3.3679879	koriari	-0.30103
-3.5357146	ikahankantyaari	-0.30103
-3.5357146	pakeri	-0.30103
-2.3679028	pavachori	-0.30103
-3.5357146	ikaematimi	-0.30103
-3.5357146	ikantana	-0.30103
-3.3679879	nirentitsori	-0.30103
-3.3679879	poya	-0.30103
-3.0482519	mamori	-0.30103
-3.5357146	akacharentsi	-0.30103
-3.5357146	namanantake	-0.30103
-3.5357146	akachaarontsi	-0.30103
-3.5357146	akachatantyaari	-0.30103
-3.5357146	mamoripaye	-0.30103
-3.1979425	niyompari	-0.30103
-3.5357146	akachavaerenti	-0.30103
-3.5357146	kitaeterikipaye	-0.30103
-3.3679879	rova	-0.30103
-2.5652568	shima	-0.42596874
-3.5357146	rakachatiri	-0.30103
-3.1979425	shevankori	-0.30103
-3.3679879	komairi	-0.30103
-3.1979425	omotyaaki	-0.30103
-3.5357146	tasheyakena	-0.30103
-3.3679879	pimpena	-0.30103
-3.5357146	pakishire	-0.30103
-3.5357146	akishitiniri	-0.30103
-3.0482519	naana	-0.30103
-2.145314	apa	-0.30103
-2.4242742	kaniri	-0.43572855
-3.5357146	rakitsitatya	-0.30103
-2.0341682	yeye	-0.34802657
-3.5357146	paamariki	-0.30103
-3.5357146	itinairo	-0.30103
-3.5357146	irianeerikipaye	-0.30103
-3.5357146	rakopero	-0.30103
-3.5357146	rovaakiro	-0.30103
-3.0482519	entsi	-0.30103
-3.5357146	rako	-0.30103
-3.5357146	rakatsatantyaariri	-0.30103
-3.5357146	iriri	-0.30103
-3.5357146	aanakero	-0.30103
-3.5357146	amaani	-0.30103
-3.0482519	pitotsi	-0.30103
-3.5357146	ontimatye	-0.30103
-3.5357146	ramaate	-0.30103
-2.5652568	maniro	-0.30103
-3.5357146	imontyantyaavori	-0.30103
-3.5357146	oveniki	-0.30103
-3.5357146	ramaatakoti	-0.30103
-3.1979425	ishintipaareki	-0.30103
-3.5357146	riyaataero	-0.30103
-3.5357146	kirinka	-0.30103
-3.5357146	ramana	-0.30103
-3.3679879	shavashi	-0.30103
-2.9371407	ipankoki	-0.30103
-3.5357146	inyaanatero	-0.30103
-3.3679879	inyaane	-0.30103
-2.9371407	pava	-0.30103
-3.5357146	ramanantake	-0.30103
-3.1979425	korioviri	-0.30103
-2.8487434	ichenko	-0.30103
-3.1979425	cheenkari	-0.30103
-3.5357146	ramatavitakero	-0.30103
-3.3679879	kocheri	-0.30103
-3.3679879	ikantiro	-0.30103
-3.5357146	notonkake	-0.30103
-3.1979425	kaari	-0.30103
-3.5357146	maeta	-0.30103
-3.5357146	rovanakero	-0.30103
-2.7753317	pinkatsari	-0.30103
-3.5357146	ramatsaere	-0.30103
-2.9371407	ovakerari	-0.30103
-3.5357146	riyatantyaari	-0.30103
-3.5357146	rapatotya	-0.30103
-3.3679879	oriani	-0.30103
-3.5357146	nareetakitakavo	-0.30103
-3.3679879	ameeni	-0.30103
-3.5357146	nonyakiri	-0.30103
-2.4890697	antamiki	-0.60206
-2.5254948	antari	-0.30103
-3.5357146	amempori	-0.30103
-2.9371407	rovari	-0.30103
-3.5357146	shitsivari	-0.30103
-3.5357146	pamenero	-0.30103
-2.7753317	iroka	-0.30103
-3.5357146	shiyakaantsi	-0.30103
-3.5357146	pamenarotya	-0.30103
-3.0482519	hempe	-0.30103
-3.5357146	povatikerori	-0.30103
-3.3679879	pipanko	-0.30103
-3.1979425	maaroni	-0.30103
-3.5357146	rantayetiri	-0.30103
-3.5357146	ishako	-0.30103
-3.3679879	rantiro	-0.30103
-3.5357146	rampateki	-0.30103
-3.5357146	okoyaati	-0.30103
-3.5357146	ampe	-0.30103
-3.3679879	kitamaari	-0.30103
-3.5357146	itotakero	-0.30103
-3.3679879	hataantaneri	-0.30103
-3.5357146	amporetsate	-0.30103
-3.5357146	amiro	-0.30103
-2.7753317	tsinane	-0.30103
-3.5357146	ana	-0.30103
-3.3679879	eereki	-0.30103
-3.5357146	otiritantyaavori	-0.30103
-3.3679879	oishi	-0.30103
-3.5357146	nonyaakeri	-0.30103
-3.5357146	raniiti	-0.30103
-3.5357146	aniriake	-0.30103
-3.0482519	koshiri	-0.30103
-3.1979425	kipatsiki	-0.30103
-3.5357146	ikaboshitantyari	-0.30103
-3.0482519	tsimiki	-0.42596874
-3.5357146	ikantiri	-0.30103
-3.5357146	kaaroshi	-0.30103
-2.7125533	itomi	-0.30103
-3.5357146	pinkantero	-0.30103
-3.3679879	anirio	-0.30103
-3.5357146	otsikaatena	-0.30103
-3.5357146	anonkaka	-0.30103
-3.1979425	heekatsiri	-0.30103
-3.5357146	inchatonakiki	-0.30103
-3.3679879	rantakeri	-0.30103
-3.0482519	shoshokiri	-0.30103
-3.1979425	apaani	-0.30103
-3.3679879	shinkirenti	-0.30103
-3.5357146	antavaerianti	-0.30103
-3.3679879	hankori	-0.30103
-3.5357146	raantavori	-0.30103
-3.5357146	itsipanashite	-0.30103
-3.1979425	inampiki	-0.30103
-3.5357146	otimatye	-0.30103
-3.5357146	antavaete	-0.30103
-3.3679879	ovantyaari	-0.30103
-3.1979425	poshiniri	-0.30103
-3.5357146	rantavakaatya	-0.30103
-3.5357146	tyaapapaye	-0.30103
-3.5357146	ikihakotavo	-0.30103
-3.5357146	itsinanitepaye	-0.30103
-3.3679879	riyaatati	-0.30103
-3.3679879	ramini	-0.30103
-3.5357146	tapetsa	-0.30103
-3.5357146	ikantapaakeri	-0.30103
-2.4242742	konki	-0.30103
-3.1979425	itsipamintsare	-0.30103
-3.5357146	ivashiyari	-0.30103
-3.5357146	anyaatsini	-0.30103
-2.4890697	ani	-0.30103
-3.3679879	irohati	-0.30103
-3.5357146	ranyeenkaveta	-0.30103
-3.3679879	otyaapate	-0.30103
-2.3180149	nana	-0.30103
-3.5357146	rovatsitapakeri	-0.30103
-3.5357146	otsitzi	-0.30103
-3.5357146	ranyi	-0.30103
-2.6090298	otsiti	-0.30103
-3.3679879	ratsikavetakari	-0.30103
-2.7753317	maniti	-0.30103
-3.5357146	onkotsivetakari	-0.30103
-3.1979425	vatsatsi	-0.30103
-3.3679879	kantimaetacha	-0.30103
-3.5357146	anyeenkatatsi	-0.30103
-3.5357146	pihaeke	-0.30103
-2.6577141	kametsa	-0.3521825
-2.8487434	pankotsiki	-0.38021123
-3.5357146	pantavaka	-0.30103
-3.3679879	imaye	-0.30103
-3.3679879	apaniroeni	-0.30103
-3.5357146	ebankari	-0.30103
-3.5357146	imaamentoki	-0.30103
-2.5254948	ari	-0.30103
-3.5357146	nomatakero	-0.30103
-3.5357146	nantero	-0.30103
-3.5357146	pikantakenari	-0.30103
-3.1979425	chapinki	-0.30103
-3.5357146	aritapaake	-0.30103
-3.5357146	pitsaeyaka	-0.30103
-3.5357146	ashetakero	-0.30103
-3.5357146	oetsareki	-0.30103
-3.5357146	ashirariake	-0.30103
-3.3679879	antyashipari	-0.30103
-3.3679879	ikoveme	-0.30103
-3.3679879	rataetero	-0.30103
-3.5357146	impeeta	-0.30103
-3.5357146	pashitahero	-0.30103
-3.5357146	ashitavo	-0.30103
-3.5357146	tyaapapanko	-0.30103
-3.3679879	rashitakotakeri	-0.30103
-2.7753317	sheripiari	-0.30103
-3.0482519	omoonaki	-0.30103
-3.1979425	otishi	-0.30103
-3.5357146	ashiyakero	-0.30103
-2.4554646	isheni	-0.30103
-3.1979425	pochari	-0.30103
-3.3679879	hanko	-0.30103
-3.5357146	oyaatantari	-0.30103
-3.5357146	pataetakote	-0.30103
-3.1979425	pamaki	-0.30103
-3.5357146	antsotavake	-0.30103
-3.0482519	okitsoki	-0.30103
-3.5357146	rareetaka	-0.30103
-3.3679879	anampiki	-0.30103
-2.7753317	apani	-0.30103
-2.5254948	atiri	-0.32735893
-3.5357146	anyaapintane	-0.30103
-3.5357146	atohetake	-0.30103
-3.5357146	ovahempiakari	-0.30103
-3.1979425	totiroki	-0.30103
-3.5357146	inkaariveri	-0.30103
-3.3679879	ratsikakeri	-0.30103
-3.3679879	tyaapaniki	-0.30103
-3.5357146	iraantari	-0.30103
-2.8487434	notyomi	-0.30103
-3.5357146	atsikakeri	-0.30103
-3.5357146	shitamenkotsi	-0.30103
-3.5357146	iporiki	-0.30103
-3.5357146	atsinakakeri	-0.30103
-2.4242742	inchato	-0.41017446
-3.0482519	konoya	-0.30103
-3.5357146	atsiinkake	-0.30103
-3.5357146	ikiahempiakari	-0.30103
-3.0482519	shikiri	-0.30103
-3.5357146	ikiriki	-0.30103
-3.5357146	okantiro	-0.30103
-3.5357146	nohina	-0.30103
-3.5357146	atyo	-0.30103
-3.3679879	pamakenavo	-0.30103
-3.5357146	hevaantsi	-0.30103
-3.5357146	ohampiti	-0.30103
-3.3679879	evankavo	-0.30103
-3.5357146	ayiini	-0.30103
-3.5357146	ikenanake	-0.30103
-3.0482519	pitomi	-0.30103
-3.5357146	iriitake	-0.30103
-3.5357146	ivakeniri	-0.30103
-3.5357146	ivaero	-0.30103
-2.6090298	tyaapa	-0.34242266
-2.9371407	shirampari	-0.30103
-3.5357146	vatsanti	-0.30103
-3.0482519	oshekini	-0.30103
-3.5357146	iyeenka	-0.30103
-3.1979425	ivatsa	-0.30103
-3.5357146	veshiriayetakani	-0.30103
-3.5357146	atiripaye	-0.30103
-3.5357146	inyaavakero	-0.30103
-3.5357146	ipashitakariri	-0.30103
-3.5357146	hevari	-0.30103
-3.3679879	pivitirieri	-0.30103
-2.9371407	shonkiri	-0.30103
-3.3679879	ramakeri	-0.30103
-3.5357146	piri	-0.30103
-2.9371407	hamani	-0.30103
-3.5357146	itonkakeri	-0.30103
-3.1979425	iviti	-0.30103
-3.1979425	shintori	-0.30103
-3.3679879	otimi	-0.30103
-3.1979425	ivatsaki	-0.30103
-3.5357146	chaanari	-0.30103
-3.3679879	notsitsite	-0.30103
-3.3679879	itonkake	-0.30103
-3.5357146	chakami	-0.30103
-3.5357146	otishiki	-0.30103
-3.5357146	ipeyakero	-0.30103
-2.3679028	nani	-0.30103
-3.3679879	ichakopite	-0.30103
-3.5357146	imoontiro	-0.30103
-3.5357146	chamanto	-0.30103
-3.5357146	rovantyaariri	-0.30103
-2.7125533	iitsoki	-0.30103
-3.5357146	ranivaeti	-0.30103
-3.3679879	ocheraaki	-0.30103
-3.1979425	nihaki	-0.30103
-3.5357146	chanchati	-0.30103
-3.3679879	ramenayeti	-0.30103
-2.9371407	rovanavo	-0.30103
-3.0482519	rovavo	-0.30103
-3.5357146	chapiti	-0.30103
-3.5357146	onkonashi	-0.30103
-3.5357146	inoshikake	-0.30103
-3.5357146	notsipamintsare	-0.30103
-2.9371407	charava	-0.30103
-3.5357146	antavaaki	-0.30103
-3.3679879	ikanti	-0.30103
-3.0482519	iriani	-0.30103
-3.1979425	rayi	-0.30103
-2.8487434	kiri	-0.30103
-2.6577141	tonkaareki	-0.41017446
-3.5357146	imintsaavakero	-0.30103
-3.5357146	cheviro	-0.30103
-3.5357146	inkaaricheraaki	-0.30103
-3.0482519	kemetaka	-0.30103
-3.1979425	maanki	-0.30103
-3.5357146	noetsare	-0.30103
-3.1979425	avotsiki	-0.30103
-3.5357146	ikentavakotakena	-0.30103
-3.5357146	cheenti	-0.30103
-3.5357146	iche	-0.30103
-3.5357146	tontori	-0.30103
-3.5357146	chekaka	-0.30103
-2.7753317	iitiki	-0.30103
-3.5357146	rantavaeveta	-0.30103
-3.5357146	hapokake	-0.30103
-3.5357146	chekito	-0.30103
-2.4890697	inkaareki	-0.5118834
-3.5357146	ookanakeri	-0.30103
-2.8487434	inkani	-0.38021123
-3.3679879	riyaati	-0.30103
-3.5357146	icheki	-0.30103
-3.5357146	chenko	-0.30103
-3.5357146	ishitamenkotantyavori	-0.30103
-2.9371407	ipanko	-0.5228787
-3.3679879	iheekaeyeni	-0.30103
-3.5357146	chenkoripaye	-0.30103
-3.5357146	ichenkoreetakeri	-0.30103
-3.5357146	rantamintsatiro	-0.30103
-3.0482519	tsinanepaye	-0.30103
-3.5357146	pichenkotya	-0.30103
-3.1979425	intsipaite	-0.30103
-3.5357146	aatatyeri	-0.30103
-3.3679879	areetyavo	-0.30103
-3.3679879	pitsiro	-0.30103
-3.5357146	chenkotsi	-0.30103
-2.5254948	iro	-0.30103
-3.5357146	kantimaitacha	-0.30103
-3.5357146	avitatakena	-0.30103
-3.5357146	ikiakaakena	-0.30103
-3.5357146	oparetsaki	-0.30103
-3.5357146	chenteroki	-0.30103
-3.5357146	icheraakotakeri	-0.30103
-3.5357146	rirenti	-0.30103
-3.5357146	antavotonaatake	-0.30103
-3.5357146	ichera	-0.30103
-3.5357146	nyaamatari	-0.30103
-3.5357146	cherenkantsi	-0.30103
-3.5357146	rovatyaari	-0.30103
-3.5357146	cherepito	-0.30103
-3.3679879	mereto	-0.30103
-3.3679879	ikentakeri	-0.30103
-3.5357146	chetakitaki	-0.30103
-3.5357146	otyaakitakeri	-0.30103
-3.1979425	impaneki	-0.30103
-3.3679879	inyaatsavaetantari	-0.30103
-3.5357146	chovitake	-0.30103
-3.3679879	rotsitsite	-0.30103
-3.5357146	ratsikakerira	-0.30103
-3.5357146	pamekenavo	-0.30103
-3.5357146	noyotsiraanikite	-0.30103
-3.5357146	ovametaakeri	-0.30103
-3.5357146	inyavaeti	-0.30103
-3.3679879	chokiyo	-0.30103
-3.1979425	chomenta	-0.30103
-3.5357146	iyomaro	-0.30103
-3.5357146	onkotsitakiro	-0.30103
-3.5357146	chomiyo	-0.30103
-3.1979425	antantyaari	-0.30103
-3.5357146	ochaapote	-0.30103
-3.5357146	antantsi	-0.30103
-3.5357146	sheni	-0.30103
-3.5357146	chomo	-0.30103
-3.5357146	oviyare	-0.30103
-3.5357146	chompi	-0.30103
-2.9371407	iraka	-0.30103
-3.0482519	payanti	-0.30103
-3.5357146	ikemaenkatiro	-0.30103
-3.5357146	chokiro	-0.30103
-3.5357146	pocharipaye	-0.30103
-3.5357146	pokake	-0.30103
-3.5357146	choori	-0.30103
-3.5357146	iheekahe	-0.30103
-3.5357146	ratsi	-0.30103
-3.5357146	tonkaariki	-0.30103
-3.5357146	chorina	-0.30103
-3.5357146	ishirikashitantyaavori	-0.30103
-3.5357146	chorito	-0.30103
-3.5357146	intsipaki	-0.30103
-2.9371407	evankari	-0.30103
-3.5357146	imaperotatya	-0.30103
-3.5357146	ikomintsati	-0.30103
-3.5357146	iperata	-0.30103
-3.5357146	timanake	-0.30103
-3.5357146	evatairo	-0.30103
-3.5357146	raavakaaka	-0.30103
-3.5357146	norentitsori	-0.30103
-3.5357146	okaminaeri	-0.30103
-3.5357146	pishitovashitovati	-0.30103
-3.5357146	eeniro	-0.30103
-3.5357146	pevonkiritsi	-0.30103
-2.4890697	te	-0.30103
-3.5357146	pantarite	-0.30103
-3.5357146	ipaetakiri	-0.30103
-3.5357146	echonkiini	-0.30103
-2.8487434	eehati	-0.30103
-3.5357146	evonkiri	-0.30103
-3.3679879	kapeshi	-0.30103
-3.5357146	ikantakena	-0.30103
-3.3679879	iye	-0.30103
-3.3679879	naaka	-0.30103
-3.3679879	nokovi	-0.30103
-3.5357146	noyaate	-0.30103
-3.5357146	eemeeni	-0.30103
-3.5357146	ikenavaeti	-0.30103
-3.0482519	tonkareki	-0.42596874
-3.5357146	iraaka	-0.30103
-3.3679879	iraakotavo	-0.30103
-3.5357146	itivanate	-0.30103
-3.5357146	ramake	-0.30103
-3.5357146	nopiyaavo	-0.30103
-3.5357146	pinampiki	-0.30103
-2.9371407	eniki	-0.30103
-3.5357146	royeeri	-0.30103
-3.3679879	otiyaarentsi	-0.30103
-3.5357146	eentsikeroeni	-0.30103
-3.5357146	paniite	-0.30103
-3.5357146	okentimikari	-0.30103
-3.1979425	kitoche	-0.30103
-3.5357146	okantavakaeyani	-0.30103
-3.5357146	tsinanipaye	-0.30103
-3.3679879	entyo	-0.30103
-3.3679879	tsame	-0.30103
-3.5357146	antsokakite	-0.30103
-3.1979425	rovaneki	-0.30103
-3.5357146	akonkire	-0.30103
-3.5357146	rakavaantetae	-0.30103
-3.5357146	eroti	-0.30103
-3.5357146	anyavaete	-0.30103
-3.5357146	nonkotsivetaka	-0.30103
-3.5357146	kantaencha	-0.30103
-3.5357146	kihotake	-0.30103
-2.9371407	tema	-0.30103
-3.5357146	eshiraatake	-0.30103
-3.5357146	petyaari	-0.30103
-3.5357146	pikamanteri	-0.30103
-3.5357146	pireenti	-0.30103
-3.5357146	ipokatye	-0.30103
-3.5357146	petavakiari	-0.30103
-3.5357146	pikonkire	-0.30103
-3.5357146	pinkiteri	-0.30103
-3.5357146	etakantavori	-0.30103
-3.5357146	rovetsikiro	-0.30103
-3.0482519	iritake	-0.30103
-3.5357146	etakotaka	-0.30103
-3.5357146	niivotya	-0.30103
-3.5357146	inintahero	-0.30103
-3.5357146	onintane	-0.30103
-3.5357146	ikiyiro	-0.30103
-3.5357146	eti	-0.30103
-3.1979425	kipatsi	-0.30103
-3.5357146	rantantyaavori	-0.30103
-3.3679879	imaamento	-0.30103
-3.5357146	ichekakoti	-0.30103
-3.5357146	etiki	-0.30103
-3.5357146	ayaataki	-0.30103
-3.5357146	etso	-0.30103
-3.1979425	henoki	-0.30103
-3.5357146	raavintatyavo	-0.30103
-3.5357146	ashoshi	-0.30103
-3.5357146	rivenkite	-0.30103
-3.5357146	ikomintsatantyari	-0.30103
-3.5357146	hataki	-0.30103
-3.1979425	iinyeeni	-0.30103
-3.5357146	hantsaro	-0.30103
-3.5357146	ovakeri	-0.30103
-3.5357146	tonkitsi	-0.30103
-3.5357146	chareto	-0.30103
-3.5357146	katsitake	-0.30103
-3.3679879	iito	-0.30103
-3.5357146	iraheempiaka	-0.30103
-3.5357146	nonyaake	-0.30103
-3.3679879	shempiri	-0.30103
-3.3679879	iheki	-0.30103
-3.5357146	ocheraki	-0.30103
-3.5357146	ovari	-0.30103
-3.5357146	imovo	-0.30103
-3.5357146	imooshi	-0.30103
-3.3679879	heto	-0.30103
-3.5357146	rashitiro	-0.30103
-3.5357146	omonaki	-0.30103
-3.5357146	tainchari	-0.30103
-3.5357146	inyake	-0.30103
-3.1979425	tsonkiri	-0.30103
-3.3679879	oheeki	-0.30103
-3.3679879	imooshiki	-0.30103
-3.5357146	okiantakari	-0.30103
-3.3679879	irokiki	-0.30103
-3.5357146	inyatsavaiveta	-0.30103
-3.1979425	nihateniki	-0.30103
-3.3679879	raaki	-0.30103
-3.5357146	shiyava	-0.30103
-3.1979425	impanekiki	-0.30103
-3.5357146	impokiro	-0.30103
-3.1979425	inkiteki	-0.30103
-3.5357146	oharentsite	-0.30103
-3.5357146	okaminaena	-0.30103
-2.6090298	ina	-0.30103
-3.5357146	tsirenirikipaye	-0.30103
-3.5357146	novashitaantakavo	-0.30103
-3.3679879	inchakitso	-0.30103
-3.5357146	nonkentantyaari	-0.30103
-3.3679879	tsimeripaye	-0.30103
-3.5357146	ovaepatakiri	-0.30103
-3.5357146	inchapataki	-0.30103
-3.5357146	naashitakeri	-0.30103
-3.5357146	inchapatakite	-0.30103
-3.5357146	maanko	-0.30103
-3.5357146	ikamaankantakari	-0.30103
-3.5357146	ironta	-0.30103
-3.5357146	pinyaakerira	-0.30103
-3.5357146	pamakira	-0.30103
-3.5357146	onati	-0.30103
-3.5357146	pinyaakeri	-0.30103
-3.5357146	rompohakotakari	-0.30103
-3.5357146	tyominkiyo	-0.30103
-3.1979425	iheeki	-0.30103
-3.5357146	inchatomashiki	-0.30103
-3.3679879	inyaakeri	-0.30103
-3.5357146	noonki	-0.30103
-3.5357146	noheki	-0.30103
-3.0482519	nampitsiki	-0.30103
-3.5357146	iitachari	-0.30103
-3.5357146	inkaare	-0.30103
-3.5357146	pariantziri	-0.30103
-3.5357146	oshokakaakero	-0.30103
-3.3679879	pankirentsi	-0.30103
-3.5357146	ihaekaeyeni	-0.30103
-3.5357146	ompokiro	-0.30103
-3.5357146	akemehanteri	-0.30103
-3.5357146	ahatahe	-0.30103
-3.5357146	ikantakeri	-0.30103
-3.1979425	icharine	-0.30103
-3.3679879	piyaate	-0.30103
-3.5357146	pinyaatsatya	-0.30103
-3.5357146	inkokiroeni	-0.30103
-3.5357146	hamorenkake	-0.30103
-3.3679879	iiti	-0.30103
-3.5357146	ovametantayetatsiri	-0.30103
-3.5357146	raniitake	-0.30103
-3.5357146	inteena	-0.30103
-3.5357146	iponyanaka	-0.30103
-3.5357146	keshiiki	-0.30103
-3.5357146	pishiye	-0.30103
-3.5357146	intsipaeni	-0.30103
-3.5357146	payena	-0.30103
-3.5357146	kiaheetanake	-0.30103
-3.3679879	intsomoeki	-0.30103
-3.3679879	impeetaki	-0.30103
-3.5357146	iraatya	-0.30103
-3.3679879	otsitsi	-0.30103
-3.3679879	rookanakeri	-0.30103
-3.5357146	rantivataka	-0.30103
-3.3679879	kamanyari	-0.30103
-3.1979425	shitovanake	-0.30103
-3.0482519	irira	-0.30103
-3.5357146	iyatzi	-0.30103
-3.0482519	ayi	-0.30103
-3.5357146	iraari	-0.30103
-3.5357146	avintantyaavori	-0.30103
-3.5357146	opatsavo	-0.30103
-3.5357146	iraenkari	-0.30103
-3.5357146	rantavaeshiti	-0.30103
-3.5357146	pishiyava	-0.30103
-3.0482519	mapocha	-0.30103
-3.5357146	akishitavakeeta	-0.30103
-3.5357146	kotsironaki	-0.30103
-3.5357146	ikantakina	-0.30103
-3.5357146	oyoyaatati	-0.30103
-3.3679879	amperi	-0.30103
-3.1979425	ovaneki	-0.30103
-3.5357146	riyote	-0.30103
-3.5357146	okaemakantiro	-0.30103
-3.5357146	iyotaka	-0.30103
-3.0482519	eentsipaye	-0.30103
-3.5357146	haekanaentsiri	-0.30103
-3.5357146	ohavati	-0.30103
-3.5357146	opitiriantyariri	-0.30103
-3.3679879	haaka	-0.30103
-3.5357146	inchatonaki	-0.30103
-3.5357146	roviintakero	-0.30103
-3.5357146	habiri	-0.30103
-3.5357146	haanaareki	-0.30103
-3.0482519	oveni	-0.42596874
-3.5357146	perato	-0.30103
-3.5357146	haanari	-0.30103
-3.5357146	noyiitantyaamiri	-0.30103
-3.5357146	iyaaki	-0.30103
-3.5357146	raakero	-0.30103
-3.5357146	itenki	-0.30103
-3.5357146	havavo	-0.30103
-3.1979425	rovantyaavori	-0.30103
-3.5357146	ramatsaereki	-0.30103
-3.5357146	haviri	-0.30103
-3.5357146	nopehashitantyaavori	-0.30103
-3.5357146	novorotaarite	-0.30103
-3.5357146	onkoveme	-0.30103
-3.5357146	oheeke	-0.30103
-3.5357146	kishityo	-0.30103
-3.5357146	heekamentotsiki	-0.30103
-3.5357146	pariakotanake	-0.30103
-3.5357146	ipokake	-0.30103
-3.1979425	nopankoki	-0.30103
-3.5357146	inyaashitakavo	-0.30103
-3.3679879	kihori	-0.30103
-3.5357146	raatikashitakavo	-0.30103
-3.5357146	hamaka	-0.30103
-3.5357146	ityaakitakero	-0.30103
-3.5357146	chovirio	-0.30103
-3.5357146	hamampo	-0.30103
-3.5357146	okiki	-0.30103
-3.5357146	itsaatakeri	-0.30103
-3.5357146	ovashireenkataka	-0.30103
-3.5357146	hamomo	-0.30103
-3.5357146	imampaveata	-0.30103
-2.9371407	otevaki	-0.39794
-3.5357146	ohampitiri	-0.30103
-3.5357146	piyaatika	-0.30103
-3.1979425	hampovatsa	-0.30103
-3.3679879	hani	-0.30103
-3.5357146	iyempitaki	-0.30103
-3.5357146	antavaeshiri	-0.30103
-3.5357146	ipashitakanavo	-0.30103
-3.5357146	hankenamentotsi	-0.30103
-3.3679879	kityonkari	-0.30103
-3.5357146	hankenarentsi	-0.30103
-3.5357146	irootake	-0.30103
-3.5357146	kompitarentsi	-0.30103
-3.5357146	nokantiri	-0.30103
-3.5357146	pihankenatero	-0.30103
-3.5357146	pantavaere	-0.30103
-3.5357146	rookanakemiri	-0.30103
-2.4554646	ovametantatsiri	-0.36797678
-3.5357146	ayometaeri	-0.30103
-3.5357146	ihankenate	-0.30103
-3.5357146	ihankenavaerentitantyaari	-0.30103
-3.5357146	ihaekantavo	-0.30103
-3.5357146	hankiro	-0.30103
-3.1979425	inchatoki	-0.30103
-3.3679879	anyiiri	-0.30103
-3.5357146	omparee	-0.30103
-3.5357146	okemeneenta	-0.30103
-3.3679879	pitsi	-0.30103
-3.5357146	opochaanikiti	-0.30103
-3.5357146	rovapiintiro	-0.30103
-3.3679879	tsipana	-0.30103
-3.5357146	imooki	-0.30103
-3.5357146	hanta	-0.30103
-3.3679879	inampitavo	-0.30103
-3.3679879	maeni	-0.30103
-3.5357146	nihaacheraki	-0.30103
-3.5357146	oshekitiri	-0.30103
-2.9371407	hantari	-0.30103
-3.5357146	itovi	-0.30103
-3.3679879	rantantyaari	-0.30103
-3.5357146	ivito	-0.30103
-3.5357146	okantakeri	-0.30103
-3.5357146	oharipaye	-0.30103
-3.5357146	hantikoeni	-0.30103
-3.5357146	kaakitake	-0.30103
-3.5357146	ihapokaventiro	-0.30103
-3.1979425	ishinkine	-0.30103
-3.1979425	shitamenkotsiki	-0.30103
-3.1979425	oshi	-0.30103
-3.5357146	hayapa	-0.30103
-3.5357146	ramenakoventantyaavori	-0.30103
-3.5357146	koshitakeriri	-0.30103
-3.5357146	haye	-0.30103
-3.5357146	ratsikavakeri	-0.30103
-3.5357146	ohevankiro	-0.30103
-2.9371407	paamari	-0.30103
-3.5357146	omorekantyaari	-0.30103
-3.3679879	—	-0.30103
-3.5357146	pikemakena	-0.30103
-3.5357146	niotya	-0.30103
-3.5357146	nokantakemiri	-0.30103
-3.5357146	hee	-0.30103
-3.5357146	nokemakemi	-0.30103
-3.3679879	pavaeni	-0.30103
-3.5357146	ihampitakena	-0.30103
-3.5357146	hatantaneri	-0.30103
-3.5357146	okatsitake	-0.30103
-3.3679879	shenonti	-0.30103
-3.5357146	piherenkiro	-0.30103
-3.3679879	apanko	-0.30103
-3.5357146	rotyaantiri	-0.30103
-3.5357146	rovamere	-0.30103
-3.3679879	raye	-0.30103
-3.5357146	herina	-0.30103
-3.5357146	iponkantyari	-0.30103
-3.5357146	eshikempitari	-0.30103
-3.5357146	ihaeki	-0.30103
-3.1979425	hetari	-0.30103
-3.1979425	otapinaki	-0.30103
-2.9371407	mapi	-0.30103
-3.5357146	ikentavakotakeri	-0.30103
-3.3679879	rakoki	-0.30103
-3.5357146	inyaatsaveta	-0.30103
-3.3679879	oime	-0.30103
-3.5357146	tyempoya	-0.30103
-3.5357146	rantavaeti	-0.30103
-3.5357146	chamiri	-0.30103
-3.1979425	iyaati	-0.30103
-3.5357146	areetavo	-0.30103
-3.5357146	inyiiro	-0.30103
-3.5357146	okachoneentakeri	-0.30103
-3.5357146	hiriimaki	-0.30103
-3.5357146	ikentsiki	-0.30103
-3.5357146	ikentakiri	-0.30103
-3.5357146	hiriti	-0.30103
-3.5357146	imampaaveta	-0.30103
-3.5357146	hompotaki	-0.30103
-3.5357146	oporiperoki	-0.30103
-3.5357146	rovetsikati	-0.30103
-3.5357146	ihonkare	-0.30103
-3.5357146	ihonkantantyaari	-0.30103
-3.5357146	rokiro	-0.30103
-3.3679879	kaarashi	-0.30103
-3.5357146	hatake	-0.30103
-3.5357146	onkaavoshiteri	-0.30103
-3.5357146	otsitite	-0.30103
-3.5357146	noyaatapainte	-0.30103
-3.5357146	nonkaavoshitapaentya	-0.30103
-3.1979425	nihaateniki	-0.30103
-3.5357146	itaayetatiro	-0.30103
-3.3679879	ovaantsi	-0.30103
-3.5357146	otinaantari	-0.30103
-3.5357146	kachaarentsi	-0.30103
-3.5357146	ikaemake	-0.30103
-3.3679879	shariva	-0.30103
-3.5357146	pinkeme	-0.30103
-3.5357146	okaematimi	-0.30103
-3.5357146	piniro	-0.30103
-3.5357146	kainitake	-0.30103
-3.5357146	noitsi	-0.30103
-3.5357146	raakena	-0.30103
-3.5357146	shitsa	-0.30103
-3.5357146	piyahankarite	-0.30103
-3.5357146	notiritavakia	-0.30103
-3.5357146	nokentsiki	-0.30103
-3.5357146	kahankari	-0.30103
-3.3679879	pochaari	-0.30103
-3.3679879	omatakeri	-0.30103
-3.5357146	neentsite	-0.30103
-3.3679879	kamaantsi	-0.30103
-3.5357146	pisheteri	-0.30103
-3.5357146	iyamantsite	-0.30103
-3.5357146	ratsikavetakana	-0.30103
-3.5357146	kamaatonki	-0.30103
-3.5357146	noitsiki	-0.30103
-3.5357146	pinkamanteri	-0.30103
-3.5357146	ashitaaneyetachari	-0.30103
-3.5357146	inkaamane	-0.30103
-3.3679879	apatorentsi	-0.30103
-3.5357146	ikamarankake	-0.30103
-3.5357146	ataanakeri	-0.30103
-3.5357146	kamankaantsi	-0.30103
-3.5357146	tahorentsi	-0.30103
-3.5357146	kamari	-0.30103
-3.5357146	pantakaeri	-0.30103
-3.5357146	kaariperori	-0.30103
-3.5357146	kameetsaanto	-0.30103
-3.5357146	amampake	-0.30103
-3.3679879	amampaantsi	-0.30103
-3.5357146	timatsiri	-0.30103
-3.5357146	rahankane	-0.30103
-3.3679879	kametsari	-0.30103
-3.5357146	oveshiriachari	-0.30103
-3.5357146	pintsamaetero	-0.30103
-3.5357146	piyanirimashite	-0.30103
-3.3679879	kampona	-0.30103
-3.5357146	ishitamenkotantyaabori	-0.30103
-3.1979425	pankotsi	-0.30103
-3.5357146	rovakavo	-0.30103
-3.5357146	kitaeriki	-0.30103
-3.3679879	iyaniri	-0.30103
-3.3679879	ashisho	-0.30103
-3.5357146	kantapookitaka	-0.30103
-3.3679879	itanto	-0.30103
-3.5357146	rovetsikaperotero	-0.30103
-3.5357146	okantashiyetashita	-0.30103
-3.5357146	ikenkishiriamento	-0.30103
-3.5357146	itonkavetaka	-0.30103
-3.5357146	paa	-0.30103
-3.5357146	rovamayeri	-0.30103
-3.5357146	kapararo	-0.30103
-3.5357146	pariakitatsiri	-0.30103
-2.8487434	nihaaki	-0.38021123
-3.5357146	rovakari	-0.30103
-3.5357146	kapashiro	-0.30103
-3.5357146	ivotsore	-0.30103
-3.3679879	kovana	-0.30103
-3.5357146	otsapairikita	-0.30103
-3.3679879	kapichoki	-0.30103
-3.5357146	pitivine	-0.30103
-3.5357146	pincheke	-0.30103
-3.5357146	kapiro	-0.30103
-3.5357146	nakiheekakotantyari	-0.30103
-3.5357146	inyaanatakeri	-0.30103
-3.5357146	kapironkari	-0.30103
-3.5357146	inyaapakiri	-0.30103
-3.5357146	ikaraakero	-0.30103
-3.5357146	inchakiire	-0.30103
-3.5357146	paatikiro	-0.30103
-3.5357146	irora	-0.30103
-3.5357146	karentsatake	-0.30103
-3.5357146	pipariikari	-0.30103
-3.3679879	matsontsori	-0.30103
-3.5357146	kashetaeni	-0.30103
-3.5357146	ikiakeri	-0.30103
-3.3679879	kashiri	-0.30103
-3.3679879	aroshi	-0.30103
-3.3679879	rootake	-0.30103
-3.5357146	rootaperotantaari	-0.30103
-3.5357146	niyankiiteki	-0.30103
-3.5357146	katsivore	-0.30103
-3.3679879	imoreki	-0.30103
-3.5357146	ihaantakoti	-0.30103
-3.5357146	katsikori	-0.30103
-3.3679879	katsimari	-0.30103
-3.5357146	nokemakero	-0.30103
-3.5357146	katsinkaiteri	-0.30103
-3.5357146	raanakero	-0.30103
-3.5357146	katsitori	-0.30103
-3.5357146	katsovatake	-0.30103
-3.5357146	povetsike	-0.30103
-3.3679879	otsipa	-0.30103
-3.5357146	aashitakari	-0.30103
-3.1979425	kayetsi	-0.30103
-3.5357146	rovakaeyavo	-0.30103
-3.5357146	okantana	-0.30103
-3.5357146	pinkevero	-0.30103
-3.5357146	pako	-0.30103
-3.3679879	ovanavontsi	-0.30103
-3.5357146	okivatsiro	-0.30103
-3.5357146	eentsite	-0.30103
-3.5357146	ikevoki	-0.30103
-3.3679879	imaantyaari	-0.30103
-3.5357146	ikemake	-0.30103
-3.5357146	sharishi	-0.30103
-3.5357146	rakantakamiri	-0.30103
-3.5357146	ikaavoshita	-0.30103
-3.5357146	kemari	-0.30103
-3.5357146	rovatya	-0.30103
-3.3679879	kemi	-0.30103
-3.3679879	tashirentsi	-0.30103
-3.5357146	kemihantsinkari	-0.30103
-3.3679879	tee	-0.30103
-3.5357146	koryo	-0.30103
-3.5357146	kempiro	-0.30103
-3.5357146	pavatyori	-0.30103
-3.3679879	irakoki	-0.30103
-3.5357146	kempiti	-0.30103
-3.5357146	shiranta	-0.30103
-3.5357146	tsonkakeri	-0.30103
-3.5357146	kenitsi	-0.30103
-3.5357146	ontime	-0.30103
-3.5357146	kametsare	-0.30103
-3.5357146	akenkishiriamento	-0.30103
-3.5357146	amatakero	-0.30103
-3.5357146	antavaerontsi	-0.30103
-3.5357146	ikenkishiriaka	-0.30103
-3.5357146	ipokantanakari	-0.30103
-3.5357146	ikenkitsatakaeri	-0.30103
-3.5357146	ikentake	-0.30103
-3.5357146	ikemashitanaka	-0.30103
-3.5357146	okentanakeri	-0.30103
-3.5357146	ratsikakiri	-0.30103
-3.3679879	kentavo	-0.30103
-3.5357146	riyaaveta	-0.30103
-3.5357146	ikinavaeti	-0.30103
-3.1979425	tonkariki	-0.30103
-3.5357146	hantsare	-0.30103
-3.5357146	ikentsi	-0.30103
-3.5357146	tsompare	-0.30103
-3.5357146	kentsori	-0.30103
-3.1979425	ocheempeki	-0.30103
-3.5357146	rovatiyakero	-0.30103
-3.3679879	kepaye	-0.30103
-3.5357146	kepishiri	-0.30103
-3.3679879	sheri	-0.30103
-3.5357146	ichekake	-0.30103
-3.5357146	pishava	-0.30103
-3.5357146	kepiyashi	-0.30103
-3.5357146	ipashikantyaabori	-0.30103
-3.5357146	amaaniti	-0.30103
-3.5357146	kiavontsiki	-0.30103
-3.5357146	kihinkari	-0.30103
-3.5357146	heekabetachari	-0.30103
-3.5357146	hatahe	-0.30103
-3.1979425	inchaki	-0.30103
-3.1979425	ero	-0.30103
-3.5357146	amatiro	-0.30103
-3.5357146	ankaraero	-0.30103
-3.5357146	kimoshiretanaki	-0.30103
-3.5357146	ipaetantakariri	-0.30103
-3.5357146	ikimoshiretati	-0.30103
-3.5357146	ityaakitakeri	-0.30103
-3.3679879	mavoeni	-0.30103
-3.5357146	anyiinkari	-0.30103
-3.5357146	kipatsitakemi	-0.30103
-3.5357146	pinkaavoshitya	-0.30103
-3.3679879	riyati	-0.30103
-3.5357146	itsikotsi	-0.30103
-3.0482519	ovantsipooshiki	-0.30103
-3.5357146	anyaanatero	-0.30103
-3.5357146	kiriviro	-0.30103
-3.5357146	opakae	-0.30103
-3.5357146	yotaantsi	-0.30103
-3.5357146	okatsitakaakeri	-0.30103
-3.5357146	shareva	-0.30103
-3.5357146	ikiri	-0.30103
-3.5357146	iyamaantsite	-0.30103
-3.5357146	kirotaka	-0.30103
-3.5357146	akishitakeniri	-0.30103
-3.5357146	kishanyavo	-0.30103
-3.3679879	raanakeri	-0.30103
-3.5357146	ikenavaete	-0.30103
-3.5357146	amanantake	-0.30103
-3.5357146	kishiri	-0.30103
-3.5357146	okishitantyariri	-0.30103
-3.5357146	iishi	-0.30103
-3.5357146	itsonkakero	-0.30103
-3.5357146	kitairiki	-0.30103
-3.5357146	iyanirimashite	-0.30103
-3.5357146	pamananteri	-0.30103
-3.5357146	ikitamaaripetate	-0.30103
-3.5357146	ihankenatantantyari	-0.30103
-3.5357146	iitsaare	-0.30103
-3.5357146	opotsota	-0.30103
-3.5357146	kiteriatake	-0.30103
-3.3679879	inchateyaki	-0.30103
-3.5357146	kiteriri	-0.30103
-3.5357146	okentakero	-0.30103
-3.5357146	ateetakovetavo	-0.30103
-3.5357146	hirimaki	-0.30103
-3.5357146	rovantavo	-0.30103
-3.5357146	rampate	-0.30103
-3.5357146	kitochempe	-0.30103
-3.5357146	rovavaetya	-0.30103
-3.5357146	kitoniro	-0.30103
-3.5357146	otakipayeki	-0.30103
-3.1979425	tsiyaroki	-0.30103
-3.5357146	ontyaati	-0.30103
-3.5357146	kitsaarentsi	-0.30103
-3.5357146	omperiri	-0.30103
-3.5357146	ohari	-0.30103
-3.5357146	ikentakina	-0.30103
-3.5357146	kitsapi	-0.30103
-3.5357146	nakoki	-0.30103
-3.5357146	noetsaare	-0.30103
-3.5357146	oovaenchari	-0.30103
-3.5357146	ikiyakoti	-0.30103
-3.3679879	etini	-0.30103
-3.5357146	imoo	-0.30103
-3.5357146	imaantyari	-0.30103
-3.5357146	raretantapaakari	-0.30103
-3.5357146	noya	-0.30103
-3.5357146	onkochapaaki	-0.30103
-3.5357146	nokovashiriaka	-0.30103
-3.5357146	tsika	-0.30103
-3.5357146	onkantapaentya	-0.30103
-3.5357146	nareetyari	-0.30103
-3.5357146	ikemeta	-0.30103
-3.5357146	piratsi	-0.30103
-3.5357146	koveenkari	-0.30103
-3.5357146	mintsarovakenari	-0.30103
-3.5357146	koviri	-0.30103
-3.3679879	koviti	-0.30103
-3.5357146	otsoyempitati	-0.30103
-3.5357146	iraeki	-0.30103
-3.5357146	kohaniri	-0.30103
-3.3679879	omotyaki	-0.30103
-3.5357146	komatake	-0.30103
-3.3679879	shintsini	-0.30103
-3.5357146	avireri	-0.30103
-3.3679879	ikovi	-0.30103
-3.5357146	rareetajea	-0.30103
-3.5357146	intsipaete	-0.30103
-3.3679879	omenta	-0.30103
-3.0482519	rantantyari	-0.30103
-3.3679879	komarontsi	-0.30103
-3.3679879	komintsare	-0.30103
-3.5357146	ikovaaetiri	-0.30103
-3.3679879	ramene	-0.30103
-3.5357146	raake	-0.30103
-3.3679879	kompiroshi	-0.30103
-3.5357146	ivetsikantyari	-0.30103
-3.5357146	kompitaka	-0.30103
-3.3679879	nyaantsi	-0.30103
-3.5357146	ipakenari	-0.30103
-3.5357146	itovakaakenavo	-0.30103
-3.3679879	meshiyanto	-0.30103
-3.5357146	ranashita	-0.30103
-3.5357146	ineetsikiroeni	-0.30103
-3.5357146	kontsavo	-0.30103
-3.5357146	nopakotakeri	-0.30103
-3.5357146	kooko	-0.30103
-3.5357146	koriato	-0.30103
-3.5357146	iyanirimashiteki	-0.30103
-3.5357146	ipakeri	-0.30103
-3.5357146	ivaatrote	-0.30103
-3.5357146	koriki	-0.30103
-3.5357146	rantavaiventari	-0.30103
-3.3679879	korinto	-0.30103
-3.3679879	omooki	-0.30103
-3.5357146	roeminkiakeri	-0.30103
-3.5357146	antirori	-0.30103
-3.5357146	timatsi	-0.30103
-3.3679879	koshinti	-0.30103
-3.5357146	nonampiki	-0.30103
-3.5357146	aayetirori	-0.30103
-3.5357146	inyaayetiri	-0.30103
-3.5357146	chochoki	-0.30103
-3.5357146	ikoshitake	-0.30103
-3.5357146	tsirarato	-0.30103
-3.5357146	koshoshiko	-0.30103
-3.3679879	antavoki	-0.30103
-3.5357146	nihaa	-0.30103
-3.5357146	kotsiraaniki	-0.30103
-3.5357146	riyompari	-0.30103
-3.5357146	ikovantari	-0.30103
-3.3679879	tiri	-0.30103
-3.5357146	otaakero	-0.30103
-3.5357146	eentyo	-0.30103
-3.5357146	ootsironakite	-0.30103
-3.5357146	onkotsiveta	-0.30103
-3.5357146	okiyakoti	-0.30103
-3.5357146	maavo	-0.30103
-3.5357146	avantyari	-0.30103
-3.5357146	oyanire	-0.30103
-3.5357146	riyaatatye	-0.30103
-3.5357146	hatipoki	-0.30103
-3.5357146	raanatyeero	-0.30103
-3.5357146	ishintopaye	-0.30103
-3.5357146	maakookava	-0.30103
-3.5357146	roretane	-0.30103
-3.5357146	miriti	-0.30103
-3.5357146	imaashita	-0.30103
-3.3679879	ohaaviki	-0.30103
-3.3679879	maaniri	-0.30103
-3.5357146	roetantyaariri	-0.30103
-3.5357146	ikamankaati	-0.30103
-3.5357146	rankoviitiri	-0.30103
-3.1979425	onkiro	-0.30103
-3.5357146	itsatakero	-0.30103
-3.5357146	kamanyaari	-0.30103
-3.5357146	imaantare	-0.30103
-3.5357146	ikentantariri	-0.30103
-3.3679879	manyo	-0.30103
-3.5357146	rantyavori	-0.30103
-3.5357146	maaperotaka	-0.30103
-3.5357146	rokakiro	-0.30103
-3.5357146	itsaatiri	-0.30103
-3.5357146	maati	-0.30103
-3.5357146	itarika	-0.30103
-3.5357146	inyeri	-0.30103
-3.5357146	pokashitiriri	-0.30103
-3.5357146	imaatsa	-0.30103
-3.5357146	mava	-0.30103
-3.5357146	ipankitaitiro	-0.30103
-3.5357146	mavona	-0.30103
-3.5357146	antaiki	-0.30103
-3.5357146	antavotantyaari	-0.30103
-3.3679879	ovatsa	-0.30103
-3.3679879	machaki	-0.30103
-3.0482519	otsapiaki	-0.30103
-3.5357146	ochera	-0.30103
-3.3679879	tsireentsi	-0.30103
-3.5357146	maeyakeni	-0.30103
-3.5357146	shinkirentipaye	-0.30103
-3.5357146	ikiteehitakotake	-0.30103
-3.5357146	iraeyeni	-0.30103
-3.5357146	mainto	-0.30103
-3.5357146	mahavitake	-0.30103
-3.3679879	antavaeti	-0.30103
-3.5357146	mahoki	-0.30103
-3.5357146	mahonti	-0.30103
-3.5357146	ihekaki	-0.30103
-3.5357146	makota	-0.30103
-3.5357146	otamentotsiki	-0.30103
-3.5357146	royeri	-0.30103
-3.5357146	rovantyari	-0.30103
-3.5357146	imampaavaeta	-0.30103
-3.5357146	mamavo	-0.30103
-3.5357146	inoshikakeri	-0.30103
-3.5357146	ihankenaeyakeni	-0.30103
-3.3679879	mampaantsi	-0.30103
-3.5357146	iirianipaye	-0.30103
-3.5357146	imampaakavo	-0.30103
-3.3679879	irianipaye	-0.30103
-3.5357146	oharentsiteki	-0.30103
-3.5357146	yotaantsinpanko	-0.30103
-3.5357146	ikovakotiro	-0.30103
-3.5357146	mampetsa	-0.30103
-3.5357146	roohotantyaavori	-0.30103
-3.5357146	ichakopitepaye	-0.30103
-3.5357146	itsonkatakeri	-0.30103
-3.5357146	mampiritsi	-0.30103
-3.5357146	mani	-0.30103
-3.5357146	rirati	-0.30103
-3.5357146	cheetatsiri	-0.30103
-3.5357146	karinari	-0.30103
-3.0482519	shavo	-0.30103
-3.5357146	ranti	-0.30103
-3.5357146	mankareto	-0.30103
-3.5357146	imoshi	-0.30103
-3.5357146	inchatoshiki	-0.30103
-3.5357146	imanonkakeri	-0.30103
-3.3679879	tiho	-0.30103
-3.5357146	shantyoma	-0.30103
-3.5357146	oshitovake	-0.30103
-3.5357146	mantana	-0.30103
-3.5357146	kiteheriki	-0.30103
-3.5357146	tyaentsiri	-0.30103
-3.5357146	mantsiyatake	-0.30103
-3.5357146	katsirentsi	-0.30103
-3.3679879	mantsiyarentsi	-0.30103
-3.5357146	maperotaka	-0.30103
-3.5357146	omantsiyare	-0.30103
-3.5357146	ariaheniti	-0.30103
-3.5357146	rontivatakavo	-0.30103
-3.5357146	napo	-0.30103
-3.5357146	oshetakiriaakeri	-0.30103
-3.1979425	ishetaki	-0.30103
-3.5357146	imaavaeti	-0.30103
-3.5357146	toropeeti	-0.30103
-3.5357146	mapipookiki	-0.30103
-3.5357146	itsariantyariri	-0.30103
-3.5357146	imampa	-0.30103
-3.5357146	mapiti	-0.30103
-3.5357146	riyotiro	-0.30103
-3.5357146	kitaeheri	-0.30103
-3.5357146	irakake	-0.30103
-3.5357146	imapokakeri	-0.30103
-3.5357146	amenayetiriri	-0.30103
-3.5357146	yotaantsinpankoki	-0.30103
-3.5357146	amakeri	-0.30103
-3.5357146	mapotopaye	-0.30103
-3.5357146	ipiyakeri	-0.30103
-3.5357146	mashero	-0.30103
-3.5357146	rovavetakari	-0.30103
-3.5357146	mata	-0.30103
-3.5357146	iyontaachari	-0.30103
-3.3679879	pashiitoki	-0.30103
-3.5357146	mataka	-0.30103
-3.5357146	nantavaire	-0.30103
-3.5357146	materinki	-0.30103
-3.5357146	ikonaveta	-0.30103
-3.5357146	matsantsi	-0.30103
-3.5357146	matsari	-0.30103
-3.5357146	ishiyanaka	-0.30103
-3.5357146	payantimashiki	-0.30103
-3.5357146	rovametakeri	-0.30103
-3.5357146	charini	-0.30103
-3.5357146	imatsini	-0.30103
-3.3679879	mayempiri	-0.30103
-3.5357146	okihotimotiri	-0.30103
-3.5357146	irinta	-0.30103
-3.5357146	yookakaantake	-0.30103
-3.5357146	hinatsi	-0.30103
-3.5357146	meeka	-0.30103
-3.5357146	atsamaetero	-0.30103
-3.5357146	imenkotake	-0.30103
-3.3679879	raakeri	-0.30103
-3.5357146	ipashikaatantari	-0.30103
-3.5357146	arakote	-0.30103
-3.5357146	arakomentotsiki	-0.30103
-3.5357146	anyaakero	-0.30103
-3.5357146	menkori	-0.30103
-3.3679879	okaakini	-0.30103
-3.5357146	menkoriityaake	-0.30103
-3.5357146	kiteeheri	-0.30103
-3.5357146	rakachaatake	-0.30103
-3.5357146	meronki	-0.30103
-3.5357146	omakaatake	-0.30103
-3.5357146	meshinto	-0.30103
-3.5357146	kametsarini	-0.30103
-3.5357146	ayero	-0.30103
-3.5357146	atsima	-0.30103
-3.5357146	metsotake	-0.30103
-3.5357146	onkotsitakeri	-0.30103
-3.3679879	meyiri	-0.30103
-3.5357146	rovavaitavo	-0.30103
-3.5357146	imiamiataeyeni	-0.30103
-3.5357146	iveshiriaeyani	-0.30103
-3.5357146	miretake	-0.30103
-3.5357146	itoviro	-0.30103
-3.5357146	imire	-0.30103
-3.5357146	ikenavaetantakari	-0.30103
-3.5357146	omishitakeri	-0.30103
-3.5357146	oshirontane	-0.30103
-3.5357146	ratsovootiro	-0.30103
-3.5357146	misho	-0.30103
-3.5357146	imitaanaka	-0.30103
-3.3679879	tsitsiri	-0.30103
-3.5357146	romintsaakeri	-0.30103
-3.5357146	tyopiki	-0.30103
-3.5357146	tsitsiyake	-0.30103
-3.5357146	raahero	-0.30103
-3.5357146	rakachaare	-0.30103
-3.5357146	patsake	-0.30103
-3.5357146	imoito	-0.30103
-3.5357146	enchaniki	-0.30103
-3.5357146	imokaatiro	-0.30103
-3.3679879	kamaiteri	-0.30103
-3.5357146	imonkaatakero	-0.30103
-3.5357146	iheetiro	-0.30103
-3.5357146	otsipaki	-0.30103
-3.5357146	pimonkaatero	-0.30103
-3.5357146	nontyaare	-0.30103
-3.5357146	ikantanake	-0.30103
-3.5357146	pomonkeri	-0.30103
-3.3679879	tyaapapankoki	-0.30103
-3.5357146	imontyaakero	-0.30103
-3.3679879	nihaateni	-0.30103
-3.5357146	morekake	-0.30103
-3.5357146	ominkiake	-0.30103
-3.5357146	motinti	-0.30103
-3.5357146	ishitsane	-0.30103
-3.5357146	kooya	-0.30103
-3.5357146	motinto	-0.30103
-3.5357146	anti	-0.30103
-3.5357146	omarentsi	-0.30103
-3.5357146	moyaake	-0.30103
-3.5357146	onihaate	-0.30103
-3.5357146	ovakotanakeri	-0.30103
-3.5357146	paamareki	-0.30103
-3.5357146	ironyaaka	-0.30103
-3.5357146	namanantakera	-0.30103
-3.5357146	nairotsa	-0.30103
-3.5357146	hantsari	-0.30103
-3.5357146	nonoshikatye	-0.30103
-3.5357146	komairipaye	-0.30103
-3.5357146	nenkitsiki	-0.30103
-3.3679879	nantantyaari	-0.30103
-3.5357146	amarentsipaye	-0.30103
-3.5357146	ipatsaakaanti	-0.30103
-3.5357146	netsi	-0.30103
-3.5357146	aitoki	-0.30103
-3.3679879	eerorika	-0.30103
-3.5357146	ayitari	-0.30103
-3.5357146	pimpavakena	-0.30103
-3.3679879	niravake	-0.30103
-3.5357146	nomire	-0.30103
-3.5357146	ikantakero	-0.30103
-3.5357146	nonintakemi	-0.30103
-3.5357146	noinantemi	-0.30103
-3.5357146	impohakeri	-0.30103
-3.5357146	nironto	-0.30103
-3.5357146	ipankaki	-0.30103
-3.5357146	itsaakeri	-0.30103
-3.5357146	itonki	-0.30103
-3.5357146	iniyamentoki	-0.30103
-3.5357146	shapopo	-0.30103
-3.3679879	niyanki	-0.30103
-3.5357146	rankoviitakeri	-0.30103
-3.5357146	inoshikakero	-0.30103
-3.5357146	pinoshikanakero	-0.30103
-3.5357146	okovi	-0.30103
-3.5357146	opoki	-0.30103
-3.5357146	oshaaviityaanake	-0.30103
-3.5357146	nyaavaementotsiki	-0.30103
-3.5357146	ikaemakantaetiri	-0.30103
-3.5357146	nyaamentotsiki	-0.30103
-3.5357146	inyaanatiro	-0.30103
-3.5357146	irianeriki	-0.30103
-3.3679879	yotaantsipankoki	-0.30103
-3.5357146	ihaatakero	-0.30103
-3.5357146	onyaaro	-0.30103
-3.5357146	ovaantsipooshiki	-0.30103
-3.5357146	nyaperori	-0.30103
-3.5357146	rovakoventiro	-0.30103
-3.5357146	inampi	-0.30103
-3.5357146	rovaeyakani	-0.30103
-3.5357146	nyaatsarepaeni	-0.30103
-3.5357146	shiketsi	-0.30103
-3.5357146	hataentsiri	-0.30103
-3.5357146	korintooniki	-0.30103
-3.5357146	pivavitero	-0.30103
-3.5357146	aretantyavori	-0.30103
-3.5357146	ovae	-0.30103
-3.5357146	omoki	-0.30103
-3.5357146	impetaki	-0.30103
-3.5357146	ovametaeri	-0.30103
-3.5357146	atomipaye	-0.30103
-3.5357146	rantavaete	-0.30103
-3.5357146	iperatantari	-0.30103
-3.5357146	inintaitiri	-0.30103
-3.0482519	okantakaantiro	-0.30103
-3.5357146	rovametanti	-0.30103
-3.5357146	kameetsa	-0.30103
-3.5357146	rovankiniri	-0.30103
-3.5357146	itapikiki	-0.30103
-3.5357146	nopankiti	-0.30103
-2.9371407	ovantsiki	-0.30103
-3.0482519	shinki	-0.30103
-3.5357146	inki	-0.30103
-3.3679879	oyaati	-0.30103
-3.5357146	amene	-0.30103
-3.3679879	shonyaki	-0.30103
-3.5357146	rovashiro	-0.30103
-3.3679879	ikentantyaariri	-0.30103
-3.5357146	kontsavopaye	-0.30103
-3.5357146	ovashiyavakena	-0.30103
-3.5357146	kaminirio	-0.30103
-3.5357146	oveenikentsi	-0.30103
-3.5357146	ivitiki	-0.30103
-3.5357146	rovintati	-0.30103
-3.5357146	iyanire	-0.30103
-3.3679879	ivaneki	-0.30103
-3.5357146	oviitakero	-0.30103
-3.5357146	omachaakite	-0.30103
-3.3679879	noena	-0.30103
-3.5357146	amenero	-0.30103
-3.5357146	ovirentsi	-0.30103
-3.5357146	shenontipaye	-0.30103
-3.5357146	oitaka	-0.30103
-3.5357146	ovakemiri	-0.30103
-3.5357146	petakovaetantari	-0.30103
-3.5357146	shitovipaye	-0.30103
-3.5357146	opiriati	-0.30103
-3.3679879	oharentsiki	-0.30103
-3.5357146	nihapaye	-0.30103
-3.5357146	inyampoeretakeri	-0.30103
-3.5357146	ookakiro	-0.30103
-3.5357146	raati	-0.30103
-3.5357146	intsipa	-0.30103
-3.5357146	ipankiteri	-0.30103
-3.5357146	raetiro	-0.30103
-3.5357146	antantyavori	-0.30103
-3.5357146	pamaati	-0.30103
-3.5357146	onoshikimikari	-0.30103
-3.5357146	omoetonka	-0.30103
-3.5357146	kiake	-0.30103
-3.3679879	antavo	-0.30103
-3.5357146	omoti	-0.30103
-3.5357146	shakinyi	-0.30103
-3.5357146	itimatye	-0.30103
-3.5357146	entsite	-0.30103
-3.5357146	ikemaetiri	-0.30103
-3.5357146	ramampae	-0.30103
-3.5357146	onampinaki	-0.30103
-3.5357146	shivitsa	-0.30103
-3.5357146	rapeyakero	-0.30103
-3.5357146	okirikakeri	-0.30103
-3.5357146	oneeki	-0.30103
-3.5357146	onkona	-0.30103
-3.5357146	oontsotakero	-0.30103
-3.5357146	inyeeni	-0.30103
-3.5357146	akishitantyaari	-0.30103
-3.5357146	ontyiro	-0.30103
-3.3679879	kitsarentsi	-0.30103
-3.5357146	ronyaakakeri	-0.30103
-3.3679879	inchashi	-0.30103
-3.5357146	maankivenki	-0.30103
-3.5357146	roonkake	-0.30103
-3.5357146	irotaentsi	-0.30103
-3.5357146	rareetahea	-0.30103
-3.5357146	amaanitake	-0.30103
-3.5357146	enini	-0.30103
-3.5357146	irohatsi	-0.30103
-3.5357146	oonkantanakari	-0.30103
-3.5357146	nihaatenipaye	-0.30103
-3.5357146	oonkaka	-0.30103
-3.5357146	imoti	-0.30103
-3.3679879	rovaka	-0.30103
-3.5357146	inyaamatari	-0.30103
-3.3679879	ootamentotsi	-0.30103
-3.5357146	opane	-0.30103
-3.5357146	atoonkiro	-0.30103
-3.5357146	enitatsi	-0.30103
-3.5357146	oparetsa	-0.30103
-3.5357146	komo	-0.30103
-3.5357146	opempe	-0.30103
-3.5357146	etakota	-0.30103
-3.5357146	pikiikari	-0.30103
-3.5357146	opiyaataki	-0.30103
-3.5357146	omitsitsiyimikari	-0.30103
-3.5357146	roretiri	-0.30103
-3.5357146	ihamanite	-0.30103
-3.3679879	kanirimashiki	-0.30103
-3.5357146	itaakero	-0.30103
-3.3679879	opooki	-0.30103
-3.3679879	oria	-0.30103
-3.5357146	oshekitatsi	-0.30103
-3.5357146	machaaki	-0.30103
-3.5357146	oshekipero	-0.30103
-3.5357146	okatyokakero	-0.30103
-3.5357146	oshero	-0.30103
-3.5357146	rantyavaeshiti	-0.30103
-3.5357146	osheto	-0.30103
-3.5357146	oshiyakaantsi	-0.30103
-3.5357146	roshiyakantantyariri	-0.30103
-3.5357146	rovameri	-0.30103
-3.5357146	ookiro	-0.30103
-3.3679879	otaki	-0.30103
-3.3679879	inkie	-0.30103
-3.3679879	chompita	-0.30103
-3.5357146	rovavakari	-0.30103
-3.5357146	oshoki	-0.30103
-3.5357146	ishipatona	-0.30103
-3.5357146	itapinomaki	-0.30103
-3.5357146	rotatsinkakeri	-0.30103
-3.5357146	inyaakota	-0.30103
-3.5357146	okantakantiro	-0.30103
-3.3679879	ishinkiro	-0.30103
-3.5357146	inyatsaeyani	-0.30103
-3.3679879	koshiripaye	-0.30103
-3.5357146	otetaka	-0.30103
-3.5357146	otenkanaki	-0.30103
-3.5357146	pohapaka	-0.30103
-3.5357146	okanti	-0.30103
-3.5357146	pitetahero	-0.30103
-3.5357146	kantiriki	-0.30103
-3.5357146	otitakotapaka	-0.30103
-3.3679879	ishintipare	-0.30103
-3.3679879	inchapookiki	-0.30103
-3.5357146	ikaimati	-0.30103
-3.5357146	otsapiki	-0.30103
-3.5357146	ovantsi	-0.30103
-3.5357146	otsimapookiri	-0.30103
-3.5357146	yeeye	-0.30103
-3.5357146	otyaankakeri	-0.30103
-3.5357146	oyiitakero	-0.30103
-3.5357146	oyaniri	-0.30103
-3.5357146	pohare	-0.30103
-3.5357146	ayitapaki	-0.30103
-3.5357146	aakomentotsiki	-0.30103
-3.5357146	otaavakero	-0.30103
-3.5357146	akishiveta	-0.30103
-3.5357146	opakero	-0.30103
-3.0482519	tivana	-0.30103
-3.3679879	tsamiri	-0.30103
-3.3679879	rovashiroki	-0.30103
-3.5357146	areetaka	-0.30103
-3.5357146	nantake	-0.30103
-3.5357146	pavitsi	-0.30103
-3.5357146	nataetakotantyaavori	-0.30103
-3.5357146	ihaakero	-0.30103
-3.5357146	tyonkishori	-0.30103
-3.5357146	ivachakateki	-0.30103
-3.5357146	itotati	-0.30103
-3.5357146	paho	-0.30103
-3.5357146	chavari	-0.30103
-3.5357146	rirantyari	-0.30103
-3.5357146	iviare	-0.30103
-3.5357146	okantanake	-0.30103
-3.5357146	paahonki	-0.30103
-3.5357146	pahotiki	-0.30103
-3.5357146	pakitsa	-0.30103
-3.5357146	otyaapanikite	-0.30103
-3.5357146	ichekakotake	-0.30103
-3.5357146	makaatake	-0.30103
-3.5357146	pampiamentotsi	-0.30103
-3.5357146	kemariariki	-0.30103
-3.5357146	pankivaerento	-0.30103
-3.5357146	omakoneti	-0.30103
-3.3679879	ashi	-0.30103
-3.5357146	shivaerontsi	-0.30103
-3.5357146	rovetsikaeyeni	-0.30103
-3.5357146	ovenihati	-0.30103
-3.3679879	areetinkari	-0.30103
-3.5357146	ipante	-0.30103
-3.5357146	amaatake	-0.30103
-3.5357146	pantyo	-0.30103
-3.5357146	nonyakeri	-0.30103
-3.5357146	parari	-0.30103
-3.3679879	shiketi	-0.30103
-3.5357146	pareto	-0.30103
-3.5357146	opariaki	-0.30103
-3.5357146	opankoki	-0.30103
-3.5357146	pashi	-0.30103
-3.5357146	pashiventaka	-0.30103
-3.5357146	rantivatakaro	-0.30103
-3.5357146	ichekati	-0.30103
-3.5357146	pashikaamentotsi	-0.30103
-3.5357146	ipashikantyaari	-0.30103
-3.5357146	pashikavontsi	-0.30103
-3.5357146	ohaavati	-0.30103
-3.5357146	pashiti	-0.30103
-3.5357146	iraantsi	-0.30103
-3.5357146	tsovero	-0.30103
-3.5357146	patintoki	-0.30103
-3.3679879	ochempeki	-0.30103
-3.5357146	ipatsavo	-0.30103
-3.5357146	iitoki	-0.30103
-3.5357146	iyati	-0.30103
-3.5357146	patsiri	-0.30103
-3.3679879	oyaari	-0.30103
-3.5357146	natantakaari	-0.30103
-3.5357146	naati	-0.30103
-3.5357146	payantipeshi	-0.30103
-3.5357146	nopankiteri	-0.30103
-3.3679879	novaneki	-0.30103
-3.5357146	payantishi	-0.30103
-3.5357146	opashikakotantyaavori	-0.30103
-3.5357146	opiare	-0.30103
-3.5357146	ipehatiro	-0.30103
-3.5357146	atiripaeni	-0.30103
-3.3679879	antami	-0.30103
-3.5357146	rantantyavori	-0.30103
-3.5357146	ratsimiyakeri	-0.30103
-3.5357146	penta	-0.30103
-3.5357146	orianeeriki	-0.30103
-3.5357146	ipentaki	-0.30103
-3.5357146	perantaantsi	-0.30103
-3.5357146	peranti	-0.30103
-3.5357146	otime	-0.30103
-3.5357146	ivane	-0.30103
-3.5357146	periki	-0.30103
-3.5357146	nopankiterime	-0.30103
-3.5357146	ipankitaetiro	-0.30103
-3.5357146	opeshi	-0.30103
-3.5357146	parianti	-0.30103
-3.5357146	inyakeri	-0.30103
-3.3679879	peyari	-0.30103
-3.5357146	imantsiyatantanakari	-0.30103
-3.5357146	naake	-0.30103
-3.5357146	kirikotake	-0.30103
-3.5357146	noviamene	-0.30103
-3.5357146	riraeyeni	-0.30103
-3.0482519	tyoviri	-0.30103
-3.5357146	piyate	-0.30103
-3.5357146	pimpichero	-0.30103
-3.5357146	kamantaantsi	-0.30103
-3.5357146	pipoke	-0.30103
-3.5357146	pimpichenkero	-0.30103
-3.5357146	ohankenamento	-0.30103
-3.5357146	ipichakatiro	-0.30103
-3.5357146	omoo	-0.30103
-3.5357146	pinavontsini	-0.30103
-3.5357146	ovaravontsi	-0.30103
-3.5357146	ipimantayetiri	-0.30103
-3.5357146	ikaemakantakae	-0.30103
-3.5357146	ampatotya	-0.30103
-3.5357146	pinyaavakena	-0.30103
-3.5357146	navihavaketa	-0.30103
-3.5357146	pimpiriintaheri	-0.30103
-3.3679879	pirenti	-0.30103
-3.5357146	ipariantakavo	-0.30103
-3.5357146	kamavetaka	-0.30103
-3.5357146	kantaenchari	-0.30103
-3.5357146	piriintaha	-0.30103
-3.5357146	ikaemiro	-0.30103
-3.5357146	pirinto	-0.30103
-3.3679879	hoo	-0.30103
-3.5357146	...	-0.30103
-3.5357146	pishimentotsi	-0.30103
-3.5357146	ovakerate	-0.30103
-3.5357146	opishiti	-0.30103
-3.5357146	pishiti	-0.30103
-3.5357146	tsipanashi	-0.30103
-3.5357146	pitiro	-0.30103
-3.5357146	ramanantakero	-0.30103
-3.5357146	amontyantyavori	-0.30103
-3.5357146	nirake	-0.30103
-3.5357146	niyaatantakari	-0.30103
-3.5357146	pitsitake	-0.30103
-3.5357146	inyaatsatavo	-0.30103
-3.5357146	opitsitsayetiro	-0.30103
-3.5357146	opiyiro	-0.30103
-3.5357146	aavintavontsi	-0.30103
-3.5357146	irakakerika	-0.30103
-3.5357146	otampatikatapake	-0.30103
-3.5357146	nopochokiti	-0.30103
-3.5357146	pochokitake	-0.30103
-3.5357146	ishimata	-0.30103
-3.5357146	poematanake	-0.30103
-3.5357146	mampaamentotsi	-0.30103
-3.5357146	ompohakeri	-0.30103
-3.5357146	kepityoki	-0.30103
-3.5357146	opokake	-0.30103
-3.5357146	toto	-0.30103
-3.5357146	intakeronta	-0.30103
-3.5357146	aretavo	-0.30103
-3.5357146	inaki	-0.30103
-3.5357146	pomporo	-0.30103
-3.5357146	ityootantyari	-0.30103
-3.5357146	ponatake	-0.30103
-3.5357146	ipori	-0.30103
-3.5357146	raatikaitakeri	-0.30103
-3.5357146	inyaatsavaeveta	-0.30103
-3.5357146	aretapaenchari	-0.30103
-3.5357146	piponyari	-0.30103
-3.5357146	eeroka	-0.30103
-3.5357146	poovonto	-0.30103
-3.5357146	poonkito	-0.30103
-3.5357146	iponkatyari	-0.30103
-3.5357146	piyatsari	-0.30103
-3.5357146	porenti	-0.30103
-3.5357146	shitovake	-0.30103
-3.5357146	ohompo	-0.30103
-3.5357146	oporiki	-0.30103
-3.5357146	shamoko	-0.30103
-3.5357146	potsomentotsi	-0.30103
-3.5357146	irashi	-0.30103
-3.5357146	ipotsotavo	-0.30103
-3.5357146	potsotsi	-0.30103
-3.5357146	itantari	-0.30103
-3.5357146	aaye	-0.30103
-3.5357146	potsoti	-0.30103
-3.5357146	opotsotyari	-0.30103
-3.5357146	pirevoshitya	-0.30103
-3.5357146	chetakitakemi	-0.30103
-3.5357146	ireento	-0.30103
-3.5357146	irishiria	-0.30103
-3.5357146	areetanta	-0.30103
-3.5357146	ritaki	-0.30103
-3.5357146	apitsatakiriri	-0.30103
-3.5357146	rootaki	-0.30103
-3.5357146	antakerori	-0.30103
-3.5357146	oshinkitantakari	-0.30103
-3.5357146	ikaemi	-0.30103
-3.5357146	shaa	-0.30103
-3.5357146	oshaake	-0.30103
-3.5357146	oshivitsate	-0.30103
-3.5357146	paato	-0.30103
-3.5357146	antantyaavori	-0.30103
-3.5357146	otsaato	-0.30103
-3.5357146	kantiri	-0.30103
-3.5357146	ishavaetashita	-0.30103
-3.5357146	konyoriki	-0.30103
-3.5357146	itsarovi	-0.30103
-3.5357146	ramate	-0.30103
-3.5357146	ashavokiite	-0.30103
-3.5357146	shevantoki	-0.30103
-3.5357146	mishako	-0.30103
-3.5357146	isheeto	-0.30103
-3.3679879	rakachatantyari	-0.30103
-3.5357146	ravitsakitanakeri	-0.30103
-3.5357146	ishempaki	-0.30103
-3.5357146	iparianta	-0.30103
-3.5357146	tonkake	-0.30103
-3.5357146	iitsokantyari	-0.30103
-3.5357146	itsipatavo	-0.30103
-3.5357146	ipankitiro	-0.30103
-3.5357146	ipankori	-0.30103
-3.5357146	itapoviri	-0.30103
-3.5357146	mantsiyarepaye	-0.30103
-3.5357146	shesheti	-0.30103
-3.3679879	iheekantavo	-0.30103
-3.5357146	havooki	-0.30103
-3.5357146	opotsotiro	-0.30103
-3.5357146	oshetaki	-0.30103
-3.1979425	shimashiri	-0.30103
-3.5357146	rateetantavori	-0.30103
-3.5357146	onkotsitantyari	-0.30103
-3.5357146	ototakeri	-0.30103
-3.5357146	sheteri	-0.30103
-3.5357146	raniti	-0.30103
-3.5357146	itovakotake	-0.30103
-3.5357146	sheyaki	-0.30103
-3.5357146	ishivaitatya	-0.30103
-3.5357146	rovahempiakavo	-0.30103
-3.3679879	shookake	-0.30103
-3.5357146	ishivanki	-0.30103
-3.5357146	irotaintsi	-0.30103
-3.5357146	irare	-0.30103
-3.5357146	ishiviki	-0.30103
-3.5357146	ikonatantakavori	-0.30103
-3.5357146	ocheva	-0.30103
-3.5357146	ikemaenkatiri	-0.30103
-3.5357146	tashankantsi	-0.30103
-3.5357146	oteyakitanake	-0.30103
-3.5357146	iyeenkati	-0.30103
-3.5357146	onkotsiteri	-0.30103
-3.5357146	amanite	-0.30103
-3.5357146	oshimore	-0.30103
-3.5357146	rovetsikake	-0.30103
-3.5357146	shimperi	-0.30103
-3.5357146	oteyantyaariri	-0.30103
-3.5357146	shimapaye	-0.30103
-3.5357146	shimpoki	-0.30103
-3.5357146	kompiyoki	-0.30103
-3.5357146	shina	-0.30103
-3.5357146	ipimanteri	-0.30103
-3.5357146	ivakavo	-0.30103
-3.5357146	inkame	-0.30103
-3.5357146	aakeri	-0.30103
-3.5357146	itashe	-0.30103
-3.5357146	pishiyakaeri	-0.30103
-3.5357146	ataerikari	-0.30103
-3.5357146	shinkiririti	-0.30103
-3.5357146	ayompari	-0.30103
-3.5357146	riyatantyari	-0.30103
-3.5357146	aatariki	-0.30103
-3.5357146	nonyavetakari	-0.30103
-3.5357146	ikaaveata	-0.30103
-3.5357146	aake	-0.30103
-3.5357146	ishintsaerikakeri	-0.30103
-3.5357146	irianikipaye	-0.30103
-3.5357146	ashitakantavori	-0.30103
-3.5357146	shiramparihaniki	-0.30103
-3.3679879	shintsiri	-0.30103
-3.5357146	ini	-0.30103
-3.5357146	nokovati	-0.30103
-3.5357146	namampaatyeri	-0.30103
-3.5357146	oya	-0.30103
-3.5357146	otimantyari	-0.30103
-3.5357146	ashintsinka	-0.30103
-3.5357146	shipetare	-0.30103
-3.5357146	raaviro	-0.30103
-3.5357146	shipetatantsi	-0.30103
-3.5357146	kari	-0.30103
-3.5357146	nyaatsavaerontsi	-0.30103
-3.5357146	ovamaake	-0.30103
-3.5357146	ishiyakaakavo	-0.30103
-3.5357146	ramaero	-0.30103
-3.5357146	ishire	-0.30103
-3.1979425	mantsiyare	-0.30103
-3.5357146	rantsiinkantanakari	-0.30103
-3.5357146	anyaavakahea	-0.30103
-3.5357146	shiretsiki	-0.30103
-3.5357146	oshirikiro	-0.30103
-3.5357146	ishirikakeri	-0.30103
-3.5357146	ovityo	-0.30103
-3.5357146	oshirinkaare	-0.30103
-3.5357146	ovakero	-0.30103
-3.5357146	noshintipaare	-0.30103
-3.5357146	oshirontaka	-0.30103
-3.5357146	oshinkitantari	-0.30103
-3.5357146	mariapake	-0.30103
-3.5357146	makotake	-0.30103
-3.5357146	rantakaantake	-0.30103
-3.5357146	ameniriri	-0.30103
-3.5357146	shitamentotsi	-0.30103
-3.5357146	anyantavo	-0.30103
-3.5357146	shitashintsi	-0.30103
-3.5357146	rakitsitavo	-0.30103
-3.5357146	hamaani	-0.30103
-3.5357146	maavetachari	-0.30103
-3.5357146	shitovahe	-0.30103
-3.5357146	hevatirori	-0.30103
-3.5357146	ishitsa	-0.30103
-3.5357146	oshitsapaereki	-0.30103
-3.5357146	inchatopaye	-0.30103
-3.5357146	aakoventirori	-0.30103
-3.5357146	ishiyaeyeni	-0.30103
-3.5357146	soraro	-0.30103
-3.5357146	kiteeheriki	-0.30103
-3.5357146	ishiyakakavo	-0.30103
-3.5357146	ishirontane	-0.30103
-3.5357146	raminiro	-0.30103
-3.5357146	shiyakaantsipaye	-0.30103
-3.5357146	shiyakomentotsi	-0.30103
-3.5357146	ovaeyirori	-0.30103
-3.5357146	ishiyakomento	-0.30103
-3.5357146	iyaatantyari	-0.30103
-3.5357146	tampoki	-0.30103
-3.5357146	iyotiro	-0.30103
-3.5357146	shovirentsi	-0.30103
-3.5357146	shompoti	-0.30103
-3.5357146	motake	-0.30103
-3.5357146	ipatimatiri	-0.30103
-3.5357146	shonkoro	-0.30103
-3.5357146	opankitake	-0.30103
-3.5357146	ipankitakeri	-0.30103
-3.3679879	rovane	-0.30103
-3.5357146	itahonkakero	-0.30103
-3.5357146	komatire	-0.30103
-3.5357146	otantoki	-0.30103
-3.5357146	otakiriati	-0.30103
-3.5357146	inyeni	-0.30103
-3.5357146	antantyari	-0.30103
-3.5357146	otampiate	-0.30103
-3.5357146	opare	-0.30103
-3.5357146	tampootake	-0.30103
-3.5357146	ishinkitantari	-0.30103
-3.5357146	itantoriaakero	-0.30103
-3.5357146	ipoonkake	-0.30103
-3.5357146	itantotantyaavori	-0.30103
-3.5357146	ityaapapankote	-0.30103
-3.5357146	pamakeri	-0.30103
-3.5357146	rovavakia	-0.30103
-3.5357146	otashitakeri	-0.30103
-3.5357146	ipahakaatakeri	-0.30103
-3.5357146	ikantake	-0.30103
-3.5357146	piyatsare	-0.30103
-3.5357146	niyaate	-0.30103
-3.5357146	naye	-0.30103
-3.5357146	tekirata	-0.30103
-3.5357146	nontsonkero	-0.30103
-3.5357146	nante	-0.30103
-3.5357146	novito	-0.30103
-3.5357146	iteni	-0.30103
-3.5357146	teparo	-0.30103
-3.5357146	ipankitake	-0.30103
-3.5357146	koshanti	-0.30103
-3.5357146	tivi	-0.30103
-3.5357146	tivotake	-0.30103
-3.5357146	ikaemantariri	-0.30103
-3.5357146	iyomoneerote	-0.30103
-3.5357146	otihaavakeri	-0.30103
-3.5357146	iitsare	-0.30103
-3.5357146	iita	-0.30103
-3.5357146	royaari	-0.30103
-3.5357146	piviari	-0.30103
-3.5357146	pipavakena	-0.30103
-3.5357146	tyoentaka	-0.30103
-3.3679879	timpinare	-0.30103
-3.5357146	opariatye	-0.30103
-3.5357146	iravaeta	-0.30103
-3.5357146	itinaeri	-0.30103
-3.5357146	rotetantyaariri	-0.30103
-3.5357146	ivitoki	-0.30103
-3.5357146	antyashipavotaki	-0.30103
-3.5357146	notinavo	-0.30103
-3.5357146	pamiro	-0.30103
-3.5357146	tipiro	-0.30103
-3.5357146	itipiati	-0.30103
-3.5357146	raatsi	-0.30103
-3.5357146	kovashito	-0.30103
-3.5357146	rovatsikantyavori	-0.30103
-3.5357146	tirokitsa	-0.30103
-3.5357146	raavintantyari	-0.30103
-3.5357146	itinkaavo	-0.30103
-3.5357146	tiroti	-0.30103
-3.5357146	tiyaatanaha	-0.30103
-3.5357146	pookero	-0.30103
-3.5357146	itiya	-0.30103
-3.5357146	piyaariri	-0.30103
-3.5357146	itovakero	-0.30103
-3.5357146	toniro	-0.30103
-3.5357146	rovaveta	-0.30103
-3.5357146	makotakena	-0.30103
-3.5357146	nanitiro	-0.30103
-3.5357146	tonkaare	-0.30103
-3.5357146	naantavori	-0.30103
-3.5357146	imanatakeri	-0.30103
-3.5357146	tonkamentotsiki	-0.30103
-3.5357146	atoonkatyeero	-0.30103
-3.5357146	honkoki	-0.30103
-3.5357146	shinkia	-0.30103
-3.5357146	ipashikaatakeri	-0.30103
-3.5357146	tooso	-0.30103
-3.5357146	oshinchaakiki	-0.30103
-3.5357146	itotanakeri	-0.30103
-3.5357146	itaki	-0.30103
-3.5357146	rantivatantanakari	-0.30103
-3.5357146	koteri	-0.30103
-3.5357146	pinyeri	-0.30103
-3.5357146	tsaampi	-0.30103
-3.5357146	pipankoki	-0.30103
-3.5357146	raretatyea	-0.30103
-3.5357146	rayiro	-0.30103
-3.5357146	sheripiare	-0.30103
-3.5357146	iyokane	-0.30103
-3.5357146	itsaatoki	-0.30103
-3.5357146	itsamaetiro	-0.30103
-3.5357146	mishari	-0.30103
-3.5357146	inchashipaye	-0.30103
-3.5357146	niyotavakeri	-0.30103
-3.5357146	okityonkati	-0.30103
-3.5357146	imentaina	-0.30103
-3.5357146	otashitake	-0.30103
-3.5357146	tsanavo	-0.30103
-3.5357146	operiri	-0.30103
-3.5357146	ineeki	-0.30103
-3.5357146	tsanoerentsi	-0.30103
-3.5357146	iporeriaati	-0.30103
-3.5357146	itsano	-0.30103
-3.3679879	tsompari	-0.30103
-3.5357146	tsataka	-0.30103
-3.5357146	itsati	-0.30103
-3.5357146	inyayetiri	-0.30103
-3.5357146	avihatsiri	-0.30103
-3.5357146	tseeri	-0.30103
-3.5357146	irotake	-0.30103
-3.5357146	itseyantari	-0.30103
-3.5357146	itseeyaka	-0.30103
-3.5357146	ikantanakeri	-0.30103
-3.5357146	ashitaaniyetatsiri	-0.30103
-3.5357146	inkaamani	-0.30103
-3.5357146	nompiyahe	-0.30103
-3.5357146	otsivakakero	-0.30103
-3.5357146	tampia	-0.30103
-3.5357146	tsiveta	-0.30103
-3.5357146	ikaavoshiveta	-0.30103
-3.5357146	tsiito	-0.30103
-3.5357146	ivoriki	-0.30103
-3.5357146	rantavaetantari	-0.30103
-3.5357146	tsikamentotsi	-0.30103
-3.5357146	nontsikaatavake	-0.30103
-3.5357146	tsikontoche	-0.30103
-3.5357146	riraashiterori	-0.30103
-3.5357146	ishinkana	-0.30103
-3.5357146	itsikotiro	-0.30103
-3.5357146	irakaentsiri	-0.30103
-3.5357146	omakoriati	-0.30103
-3.5357146	otsimankitye	-0.30103
-3.5357146	itaati	-0.30103
-3.5357146	tsimenkito	-0.30103
-3.5357146	itsinampaitakeri	-0.30103
-3.5357146	kishokiri	-0.30103
-3.5357146	rookaitakeri	-0.30103
-3.5357146	ohaviki	-0.30103
-3.5357146	itsinampaakero	-0.30103
-3.5357146	iinatsori	-0.30103
-3.5357146	nokentatakaemi	-0.30103
-3.5357146	roohati	-0.30103
-3.5357146	itsintiro	-0.30103
-3.5357146	irihaniki	-0.30103
-3.5357146	raitiro	-0.30103
-3.5357146	akipatantyaari	-0.30103
-3.5357146	oyeenka	-0.30103
-3.5357146	okarentsatantyari	-0.30103
-3.5357146	aishi	-0.30103
-3.5357146	tsirentsitonki	-0.30103
-3.5357146	raanaheniro	-0.30103
-3.5357146	ipayeetiri	-0.30103
-3.5357146	tsirikana	-0.30103
-3.5357146	ikomintsatantyaari	-0.30103
-3.5357146	piriaperotake	-0.30103
-3.5357146	omorekantari	-0.30103
-3.5357146	nakachatantyari	-0.30103
-3.5357146	tsiya	-0.30103
-3.5357146	chapitsi	-0.30103
-3.5357146	oitsoki	-0.30103
-3.5357146	rapatota	-0.30103
-3.5357146	tsiyeri	-0.30103
-3.5357146	ranashitantyaari	-0.30103
-3.5357146	tsovo	-0.30103
-3.5357146	roteyantyaariri	-0.30103
-3.5357146	otsoki	-0.30103
-3.5357146	okashi	-0.30103
-3.5357146	tsomanto	-0.30103
-3.5357146	raavintantyariri	-0.30103
-3.5357146	ipatsaavo	-0.30103
-3.5357146	ikentavaeti	-0.30103
-3.5357146	ishimane	-0.30103
-3.5357146	otsonkakero	-0.30103
-3.5357146	otakiriro	-0.30103
-3.5357146	inyaamatavo	-0.30103
-3.3679879	ratsotiro	-0.30103
-3.5357146	ovocharite	-0.30103
-3.5357146	nonyaamatavo	-0.30103
-3.5357146	novavo	-0.30103
-3.5357146	tsonkitiroki	-0.30103
-3.5357146	opochatati	-0.30103
-3.5357146	ayiro	-0.30103
-3.5357146	tsoompirontsi	-0.30103
-3.5357146	okiantyariri	-0.30103
-3.5357146	otomipaye	-0.30103
-3.5357146	tsoori	-0.30103
-3.5357146	itsopaakero	-0.30103
-3.5357146	apeti	-0.30103
-3.5357146	iraiki	-0.30103
-3.5357146	ramavetapahero	-0.30103
-3.5357146	iyatsinka	-0.30103
-3.5357146	ipashikaatake	-0.30103
-3.5357146	marinkama	-0.30103
-3.5357146	tsopiro	-0.30103
-3.5357146	oshirantaaki	-0.30103
-3.5357146	ohampovatsate	-0.30103
-3.5357146	ityaakero	-0.30103
-3.5357146	oitsokake	-0.30103
-3.5357146	tahakotake	-0.30103
-3.5357146	maretyakintsi	-0.30103
-3.5357146	oninti	-0.30103
-3.5357146	tyonkiro	-0.30103
-3.5357146	ikaemakantaetakeri	-0.30103
-3.5357146	yempipavaerontsiki	-0.30103
-3.5357146	iyempita	-0.30103
-3.5357146	ikemantari	-0.30103
-3.5357146	intaena	-0.30103
-3.5357146	iyereto	-0.30103
-3.5357146	ityerovi	-0.30103
-3.5357146	nokantakeri	-0.30103
-3.5357146	pamitakotena	-0.30103
-3.5357146	notsonkantyaavori	-0.30103
-3.5357146	pinkatsare	-0.30103
-3.5357146	yomaarentsi	-0.30103
-3.5357146	riyomatantyavori	-0.30103
-3.5357146	yoosara	-0.30103
-3.5357146	noyometaemi	-0.30103
-3.5357146	panteri	-0.30103
-3.5357146	piyaatake	-0.30103
-3.5357146	hantariki	-0.30103
-3.5357146	piyote	-0.30103
-3.5357146	pihankenate	-0.30103
-3.5357146	pivaero	-0.30103
-3.5357146	piyotero	-0.30103
-3.5357146	aavintantatsiri	-0.30103
-3.5357146	pamitakotantyaariri	-0.30103
-3.5357146	iyataeyeni	-0.30103
-3.5357146	riyotantyaari	-0.30103
-3.5357146	anyane	-0.30103
-3.5357146	apinka	-0.30103
-3.5357146	yareeta	-0.30103
-3.5357146	antamimashiki	-0.30103
-3.5357146	homintsaavakeri	-0.30103
-3.5357146	kashekari	-0.30103
-3.5357146	itsaavakaakari	-0.30103
-3.5357146	maranke	-0.30103

\2-grams:
-0.001256457	. </s>	0
-1.3710017	ovaantsiki </s>	0
-1.3259835	piarentsi </s>	0
-0.2488445	? </s>	0
-1.3637722	shima </s>	0
-1.1332886	maniti </s>	0
-0.7726021	chomenta </s>	0
-0.29917243	itivanate </s>	0
-0.5983527	oharentsite </s>	0
-0.7726021	tonkariki </s>	0
-0.7726021	ocheempeki </s>	0
-0.5983527	ishintipare </s>	0
-0.29917243	iviare </s>	0
-0.29917243	... </s>	0
-0.29917243	areetanta </s>	0
-0.29917243	anyane </s>	0
-0.29917243	kashekari </s>	0
-2.8333437	<s> paamaventya	-0.0152739445
-3.0667553	<s> kaakitaki	-0.0152739445
-0.6016879	paamaventya kaakitaki	-0.0152739445
-0.6016879	kaakitaki ovayeri	-0.0152739445
-0.30084392	inoshikakero ovayeri	-0.0152739445
-0.4984392	ovayeri .	-0.0152739445
-0.30350697	iina .	-0.9437687
-0.4984392	inati .	-0.0152739445
-0.1328847	ovaantsiki .	-1.1656175
-0.24613647	iriripaye .	-0.0152739445
-0.630723	nishintyo .	-0.0152739445
-0.24613647	shitovi .	-0.6427387
-0.84659284	choeni .	-0.6427387
-0.25657412	tsitsi .	-0.7676774
-0.630723	ishinto .	-0.0152739445
-0.4984392	oitsare .	-0.0152739445
-0.24613647	okavoshitantyaavori .	-0.0152739445
-0.5564312	niha .	-0.8645874
-0.24613647	haavari .	-0.0152739445
-0.79286057	eentsi .	-0.6427387
-1.1114483	osheki .	-0.0152739445
-0.32531774	tsireniriki .	-0.7676774
-0.630723	nampitsi .	-0.0152739445
-0.630723	haka .	-0.0152739445
-0.24613647	pokatsiri .	-0.0152739445
-0.4984392	avotsi .	-0.0152739445
-0.24613647	kempityaariki .	-0.0152739445
-0.6448401	charine .	-0.9437687
-0.6391381	isheeni .	-0.7676774
-0.4279424	piarentsi .	-0.8645874
-0.980452	? .	-0.0152739445
-0.24613647	ikahankantyaari .	-0.0152739445
-0.89897573	pavachori .	-0.22762923
-0.24613647	ikaematimi .	-0.0152739445
-0.35421798	mamori .	-0.6427387
-0.24613647	akacharentsi .	-0.0152739445
-0.24613647	mamoripaye .	-0.0152739445
-0.3710752	shima .	-0.9437687
-0.24613647	pakishire .	-0.0152739445
-1.0783379	apa .	-0.0152739445
-0.38083506	kaniri .	-1.0107155
-0.7548785	yeye .	-0.9437687
-0.24613647	paamariki .	-0.0152739445
-0.24613647	rakopero .	-0.0152739445
-0.71587104	entsi .	-0.0152739445
-0.24613647	iriri .	-0.0152739445
-0.35421798	pitotsi .	-0.6427387
-0.80058664	maniro .	-0.22762923
-0.24613647	oveniki .	-0.0152739445
-0.630723	ishintipaareki .	-0.0152739445
-0.24613647	kirinka .	-0.0152739445
-0.776332	ipankoki .	-0.0152739445
-0.630723	pava .	-0.22762923
-0.630723	korioviri .	-0.0152739445
-0.82188785	ichenko .	-0.0152739445
-0.3971811	cheenkari .	-0.22762923
-0.4984392	kocheri .	-0.0152739445
-0.24613647	maeta .	-0.0152739445
-0.85762656	pinkatsari .	-0.0152739445
-0.776332	ovakerari .	-0.0152739445
-0.24613647	rapatotya .	-0.0152739445
-0.4984392	oriani .	-0.0152739445
-0.4984392	ameeni .	-0.0152739445
-0.19325988	antamiki .	-1.1656175
-0.24613647	shitsivari .	-0.0152739445
-0.24613647	shiyakaantsi .	-0.0152739445
-0.4984392	pipanko .	-0.0152739445
-0.24613647	rampateki .	-0.0152739445
-0.4984392	kitamaari .	-0.0152739445
-0.4984392	hataantaneri .	-0.0152739445
-0.59368765	tsinane .	-0.6427387
-0.4984392	eereki .	-0.0152739445
-0.4984392	oishi .	-0.0152739445
-0.71587104	koshiri .	-0.0152739445
-0.630723	kipatsiki .	-0.0152739445
-0.17035876	tsimiki .	-0.7676774
-0.71587104	itomi .	-0.22762923
-0.24613647	inchatonakiki .	-0.0152739445
-0.71587104	shoshokiri .	-0.0152739445
-0.4984392	shinkirenti .	-0.0152739445
-0.3971811	inampiki .	-0.22762923
-0.3971811	poshiniri .	-0.22762923
-0.24613647	itsinanitepaye .	-0.0152739445
-0.24613647	tapetsa .	-0.0152739445
-0.87278837	konki .	-0.22762923
-0.9208265	nana .	-0.22762923
-0.24613647	otsitzi .	-0.0152739445
-0.776332	otsiti .	-0.22762923
-0.85762656	maniti .	-0.0152739445
-0.3971811	vatsatsi .	-0.22762923
-0.24613647	anyeenkatatsi .	-0.0152739445
-0.47152174	kametsa .	-0.7676774
-0.32531774	pankotsiki .	-0.7676774
-0.24613647	pantavaka .	-0.0152739445
-0.4984392	apaniroeni .	-0.0152739445
-0.24613647	imaamentoki .	-0.0152739445
-0.630723	chapinki .	-0.0152739445
-0.24613647	pitsaeyaka .	-0.0152739445
-0.24613647	oetsareki .	-0.0152739445
-0.24613647	impeeta .	-0.0152739445
-0.24613647	tyaapapanko .	-0.0152739445
-0.4984392	rashitakotakeri .	-0.0152739445
-0.71587104	omoonaki .	-0.0152739445
-0.24613647	otishi .	-0.6427387
-0.9868232	isheni .	-0.0152739445
-0.630723	pamaki .	-0.0152739445
-0.71587104	okitsoki .	-0.0152739445
-0.4984392	anampiki .	-0.0152739445
-0.6768255	atiri .	-0.7676774
-0.24613647	anyaapintane .	-0.0152739445
-0.24613647	inkaariveri .	-0.0152739445
-0.24613647	tyaapaniki .	-0.22762923
-0.82188785	notyomi .	-0.0152739445
-0.24613647	iporiki .	-0.0152739445
-0.44617575	inchato .	-1.0107155
-0.71587104	konoya .	-0.0152739445
-0.24613647	ikiriki .	-0.0152739445
-0.24613647	hevaantsi .	-0.0152739445
-0.71587104	pitomi .	-0.0152739445
-0.5398319	tyaapa .	-0.7676774
-0.24613647	iyeenka .	-0.0152739445
-0.630723	ivatsa .	-0.0152739445
-0.24613647	hevari .	-0.0152739445
-0.5728934	shonkiri .	-0.22762923
-0.24613647	piri .	-0.0152739445
-0.776332	hamani .	-0.0152739445
-0.630723	shintori .	-0.0152739445
-0.24613647	ivatsaki .	-0.6427387
-0.4984392	notsitsite .	-0.0152739445
-0.24613647	otishiki .	-0.0152739445
-0.89897573	nani .	-0.22762923
-0.4984392	ichakopite .	-0.0152739445
-0.71587104	iitsoki .	-0.22762923
-0.4984392	ocheraaki .	-0.0152739445
-0.630723	nihaki .	-0.0152739445
-0.82188785	rovanavo .	-0.0152739445
-0.24613647	onkonashi .	-0.0152739445
-0.776332	charava .	-0.0152739445
-0.24613647	antavaaki .	-0.0152739445
-0.630723	kiri .	-0.22762923
-0.35528094	tonkaareki .	-0.8645874
-0.630723	maanki .	-0.0152739445
-0.3971811	avotsiki .	-0.22762923
-0.24613647	cheenti .	-0.0152739445
-0.24613647	tontori .	-0.0152739445
-0.59368765	iitiki .	-0.6427387
-0.26643673	inkaareki .	-1.0687075
-0.32531774	inkani .	-0.7676774
-0.13052201	ipanko .	-0.8645874
-0.24613647	chenkoripaye .	-0.0152739445
-0.4984392	tsinanepaye .	-0.22762923
-0.3971811	intsipaite .	-0.22762923
-0.4984392	pitsiro .	-0.0152739445
-0.24613647	avitatakena .	-0.0152739445
-0.24613647	chenteroki .	-0.0152739445
-0.630723	impaneki .	-0.0152739445
-0.24613647	inyaatsavaetantari .	-0.22762923
-0.24613647	noyotsiraanikite .	-0.0152739445
-0.4984392	chokiyo .	-0.0152739445
-0.24613647	ochaapote .	-0.0152739445
-0.24613647	oviyare .	-0.0152739445
-0.5728934	iraka .	-0.22762923
-0.71587104	payanti .	-0.0152739445
-0.24613647	pocharipaye .	-0.0152739445
-0.24613647	intsipaki .	-0.0152739445
-0.24613647	ikomintsati .	-0.0152739445
-0.24613647	iperata .	-0.0152739445
-0.24613647	norentitsori .	-0.0152739445
-0.24613647	pantarite .	-0.0152739445
-0.4984392	kapeshi .	-0.0152739445
-0.17035876	tonkareki .	-0.7676774
-0.24613647	pinampiki .	-0.0152739445
-0.43490067	eniki .	-0.6427387
-0.24613647	otiyaarentsi .	-0.22762923
-0.630723	kitoche .	-0.0152739445
-0.3971811	rovaneki .	-0.22762923
-0.24613647	akonkire .	-0.0152739445
-0.24613647	anyavaete .	-0.0152739445
-0.24613647	eshiraatake .	-0.0152739445
-0.24613647	onintane .	-0.0152739445
-0.4984392	imaamento .	-0.0152739445
-0.630723	henoki .	-0.0152739445
-0.24613647	ikomintsatantyari .	-0.0152739445
-0.24613647	chareto .	-0.0152739445
-0.4984392	iito .	-0.0152739445
-0.24613647	tainchari .	-0.0152739445
-0.24613647	imooshiki .	-0.22762923
-0.24613647	nihateniki .	-0.6427387
-0.3971811	impanekiki .	-0.22762923
-0.3971811	inkiteki .	-0.22762923
-0.4984392	oharentsite .	-0.0152739445
-0.93045664	ina .	-0.0152739445
-0.24613647	tsirenirikipaye .	-0.0152739445
-0.24613647	tsimeripaye .	-0.22762923
-0.24613647	ikamaankantakari .	-0.0152739445
-0.24613647	onati .	-0.0152739445
-0.4984392	nampitsiki .	-0.22762923
-0.24613647	inkaare .	-0.0152739445
-0.4984392	pankirentsi .	-0.0152739445
-0.630723	icharine .	-0.0152739445
-0.24613647	inkokiroeni .	-0.0152739445
-0.24613647	keshiiki .	-0.0152739445
-0.4984392	impeetaki .	-0.0152739445
-0.4984392	kamanyari .	-0.0152739445
-0.35421798	irira .	-0.6427387
-0.24613647	rantavaeshiti .	-0.0152739445
-0.71587104	mapocha .	-0.0152739445
-0.24613647	akishitavakeeta .	-0.0152739445
-0.3971811	ovaneki .	-0.22762923
-0.71587104	eentsipaye .	-0.0152739445
-0.17035876	oveni .	-0.7676774
-0.24613647	ramatsaereki .	-0.0152739445
-0.24613647	novorotaarite .	-0.0152739445
-0.24613647	pariakotanake .	-0.0152739445
-0.3971811	nopankoki .	-0.22762923
-0.24613647	hamaka .	-0.0152739445
-0.3971811	hampovatsa .	-0.22762923
-0.24613647	antavaeshiri .	-0.0152739445
-0.4984392	kityonkari .	-0.0152739445
-0.24613647	kompitarentsi .	-0.0152739445
-0.51181245	ovametantatsiri .	-0.8645874
-0.24613647	ihankenavaerentitantyaari .	-0.0152739445
-0.630723	inchatoki .	-0.0152739445
-0.24613647	opochaanikiti .	-0.0152739445
-0.24613647	imooki .	-0.0152739445
-0.4984392	maeni .	-0.0152739445
-0.43490067	hantari .	-0.6427387
-0.24613647	ivito .	-0.0152739445
-0.630723	shitamenkotsiki .	-0.0152739445
-0.24613647	koshitakeriri .	-0.0152739445
-0.776332	paamari .	-0.0152739445
-0.24613647	omorekantyaari .	-0.0152739445
-0.4984392	pavaeni .	-0.0152739445
-0.24613647	apanko .	-0.22762923
-0.24613647	eshikempitari .	-0.0152739445
-0.630723	hetari .	-0.0152739445
-0.43490067	mapi .	-0.6427387
-0.24613647	inyaatsaveta .	-0.0152739445
-0.4984392	oime .	-0.0152739445
-0.24613647	inyiiro .	-0.0152739445
-0.24613647	ikentsiki .	-0.0152739445
-0.24613647	oporiperoki .	-0.0152739445
-0.24613647	ihonkantantyaari .	-0.0152739445
-0.24613647	nihaateniki .	-0.6427387
-0.4984392	ovaantsi .	-0.0152739445
-0.24613647	kachaarentsi .	-0.0152739445
-0.24613647	shitsa .	-0.0152739445
-0.24613647	nokentsiki .	-0.0152739445
-0.24613647	pochaari .	-0.22762923
-0.24613647	kamaantsi .	-0.22762923
-0.24613647	noitsiki .	-0.0152739445
-0.24613647	apatorentsi .	-0.22762923
-0.4984392	amampaantsi .	-0.0152739445
-0.24613647	oveshiriachari .	-0.0152739445
-0.24613647	piyanirimashite .	-0.0152739445
-0.630723	pankotsi .	-0.0152739445
-0.4984392	iyaniri .	-0.0152739445
-0.24613647	ashisho .	-0.22762923
-0.4984392	itanto .	-0.0152739445
-0.24613647	ikenkishiriamento .	-0.0152739445
-0.24613647	rovamayeri .	-0.0152739445
-0.32531774	nihaaki .	-0.7676774
-0.4984392	kapichoki .	-0.0152739445
-0.24613647	pitivine .	-0.0152739445
-0.24613647	pipariikari .	-0.0152739445
-0.24613647	rootaperotantaari .	-0.0152739445
-0.4984392	katsimari .	-0.0152739445
-0.4984392	otsipa .	-0.0152739445
-0.630723	kayetsi .	-0.0152739445
-0.24613647	ovanavontsi .	-0.22762923
-0.4984392	imaantyaari .	-0.0152739445
-0.24613647	rakantakamiri .	-0.0152739445
-0.4984392	tashirentsi .	-0.0152739445
-0.24613647	koryo .	-0.0152739445
-0.4984392	irakoki .	-0.0152739445
-0.24613647	shiranta .	-0.0152739445
-0.24613647	kenitsi .	-0.0152739445
-0.24613647	antavaerontsi .	-0.0152739445
-0.24613647	ikinavaeti .	-0.0152739445
-0.630723	tonkariki .	-0.0152739445
-0.24613647	tsompare .	-0.0152739445
-0.3971811	ocheempeki .	-0.22762923
-0.4984392	kepaye .	-0.0152739445
-0.4984392	sheri .	-0.0152739445
-0.24613647	kiavontsiki .	-0.0152739445
-0.24613647	ankaraero .	-0.0152739445
-0.24613647	anyiinkari .	-0.0152739445
-0.24613647	pinkaavoshitya .	-0.0152739445
-0.35421798	ovantsipooshiki .	-0.6427387
-0.24613647	yotaantsi .	-0.0152739445
-0.24613647	iyamaantsite .	-0.0152739445
-0.24613647	ikenavaete .	-0.0152739445
-0.24613647	ihankenatantantyari .	-0.0152739445
-0.4984392	inchateyaki .	-0.0152739445
-0.24613647	hirimaki .	-0.0152739445
-0.24613647	rovavaetya .	-0.0152739445
-0.24613647	tsiyaroki .	-0.6427387
-0.24613647	ohari .	-0.0152739445
-0.24613647	nakoki .	-0.0152739445
-0.24613647	oovaenchari .	-0.0152739445
-0.24613647	imaantyari .	-0.0152739445
-0.24613647	onkochapaaki .	-0.0152739445
-0.24613647	mintsarovakenari .	-0.0152739445
-0.24613647	koviti .	-0.22762923
-0.24613647	kohaniri .	-0.0152739445
-0.24613647	intsipaete .	-0.0152739445
-0.24613647	komarontsi .	-0.22762923
-0.4984392	meshiyanto .	-0.0152739445
-0.24613647	iyanirimashiteki .	-0.0152739445
-0.24613647	rantavaiventari .	-0.0152739445
-0.24613647	inyaayetiri .	-0.0152739445
-0.24613647	nihaa .	-0.0152739445
-0.4984392	tiri .	-0.0152739445
-0.24613647	oyanire .	-0.0152739445
-0.24613647	ishintopaye .	-0.0152739445
-0.4984392	ohaaviki .	-0.0152739445
-0.24613647	ikamankaati .	-0.0152739445
-0.3971811	onkiro .	-0.22762923
-0.4984392	manyo .	-0.0152739445
-0.24613647	pokashitiriri .	-0.0152739445
-0.4984392	ovatsa .	-0.0152739445
-0.4984392	tsireentsi .	-0.0152739445
-0.24613647	iraeyeni .	-0.0152739445
-0.4984392	antavaeti .	-0.0152739445
-0.24613647	mahonti .	-0.0152739445
-0.24613647	rovantyari .	-0.0152739445
-0.24613647	iirianipaye .	-0.0152739445
-0.24613647	yotaantsinpanko .	-0.0152739445
-0.24613647	ichakopitepaye .	-0.0152739445
-0.24613647	inchatoshiki .	-0.0152739445
-0.24613647	tyaentsiri .	-0.0152739445
-0.24613647	katsirentsi .	-0.0152739445
-0.4984392	mantsiyarentsi .	-0.0152739445
-0.24613647	ariaheniti .	-0.0152739445
-0.4984392	ishetaki .	-0.22762923
-0.24613647	kitaeheri .	-0.0152739445
-0.24613647	yotaantsinpankoki .	-0.0152739445
-0.4984392	pashiitoki .	-0.0152739445
-0.24613647	nantavaire .	-0.0152739445
-0.24613647	ikonaveta .	-0.0152739445
-0.24613647	payantimashiki .	-0.0152739445
-0.24613647	hinatsi .	-0.0152739445
-0.24613647	ipashikaatantari .	-0.0152739445
-0.4984392	okaakini .	-0.0152739445
-0.24613647	kiteeheri .	-0.0152739445
-0.24613647	atsima .	-0.0152739445
-0.24613647	iveshiriaeyani .	-0.0152739445
-0.24613647	ratsovootiro .	-0.0152739445
-0.24613647	tyopiki .	-0.0152739445
-0.24613647	rakachaare .	-0.0152739445
-0.24613647	enchaniki .	-0.0152739445
-0.24613647	nontyaare .	-0.0152739445
-0.4984392	tyaapapankoki .	-0.0152739445
-0.4984392	nihaateni .	-0.0152739445
-0.24613647	ishitsane .	-0.0152739445
-0.24613647	omarentsi .	-0.0152739445
-0.24613647	paamareki .	-0.0152739445
-0.24613647	komairipaye .	-0.0152739445
-0.24613647	amarentsipaye .	-0.0152739445
-0.24613647	nomire .	-0.0152739445
-0.24613647	noinantemi .	-0.0152739445
-0.24613647	ipankaki .	-0.0152739445
-0.24613647	nyaavaementotsiki .	-0.0152739445
-0.24613647	nyaamentotsiki .	-0.0152739445
-0.4984392	yotaantsipankoki .	-0.0152739445
-0.24613647	inampi .	-0.0152739445
-0.24613647	korintooniki .	-0.0152739445
-0.24613647	impetaki .	-0.0152739445
-0.24613647	iperatantari .	-0.0152739445
-0.24613647	kameetsa .	-0.0152739445
-0.43490067	ovantsiki .	-0.6427387
-0.71587104	shinki .	-0.0152739445
-0.24613647	inki .	-0.0152739445
-0.4984392	shonyaki .	-0.0152739445
-0.4984392	ikentantyaariri .	-0.0152739445
-0.24613647	kontsavopaye .	-0.0152739445
-0.24613647	kaminirio .	-0.0152739445
-0.24613647	ivaneki .	-0.22762923
-0.24613647	omachaakite .	-0.0152739445
-0.24613647	ovirentsi .	-0.0152739445
-0.24613647	shitovipaye .	-0.0152739445
-0.4984392	oharentsiki .	-0.0152739445
-0.24613647	nihapaye .	-0.0152739445
-0.24613647	omoetonka .	-0.0152739445
-0.24613647	entsite .	-0.0152739445
-0.24613647	shivitsa .	-0.0152739445
-0.24613647	onkona .	-0.0152739445
-0.24613647	kitsarentsi .	-0.22762923
-0.24613647	maankivenki .	-0.0152739445
-0.24613647	rareetahea .	-0.0152739445
-0.24613647	nihaatenipaye .	-0.0152739445
-0.4984392	rovaka .	-0.0152739445
-0.24613647	ootamentotsi .	-0.22762923
-0.24613647	atoonkiro .	-0.0152739445
-0.24613647	komo .	-0.0152739445
-0.24613647	omitsitsiyimikari .	-0.0152739445
-0.24613647	kanirimashiki .	-0.22762923
-0.4984392	opooki .	-0.0152739445
-0.24613647	oria .	-0.22762923
-0.24613647	oshero .	-0.0152739445
-0.24613647	osheto .	-0.0152739445
-0.24613647	rovameri .	-0.0152739445
-0.4984392	chompita .	-0.0152739445
-0.24613647	itapinomaki .	-0.0152739445
-0.24613647	ishinkiro .	-0.22762923
-0.24613647	koshiripaye .	-0.22762923
-0.24613647	kantiriki .	-0.0152739445
-0.4984392	inchapookiki .	-0.0152739445
-0.24613647	ovantsi .	-0.0152739445
-0.24613647	pohare .	-0.0152739445
-0.71587104	tivana .	-0.0152739445
-0.4984392	rovashiroki .	-0.0152739445
-0.24613647	ivachakateki .	-0.0152739445
-0.24613647	kemariariki .	-0.0152739445
-0.24613647	shivaerontsi .	-0.0152739445
-0.24613647	areetinkari .	-0.22762923
-0.4984392	shiketi .	-0.0152739445
-0.24613647	opankoki .	-0.0152739445
-0.24613647	iraantsi .	-0.0152739445
-0.24613647	ochempeki .	-0.22762923
-0.24613647	oyaari .	-0.22762923
-0.24613647	novaneki .	-0.22762923
-0.24613647	opiare .	-0.0152739445
-0.24613647	ivane .	-0.0152739445
-0.24613647	imantsiyatantanakari .	-0.0152739445
-0.24613647	noviamene .	-0.0152739445
-0.71587104	tyoviri .	-0.0152739445
-0.24613647	ampatotya .	-0.0152739445
-0.24613647	navihavaketa .	-0.0152739445
-0.4984392	pirenti .	-0.0152739445
-0.24613647	piriintaha .	-0.0152739445
-0.24613647	pitiro .	-0.0152739445
-0.24613647	aavintavontsi .	-0.0152739445
-0.24613647	irakakerika .	-0.0152739445
-0.24613647	ishimata .	-0.0152739445
-0.24613647	ityootantyari .	-0.0152739445
-0.24613647	inyaatsavaeveta .	-0.0152739445
-0.24613647	poovonto .	-0.0152739445
-0.24613647	piyatsari .	-0.0152739445
-0.24613647	chetakitakemi .	-0.0152739445
-0.24613647	oshinkitantakari .	-0.0152739445
-0.24613647	kantiri .	-0.0152739445
-0.24613647	ramate .	-0.0152739445
-0.24613647	ashavokiite .	-0.0152739445
-0.4984392	rakachatantyari .	-0.0152739445
-0.24613647	iparianta .	-0.0152739445
-0.24613647	ipankori .	-0.0152739445
-0.24613647	mantsiyarepaye .	-0.0152739445
-0.24613647	havooki .	-0.0152739445
-0.630723	shimashiri .	-0.0152739445
-0.24613647	raniti .	-0.0152739445
-0.24613647	irare .	-0.0152739445
-0.24613647	ocheva .	-0.0152739445
-0.24613647	onkotsiteri .	-0.0152739445
-0.24613647	oshimore .	-0.0152739445
-0.24613647	shimapaye .	-0.0152739445
-0.24613647	ipimanteri .	-0.0152739445
-0.24613647	itashe .	-0.0152739445
-0.24613647	shinkiririti .	-0.0152739445
-0.24613647	irianikipaye .	-0.0152739445
-0.24613647	ini .	-0.0152739445
-0.24613647	namampaatyeri .	-0.0152739445
-0.24613647	ashintsinka .	-0.0152739445
-0.24613647	ovamaake .	-0.0152739445
-0.630723	mantsiyare .	-0.0152739445
-0.24613647	rantsiinkantanakari .	-0.0152739445
-0.24613647	shiretsiki .	-0.0152739445
-0.24613647	oshinkitantari .	-0.0152739445
-0.24613647	makotake .	-0.0152739445
-0.24613647	aakoventirori .	-0.0152739445
-0.24613647	kiteeheriki .	-0.0152739445
-0.24613647	ishirontane .	-0.0152739445
-0.24613647	shiyakaantsipaye .	-0.0152739445
-0.24613647	tampoki .	-0.0152739445
-0.24613647	shovirentsi .	-0.0152739445
-0.24613647	otantoki .	-0.0152739445
-0.24613647	ishinkitantari .	-0.0152739445
-0.24613647	ityaapapankote .	-0.0152739445
-0.24613647	novito .	-0.0152739445
-0.24613647	iteni .	-0.0152739445
-0.24613647	iyomoneerote .	-0.0152739445
-0.24613647	royaari .	-0.0152739445
-0.24613647	ivitoki .	-0.0152739445
-0.24613647	notinavo .	-0.0152739445
-0.24613647	tipiro .	-0.0152739445
-0.24613647	tiroti .	-0.0152739445
-0.24613647	piyaariri .	-0.0152739445
-0.24613647	tonkamentotsiki .	-0.0152739445
-0.24613647	shinkia .	-0.0152739445
-0.24613647	oshinchaakiki .	-0.0152739445
-0.24613647	rantivatantanakari .	-0.0152739445
-0.24613647	koteri .	-0.0152739445
-0.24613647	itsaatoki .	-0.0152739445
-0.24613647	inchashipaye .	-0.0152739445
-0.24613647	imentaina .	-0.0152739445
-0.24613647	iporeriaati .	-0.0152739445
-0.4984392	tsompari .	-0.0152739445
-0.24613647	avihatsiri .	-0.0152739445
-0.24613647	itseyantari .	-0.0152739445
-0.24613647	nompiyahe .	-0.0152739445
-0.24613647	ishinkana .	-0.0152739445
-0.24613647	irakaentsiri .	-0.0152739445
-0.24613647	otsimankitye .	-0.0152739445
-0.24613647	tsimenkito .	-0.0152739445
-0.24613647	ohaviki .	-0.0152739445
-0.24613647	irihaniki .	-0.0152739445
-0.24613647	aishi .	-0.0152739445
-0.24613647	ikomintsatantyaari .	-0.0152739445
-0.24613647	chapitsi .	-0.0152739445
-0.24613647	opochatati .	-0.0152739445
-0.24613647	otomipaye .	-0.0152739445
-0.24613647	iyatsinka .	-0.0152739445
-0.24613647	oshirantaaki .	-0.0152739445
-0.24613647	tyonkiro .	-0.0152739445
-0.24613647	yempipavaerontsiki .	-0.0152739445
-0.24613647	intaena .	-0.0152739445
-0.24613647	ityerovi .	-0.0152739445
-0.24613647	hantariki .	-0.0152739445
-0.24613647	pivaero .	-0.0152739445
-0.24613647	riyotantyaari .	-0.0152739445
-0.24613647	antamimashiki .	-0.0152739445
-0.24613647	maranke .	-0.0152739445
-2.3652914	<s> eero	-0.0152739445
-1.6602652	: eero	-0.0152739445
-1.9546906	osheki eero	-0.0152739445
-1.7100548	charine eero	-0.0152739445
-1.0744315	pankotsiki eero	-0.0152739445
-1.5164593	atiri eero	-0.0152739445
-0.3000759	imaantare eero	-0.0152739445
-0.3000759	ishempaki eero	-0.0152739445
-0.3000759	shitamentotsi eero	-0.0152739445
-1.413332	eero pinyanatiro	-0.0152739445
-2.7581196	<s> iina	-0.0152739445
-0.29996285	pinyanatiro iina	-0.0152739445
-1.9496164	osheki iina	-0.0152739445
-0.5999284	kocheri iina	-0.0152739445
-0.29996285	rovakaeyavo iina	-0.0152739445
-0.29996285	antirori iina	-0.0152739445
-0.29996285	rokakiro iina	-0.0152739445
-0.29996285	okihotimotiri iina	-0.0152739445
-0.29996285	ovashiyavakena iina	-0.0152739445
-0.29996285	raanaheniro iina	-0.0152739445
-1.298318	iina yompiri	-0.0152739445
-0.90153825	ramanantake yompiri	-0.0152739445
-0.30064154	maaperotaka yompiri	-0.0152739445
-0.30064154	ikaemakantaetiri yompiri	-0.0152739445
-0.8899526	yompiri ,	-0.0152739445
-0.76826113	nanaeni ,	-0.0152739445
-1.8588946	osheki ,	-0.0152739445
-1.0628207	tsireniriki ,	-0.0152739445
-1.6589419	charine ,	-0.0152739445
-1.478198	pavachori ,	-0.0152739445
-0.2977082	tasheyakena ,	-0.0152739445
-1.3072097	maniro ,	-0.0152739445
-0.2977082	ishako ,	-0.0152739445
-0.2977082	ayiini ,	-0.0152739445
-0.8899526	pitomi ,	-0.0152739445
-0.59544164	iye ,	-0.0152739445
-0.59544164	entyo ,	-0.0152739445
-0.2977082	pinyaakeri ,	-0.0152739445
-0.2977082	ovametantayetatsiri ,	-0.0152739445
-0.76826113	inchatoki ,	-0.0152739445
-0.76826113	shitamenkotsiki ,	-0.0152739445
-0.2977082	hee ,	-0.0152739445
-0.2977082	pinkeme ,	-0.0152739445
-0.2977082	kahankari ,	-0.0152739445
-0.2977082	karentsatake ,	-0.0152739445
-0.76826113	inchaki ,	-0.0152739445
-0.2977082	kipatsitakemi ,	-0.0152739445
-0.2977082	kiriviro ,	-0.0152739445
-0.2977082	miriti ,	-0.0152739445
-0.2977082	hantsari ,	-0.0152739445
-0.59544164	niravake ,	-0.0152739445
-0.2977082	enini ,	-0.0152739445
-0.59544164	antami ,	-0.0152739445
-0.2977082	pinyaavakena ,	-0.0152739445
-1.7743729	, amaenkari	-0.0152739445
-0.30084392	amaenkari inati	-0.0152739445
-0.30084392	antavaerianti inati	-0.0152739445
-2.8159442	<s> amake	-0.0152739445
-1.502552	niha amake	-0.0152739445
-0.77759326	amake noshavo	-0.0152739445
-0.30084392	opankitake noshavo	-0.0152739445
-0.6018071	noshavo koriti	-0.0152739445
-0.29973686	koriti ovaantsiki	-0.0152739445
-0.29973686	ovantire ovaantsiki	-0.0152739445
-0.5994776	kitamaari ovaantsiki	-0.0152739445
-0.29973686	oyaatantari ovaantsiki	-0.0152739445
-0.9935725	hamani ovaantsiki	-0.0152739445
-0.29973686	rantavaeveta ovaantsiki	-0.0152739445
-0.29973686	noyaate ovaantsiki	-0.0152739445
-0.29973686	piniro ovaantsiki	-0.0152739445
-0.77428335	tonkariki ovaantsiki	-0.0152739445
-0.5994776	niyanki ovaantsiki	-0.0152739445
-0.5994776	shonyaki ovaantsiki	-0.0152739445
-0.29973686	parianti ovaantsiki	-0.0152739445
-1.8067967	<s> irika	-0.070296474
-0.30084392	imaatsa irika	-0.0152739445
-1.378696	irika aaniri	-0.0152739445
-0.30090356	aaniri rashinonkaaka	-0.0152739445
-2.9741673	<s> tekatsi	-0.0152739445
-0.30064154	rashinonkaaka tekatsi	-0.0152739445
-0.77698696	kayetsi tekatsi	-0.0152739445
-0.30064154	perantaantsi tekatsi	-0.0152739445
-0.9025843	tekatsi iriripaye	-0.0152739445
-3.098257	<s> nonyaakero	-0.0152739445
-0.30075476	nonyaakero nanaeni	-0.0152739445
-0.30075476	evatairo nanaeni	-0.0152739445
-0.30075476	iyati nanaeni	-0.0152739445
-0.77777195	nanaeni aanakiro	-0.0152739445
-0.30090356	aanakiro ovantire	-0.0152739445
-3.098257	<s> okantakina	-0.0152739445
-0.30075476	okantakina nishintyo	-0.0152739445
-1.0775324	okantakena nishintyo	-0.0152739445
-0.30075476	otyaapanikite nishintyo	-0.0152739445
-0.4723161	nishintyo :	-0.0152739445
-1.1039779	choeni :	-0.0152739445
-0.9852219	isheeni :	-0.0152739445
-0.29782063	nirentitsori :	-0.0152739445
-0.59566486	naana :	-0.0152739445
-1.2831984	apa :	-0.0152739445
-1.1711419	yeye :	-0.0152739445
-0.59566486	ikantiro :	-0.0152739445
-0.83396757	pinkatsari :	-0.0152739445
-0.59566486	oriani :	-0.0152739445
-1.1790857	tsinane :	-0.0152739445
-1.1790857	itomi :	-0.0152739445
-0.29782063	ivashiyari :	-0.0152739445
-1.0827259	nana :	-0.0152739445
-1.1241453	sheripiari :	-0.0152739445
-1.0602716	notyomi :	-0.0152739445
-0.29782063	nohina :	-0.0152739445
-0.59566486	evankavo :	-0.0152739445
-0.89039254	ikanti :	-0.0152739445
-0.89039254	iriani :	-0.0152739445
-0.29782063	tsinanipaye :	-0.0152739445
-0.76859355	icharine :	-0.0152739445
-0.29782063	oharipaye :	-0.0152739445
-0.29782063	hatantaneri :	-0.0152739445
-0.29782063	kamari :	-0.0152739445
-0.29782063	raretantapaakari :	-0.0152739445
-0.29782063	aretapaenchari :	-0.0152739445
-0.29782063	piyatsare :	-0.0152739445
-0.29782063	ashitaaniyetatsiri :	-0.0152739445
-3.0667553	<s> ramaki	-0.0152739445
-1.9739754	: ramaki	-0.0152739445
-0.6018071	ramaki aapi	-0.0152739445
-0.30075476	aapi shitovi	-0.0152739445
-0.6015097	ramini shitovi	-0.0152739445
-0.90199006	konoya shitovi	-0.0152739445
-2.0535274	<s> okantakena	-0.10859955
-2.539789	<s> choeni	-0.0152739445
-1.0661691	okantakena choeni	-0.0152739445
-0.2988341	aatonkoriakero choeni	-0.0152739445
-0.8943721	naana choeni	-0.0152739445
-0.59767914	okoyaati choeni	-0.0152739445
-0.7715965	okantiro choeni	-0.0152739445
-0.2988341	ovametaakeri choeni	-0.0152739445
-0.2988341	ovari choeni	-0.0152739445
-1.2795548	ina choeni	-0.0152739445
-0.2988341	opatsavo choeni	-0.0152739445
-0.7715965	ovaneki choeni	-0.0152739445
-0.2988341	aashitakari choeni	-0.0152739445
-0.2988341	mahavitake choeni	-0.0152739445
-0.2988341	onkotsitakeri choeni	-0.0152739445
-0.9891297	oyaati choeni	-0.0152739445
-0.2988341	oviitakero choeni	-0.0152739445
-0.2988341	ookakiro choeni	-0.0152739445
-0.2988341	okatyokakero choeni	-0.0152739445
-0.2988341	ookiro choeni	-0.0152739445
-0.2988341	opakero choeni	-0.0152739445
-3.0667553	<s> pamakena	-0.0152739445
-1.9739754	: pamakena	-0.0152739445
-1.9739754	: aari	-0.0152739445
-0.6016879	pamakena aari	-0.0152739445
-0.6010573	aari tsitsi	-0.0152739445
-1.9756018	osheki tsitsi	-0.0152739445
-1.4971924	iroka tsitsi	-0.0152739445
-0.6010573	raye tsitsi	-0.0152739445
-0.30052835	naye tsitsi	-0.0152739445
-3.098257	<s> aatonkoriakero	-0.0152739445
-3.0235229	<s> ishinto	-0.0152739445
-1.5965881	choeni ishinto	-0.0152739445
-0.30075476	okaemakantiro ishinto	-0.0152739445
-0.77759326	ishinto oitsare	-0.0152739445
-1.4445602	isheni oitsare	-0.0152739445
-0.6018071	oitsare okavoshitantyaavori	-0.0152739445
-3.098257	<s> pamakenari	-0.0152739445
-0.30075476	pamakenari aventyari	-0.0152739445
-1.500767	eentsi aventyari	-0.0152739445
-0.77732605	raakero aventyari	-0.0152739445
-0.77777195	aventyari akaatavakeriita	-0.0152739445
-0.29939812	akaatavakeriita niha	-0.0152739445
-0.7732738	omotyaaki niha	-0.0152739445
-1.5497799	nana niha	-0.0152739445
-0.29939812	ashetakero niha	-0.0152739445
-0.29939812	ocheraki niha	-0.0152739445
-0.29939812	payena niha	-0.0152739445
-0.29939812	amaaniti niha	-0.0152739445
-0.29939812	kiteriatake niha	-0.0152739445
-0.29939812	omotyaki niha	-0.0152739445
-0.5988023	otsapiaki niha	-0.22762923
-0.29939812	cheetatsiri niha	-0.0152739445
-0.29939812	iheetiro niha	-0.0152739445
-0.5988023	pimpavakena niha	-0.0152739445
-0.29939812	amanite niha	-0.0152739445
-0.29939812	oshirinkaare niha	-0.0152739445
-1.5033827	niha haavari	-0.0152739445
-1.0708122	irika eentsi	-0.0152739445
-0.47501385	rantakeri eentsi	-0.0152739445
-0.5992524	iraaka eentsi	-0.0152739445
-0.29962394	iyempitaki eentsi	-0.0152739445
-0.29962394	nironto eentsi	-0.0152739445
-0.29962394	ihaatakero eentsi	-0.0152739445
-0.29962394	imoti eentsi	-0.0152739445
-0.5992524	opooki eentsi	-0.0152739445
-0.29962394	iitoki eentsi	-0.0152739445
-0.29962394	inyakeri eentsi	-0.0152739445
-0.29962394	oporiki eentsi	-0.0152739445
-0.29962394	ishivaitatya eentsi	-0.0152739445
-0.29962394	ipatimatiri eentsi	-0.0152739445
-1.5698001	<s> osheki	-0.015273972
-0.76792896	amake osheki	-0.0152739445
-0.76792896	aventyari osheki	-0.0152739445
-1.4532173	eentsi osheki	-0.0152739445
-0.59521854	koriari osheki	-0.0152739445
-1.6968364	apa osheki	-0.0152739445
-1.1773778	tsinane osheki	-0.0152739445
-1.4013872	isheni osheki	-0.0152739445
-0.76792896	otimi osheki	-0.0152739445
-1.4764977	nani osheki	-0.0152739445
-1.1773778	iitiki osheki	-0.0152739445
-1.3882312	inkaareki osheki	-0.0152739445
-0.59521854	pokake osheki	-0.0152739445
-0.98309416	evankari osheki	-0.0152739445
-0.59521854	raaki osheki	-0.0152739445
-0.47198004	shitovanake osheki	-0.0152739445
-0.29759577	iraenkari osheki	-0.0152739445
-1.407638	ovametantatsiri osheki	-0.0152739445
-0.59521854	shariva osheki	-0.0152739445
-0.29759577	nokemakero osheki	-0.0152739445
-0.59521854	komintsare osheki	-0.0152739445
-0.88951313	timatsi osheki	-0.0152739445
-0.59521854	mayempiri osheki	-0.0152739445
-0.29759577	motinti osheki	-0.0152739445
-0.29759577	nonintakemi osheki	-0.0152739445
-0.29759577	enitatsi osheki	-0.0152739445
-0.59521854	naake osheki	-0.0152739445
-0.29759577	nopochokiti osheki	-0.0152739445
-0.29759577	itsipatavo osheki	-0.0152739445
-0.76792896	shimashiri osheki	-0.0152739445
-0.29759577	otampiate osheki	-0.0152739445
-1.9937209	osheki ikaimi	-0.0152739445
-0.3004152	ikaimi tsireniriki	-0.0152739445
-1.2949208	otsiti tsireniriki	-0.0152739445
-0.77630943	imaye tsireniriki	-0.0152739445
-1.0755055	notyomi tsireniriki	-0.0152739445
-0.3004152	rirenti tsireniriki	-0.0152739445
-0.3004152	katsinkaiteri tsireniriki	-0.0152739445
-3.098257	<s> navihakero	-0.0152739445
-0.30075476	navihakero nampitsi	-0.0152739445
-0.30075476	rovetsikiro nampitsi	-0.0152739445
-0.30075476	hevatirori nampitsi	-0.0152739445
-0.77777195	nampitsi nareetantakari	-0.0152739445
-0.30075476	nareetantakari haka	-0.0152739445
-1.5268235	nani haka	-0.0152739445
-0.30075476	heekabetachari haka	-0.0152739445
-1.9937209	osheki itsaati	-0.0152739445
-0.30090356	itsaati avo	-0.0152739445
-1.8457062	<s> aririka	-0.0152739445
-1.7347445	, aririka	-0.0152739445
-0.299511	avo aririka	-0.0152739445
-0.9924575	ipankoki aririka	-0.0152739445
-1.2432667	kametsa aririka	-0.0152739445
-0.299511	eroti aririka	-0.0152739445
-0.77361006	inkiteki aririka	-0.0152739445
-0.5990273	anyiiri aririka	-0.0152739445
-0.5990273	aroshi aririka	-0.0152739445
-0.299511	pako aririka	-0.0152739445
-0.299511	kitochempe aririka	-0.0152739445
-0.299511	shaa aririka	-0.0152739445
-0.299511	yoosara aririka	-0.0152739445
-0.299511	panteri aririka	-0.0152739445
-1.378696	aririka inyee	-0.22762923
-0.30090356	inyee pokatsiri	-0.0152739445
-3.098257	<s> poyaatanakero	-0.0152739445
-0.30084392	poyaatanakero avotsi	-0.0152739445
-0.30084392	atsamaetero avotsi	-0.0152739445
-0.6018071	avotsi hatatsiri	-0.0152739445
-0.30090356	hatatsiri kempityaariki	-0.0152739445
-3.098257	<s> ihampitiro	-0.0152739445
-2.4337394	<s> charine	-0.0152739445
-0.29804564	ihampitiro charine	-0.0152739445
-1.0615753	ichenko charine	-0.0152739445
-0.5961117	riyaatati charine	-0.0152739445
-0.29804564	iriitake charine	-0.0152739445
-0.9852792	riyaati charine	-0.0152739445
-0.29804564	ichera charine	-0.0152739445
-0.29804564	iyomaro charine	-0.0152739445
-0.89127374	iritake charine	-0.0152739445
-0.29804564	roviintakero charine	-0.0152739445
-0.76925904	raakero charine	-0.0152739445
-0.29804564	rovetsikati charine	-0.0152739445
-0.29804564	kapironkari charine	-0.0152739445
-0.89127374	raanakero charine	-0.0152739445
-0.29804564	ikenkishiriaka charine	-0.0152739445
-0.9852792	ikentake charine	-0.0152739445
-0.29804564	iniyamentoki charine	-0.0152739445
-0.29804564	rovintati charine	-0.0152739445
-0.29804564	otetaka charine	-0.0152739445
-0.29804564	otitakotapaka charine	-0.0152739445
-0.29804564	kamavetaka charine	-0.0152739445
-0.29804564	potsotsi charine	-0.0152739445
-0.29804564	shimperi charine	-0.0152739445
-0.29804564	mariapake charine	-0.0152739445
-0.29804564	tampootake charine	-0.0152739445
-0.29804564	operiri charine	-0.0152739445
-0.29804564	iyereto charine	-0.0152739445
-2.6353762	<s> isheeni	-0.0152739445
-1.0694805	okantakena isheeni	-0.0152739445
-1.4828432	niha isheeni	-0.0152739445
-1.6948271	charine isheeni	-0.0152739445
-0.5988023	okoyaati isheeni	-0.0152739445
-0.29939812	amporetsate isheeni	-0.0152739445
-0.5988023	otyaapate isheeni	-0.0152739445
-0.29939812	atohetake isheeni	-0.0152739445
-0.8965988	ayi isheeni	-0.0152739445
-0.5988023	amperi isheeni	-0.0152739445
-0.29939812	ontyaati isheeni	-0.0152739445
-0.29939812	okiyakoti isheeni	-0.0152739445
-0.29939812	onyaaro isheeni	-0.0152739445
-0.99190116	oyaati isheeni	-0.0152739445
-0.29939812	okantanake isheeni	-0.0152739445
-3.0235229	<s> ¿	-0.0152739445
-1.0266542	: ¿	-0.07521258
-0.6015097	— ¿	-0.0152739445
-1.1452435	¿ aeniro	-0.0152739445
-0.29984987	aeniro piarentsi	-0.0152739445
-0.29984987	otsikaatena piarentsi	-0.0152739445
-0.29984987	anonkaka piarentsi	-0.0152739445
-1.5129708	atiri piarentsi	-0.0152739445
-0.29984987	pinkiteri piarentsi	-0.0152739445
-0.29984987	iraheempiaka piarentsi	-0.0152739445
-0.29984987	inchatonaki piarentsi	-0.0152739445
-0.29984987	kooko piarentsi	-0.0152739445
-0.29984987	tyonkishori piarentsi	-0.0152739445
-0.29984987	antantyari piarentsi	-0.0152739445
-0.29984987	nontsikaatavake piarentsi	-0.0152739445
-1.3412857	piarentsi nireri	-0.0152739445
-0.30018893	nireri ?	-0.0152739445
-1.404165	ani ?	-0.0152739445
-0.8997356	pitomi ?	-0.0152739445
-0.30018893	piyaatika ?	-0.0152739445
-0.30018893	nokantakemiri ?	-0.0152739445
-0.30018893	okatsitake ?	-0.0152739445
-0.30018893	petakovaetantari ?	-0.0152739445
-0.30018893	eeroka ?	-0.0152739445
-3.098257	<s> itsatakiro	-0.0152739445
-0.30090356	itsatakiro ahopi	-0.0152739445
-0.30084392	ahopi koriari	-0.0152739445
-0.30084392	imenkotake koriari	-0.0152739445
-0.6018071	koriari ikahankantyaari	-0.0152739445
-3.098257	<s> pakeri	-0.0152739445
-0.5983527	ramaki pavachori	-0.0152739445
-0.29917243	pakeri pavachori	-0.0152739445
-0.29917243	atsiinkake pavachori	-0.0152739445
-0.29917243	itonkakeri pavachori	-0.0152739445
-0.9907904	itonkake pavachori	-0.0152739445
-0.9907904	riyaati pavachori	-0.0152739445
-0.5983527	rotsitsite pavachori	-0.0152739445
-0.7726021	omatakeri pavachori	-0.0152739445
-0.9907904	ikentake pavachori	-0.0152739445
-0.5983527	ichekake pavachori	-0.0152739445
-0.8957068	timatsi pavachori	-0.0152739445
-0.29917243	ichekakotake pavachori	-0.0152739445
-0.29917243	raminiro pavachori	-0.0152739445
-0.29917243	itantoriaakero pavachori	-0.0152739445
-0.29917243	ipahakaatakeri pavachori	-0.0152739445
-0.29917243	itipiati pavachori	-0.0152739445
-0.29917243	itsinampaakero pavachori	-0.0152739445
-1.7743729	, ikaematimi	-0.0152739445
-2.6699913	<s> ikantana	-0.0152739445
-0.77759326	ikantana nirentitsori	-0.0152739445
-0.30084392	ikantakina nirentitsori	-0.0152739445
-1.9739754	: poya	-0.0152739445
-1.6767972	aririka poya	-0.0152739445
-0.60128343	poya mamori	-0.0152739445
-1.3755726	antari mamori	-0.0152739445
-0.77698696	rovantyaavori mamori	-0.0152739445
-0.30064154	nakachatantyari mamori	-0.0152739445
-0.9025843	mamori akacharentsi	-0.0152739445
-2.4586096	<s> namanantake	-0.0152739445
-0.9025843	namanantake akachaarontsi	-0.0152739445
-0.30090356	akachaarontsi akachatantyaari	-0.0152739445
-0.30090356	akachatantyaari mamoripaye	-0.0152739445
-3.0235229	<s> niyompari	-0.0152739445
-1.3769199	irika niyompari	-0.0152739445
-0.77732605	ishinto niyompari	-0.0152739445
-0.77777195	niyompari akachavaerenti	-0.0152739445
-0.30090356	akachavaerenti kitaeterikipaye	-0.0152739445
-0.30084392	kitaeterikipaye rova	-0.0152739445
-0.30084392	maretyakintsi rova	-0.0152739445
-1.6703877	osheki shima	-0.0152739445
-0.59970295	rova shima	-0.0152739445
-1.072148	rovanavo shima	-0.0152739445
-0.29984987	cherenkantsi shima	-0.0152739445
-0.29984987	itonki shima	-0.0152739445
-0.29984987	ipashikantyaari shima	-0.0152739445
-0.29984987	tashankantsi shima	-0.0152739445
-0.29984987	pamakeri shima	-0.0152739445
-0.29984987	nokentatakaemi shima	-0.0152739445
-0.29984987	akipatantyaari shima	-0.0152739445
-0.59970295	ratsotiro shima	-0.0152739445
-2.8333437	<s> rakachatiri	-0.0152739445
-0.6015097	rakachatiri shevankori	-0.0152739445
-0.90199006	inyaakeri shevankori	-0.0152739445
-0.30075476	inyampoeretakeri shevankori	-0.0152739445
-0.77759326	shevankori komairi	-0.0152739445
-1.4125605	ani komairi	-0.0152739445
-0.6015097	komairi omotyaaki	-0.0152739445
-1.8825637	yeye omotyaaki	-0.0152739445
-0.30075476	koshoshiko omotyaaki	-0.0152739445
-3.098257	<s> tasheyakena	-0.0152739445
-1.7726032	, pimpena	-0.0152739445
-1.9739754	: pimpena	-0.0152739445
-0.6018071	pimpena pakishire	-0.0152739445
-3.098257	<s> akishitiniri	-0.0152739445
-1.0768557	okantakena naana	-0.0152739445
-0.30064154	akishitiniri naana	-0.0152739445
-0.77698696	okantiro naana	-0.0152739445
-0.60128343	okantana naana	-0.0152739445
-0.76892614	ikantana apa	-0.0152739445
-0.8908329	naana apa	-0.0152739445
-0.59588826	riyaatati apa	-0.0152739445
-1.5244172	nana apa	-0.0152739445
-0.9847319	itonkake apa	-0.0152739445
-0.29793316	chekaka apa	-0.0152739445
-0.9847319	riyaati apa	-0.0152739445
